{"type":"LSTM","options":{"inputSize":29,"inputRange":29,"hiddenSizes":[20,20],"outputSize":29,"learningRate":0.01,"decayRate":0.999,"smoothEps":1e-8,"regc":0.000001,"clipval":5,"json":null,"dataFormatter":{"values":["al diel shala","alar'annalas","ama noral'arkhana","anar'alah","anar'alah belore","anar'endal dracon","anaria shola","and","ann'da","anu belore dela'na","aranal","bal'a dash, malanore","ban'dinoriel","band'or shorel'aran","bash'a no falor talah","belono sil'aru, belore'dorei","belore","by the breath of the dragon","by the light","by the light of the sun","children of noble birth","children of the blood","death to all who oppose the children of the blood","doral ana'diel","elor bindel felallan morin'aminor","elu'meniel mal alann","farewell","father","felo'melorn","flamestrike","gatekeeper","greetings, traveler","he who walks the day","help me forget","high blade","high home","how fare you","justice for our people","keeper of secrets","kim'jael","light of the forest","little rat","may peace calm your heart","medivh","minn'da","mother","prepare to say farewell","quel'dorei","quel'serrar","quel'thalas","ranger lord","rea","rise","safe travels","saved by magic","selama ashal'anore","shindu fallah na","shorel'aran","shoulder your burdens well, child of the sun","sin'dorei","sinu a'manore","sleep forever in quiet serenity","speak your business","sunstrider","tal anu'men no sin'dorei","taste the chill of true death","thas'alah","thas'dorah","the sun","the sun guides us","they're breaking through","valor of the forest","vendel'o eranu","well met"],"indexTable":{"a":0,"l":1," ":2,"d":3,"i":4,"e":5,"s":6,"h":7,"r":8,"'":9,"n":10,"m":11,"o":12,"k":13,"b":14,"c":15,"u":16,",":17,"f":18,"t":19,"y":20,"g":21,"w":22,"p":23,"v":24,"j":25,"q":26,"stop-input":27,"start-output":28},"characterTable":{"0":"a","1":"l","2":" ","3":"d","4":"i","5":"e","6":"s","7":"h","8":"r","9":"'","10":"n","11":"m","12":"o","13":"k","14":"b","15":"c","16":"u","17":",","18":"f","19":"t","20":"y","21":"g","22":"w","23":"p","24":"v","25":"j","26":"q","27":"stop-input","28":"start-output"},"characters":["a","l"," ","d","i","e","s","h","r","'","n","m","o","k","b","c","u",",","f","t","y","g","w","p","v","j","q","stop-input","start-output"]}},"input":{"rows":30,"columns":29,"weights":{"0":-2.0888393679177537,"1":2.065782332211781,"2":0.2505379427815489,"3":0.4760336142226213,"4":-0.09180382238536461,"5":-0.5998366702096237,"6":-0.906030488956428,"7":-1.621842374862073,"8":-0.5644296513395805,"9":-3.3904088545280997,"10":-0.5222224279713283,"11":-1.7133607882148454,"12":0.8300927966681368,"13":-2.710741833914645,"14":-0.279168216511746,"15":1.0544754058202,"16":0.6746645817495566,"17":-0.987467334078367,"18":-0.7077542497439493,"19":-1.0089360223726063,"20":-1.143029560333303,"21":-0.3333852324932846,"22":-2.3428855811019256,"23":-0.07003371260896532,"24":0.15517297189963025,"25":1.9924624854977893,"26":-1.2090687576656929,"27":1.9688062529466428,"28":1.3939942011637094,"29":0.6217630026955742,"30":1.60156623045012,"31":0.19630489912589755,"32":-1.953631767510959,"33":0.2296508912081244,"34":2.0710628252996406,"35":-1.6877169260210647,"36":-0.23776326908066814,"37":0.39712973107941313,"38":0.7464645747382408,"39":-0.6770676276887694,"40":-0.5724554785983135,"41":1.4228583445737963,"42":1.0602501423924184,"43":-0.28809194943309135,"44":-1.154131175327896,"45":-2.7224975986765574,"46":-3.336530030905903,"47":-2.4465654934261347,"48":1.4628477339695016,"49":-0.020598640093986084,"50":0.22643427529031884,"51":1.4122217630818445,"52":-0.01292158431617221,"53":-2.441371896118863,"54":0.2035570620823449,"55":-0.848716539136141,"56":0.49019543637877117,"57":1.2751963938660562,"58":0.6320345119680041,"59":-0.38871288457453385,"60":-1.6924402228663682,"61":-1.9261420544583745,"62":0.020614011706811132,"63":1.7071151269880607,"64":1.4230404292066785,"65":-0.6574450747122117,"66":-2.122514457584917,"67":0.11610002848550348,"68":-1.6172352743813432,"69":-0.16867385282423986,"70":1.6869768827737954,"71":0.26538676461724026,"72":0.29427767867456356,"73":-0.7578035290691743,"74":-0.3185105325389876,"75":-0.2753266718708977,"76":2.519391467112518,"77":-0.30337133129381905,"78":1.6801510127446229,"79":3.3017899679126725,"80":-0.2642587334910118,"81":-1.503286230341734,"82":-2.280139763204109,"83":1.30380059852287,"84":2.684495141301556,"85":1.1820818208955917,"86":1.099129379590581,"87":-0.13318778819556848,"88":2.8364327202728616,"89":1.900327348866101,"90":-2.315490573933981,"91":-1.3078816777736662,"92":6.1391288742582395,"93":-2.334001018484561,"94":-1.2835674011346012,"95":0.6794928609056077,"96":0.6905997966155293,"97":1.2140967047168632,"98":0.9711621235531814,"99":0.7986605202842861,"100":0.3285650428506991,"101":-0.07922067593507,"102":2.68378617907926,"103":2.3829167985784196,"104":1.916160369931469,"105":-1.4835072888243819,"106":1.1775183011862989,"107":-1.3486281622127576,"108":-1.332586523973937,"109":3.3858022473643485,"110":0.3468344365352701,"111":-1.6143580360198495,"112":-1.8024105901755367,"113":-1.2069382263169317,"114":0.41819342208080873,"115":0.6915028761338313,"116":5.90378908420839,"117":1.4960210428721576,"118":-8.997226474807071,"119":-0.5324250074686993,"120":-1.3392775194814293,"121":0.4766287115628467,"122":0.46041904028740827,"123":4.519796093909205,"124":-4.5295901819132585,"125":-1.9362821702583386,"126":-6.606463927201693,"127":-0.29918134814810693,"128":3.2801750723086567,"129":0.02450162160728131,"130":-1.5711502961846922,"131":-1.9767396387014282,"132":3.4938520814003633,"133":-1.424568882623778,"134":-1.1050279654476207,"135":-6.639633495613801,"136":2.498442004048593,"137":-0.5877435437478775,"138":1.3453996398943822,"139":-3.007185054349804,"140":-1.684626455752517,"141":-2.3085186703029055,"142":3.0215415536855175,"143":4.196427342314546,"144":1.2031473536725328,"145":0.2562926195355071,"146":0.41963095061161326,"147":0.7279255987335265,"148":-0.9070806343239624,"149":1.0056470500666415,"150":0.40542138179187726,"151":0.4721230707248333,"152":2.6817600434372895,"153":0.21237556036517224,"154":1.1866999023967604,"155":-0.5231485073058363,"156":-0.8766512616847792,"157":1.7444806315299302,"158":0.7679005891719215,"159":-0.2404430875742169,"160":-0.36846250111249973,"161":-1.1454229188339768,"162":0.12897438469095357,"163":0.15824586774468838,"164":0.9635671630132303,"165":0.17758176526298167,"166":0.26355945671729075,"167":2.171385057359957,"168":1.0154290387784572,"169":0.649352673609708,"170":-0.972038551339188,"171":-1.37847246713349,"172":0.8293881849329885,"173":-1.529509569930591,"174":0.7642927526509591,"175":-3.120437988247436,"176":-1.340338187393036,"177":0.3412160413489393,"178":0.6413214193612538,"179":-4.605654955155539,"180":1.4065817504164704,"181":-0.7712754168374599,"182":-0.28670417556307487,"183":0.5876409215362245,"184":-0.3738476110600284,"185":-0.08886388468673308,"186":0.21525330646892868,"187":2.132698170914093,"188":-0.9332003839040199,"189":-2.956689639836535,"190":-4.161736769813619,"191":-4.38078737816153,"192":-0.44134508952272955,"193":0.7793194964171098,"194":-0.5647638870973669,"195":-0.5942873187265424,"196":-4.806483643874311,"197":0.5222638417410342,"198":-0.4371499699560116,"199":-1.195868143931254,"200":-0.7568813075169694,"201":-0.9084395470761726,"202":1.8290180841112424,"203":-0.1492894990043318,"204":-0.94380467153429,"205":1.5939266935207907,"206":3.1406261480500124,"207":0.7420616953090118,"208":-1.0118120904803245,"209":0.14616989102170533,"210":0.3603758703165091,"211":2.004106911829239,"212":2.796295959679681,"213":1.239646969262229,"214":-0.9894301035750679,"215":-1.5080310035273832,"216":2.013478624022293,"217":-0.16540830799261588,"218":-1.2049093487111415,"219":-1.0118139780659292,"220":-1.384032493576246,"221":0.10845314755937122,"222":1.3154757065828928,"223":-0.37136938317156015,"224":-1.6682817940268737,"225":-1.245862863113771,"226":1.3709950520652203,"227":0.7903203942275838,"228":-0.3193168651560217,"229":-0.4200492300131825,"230":-2.118186474734462,"231":-0.9125359970188205,"232":-0.8329435064831996,"233":-0.9241779643397898,"234":0.9101408211219363,"235":-0.3462410050889268,"236":0.5390365224955256,"237":-0.709140427577059,"238":0.365479065862023,"239":2.005239599368524,"240":0.5177256245064707,"241":0.21442197807282565,"242":-0.2278432702051509,"243":-0.6411881080276939,"244":0.02861440999237156,"245":0.49893655500447315,"246":0.455974165488023,"247":0.5290316720327349,"248":-1.33645102273864,"249":-0.1906123782413342,"250":-0.855657859599089,"251":1.6396529578687478,"252":0.0578211512695701,"253":-0.16137772237069395,"254":-0.6858751430096075,"255":0.18042046781235338,"256":1.6072099410707053,"257":-4.353442300246056,"258":-2.2566759006422332,"259":0.230301817888815,"260":-1.421911345311694,"261":-0.2779253316246347,"262":-0.44501557493410115,"263":-0.23356808915194055,"264":-0.2941151726929094,"265":-0.36628865572449676,"266":-0.2360553865533195,"267":-0.014138960573319278,"268":0.8077591856149621,"269":-0.02316055491100611,"270":0.3472627603303184,"271":1.2468396239961634,"272":-0.22909901950262893,"273":-0.4216890132256131,"274":1.0063415439931223,"275":-0.38311092470032204,"276":-1.4834831444279368,"277":-0.8846529004398421,"278":-1.7421883140739811,"279":1.2383158784290553,"280":0.197067156407789,"281":0.2395917979397913,"282":-1.0382471409551708,"283":0.09066521785911105,"284":-0.03485571276027797,"285":-1.032238601414738,"286":0.1856069287158071,"287":1.2466201966107089,"288":-0.43903281166708924,"289":0.08903692895363279,"290":1.5138960780030606,"291":-5.181248739465813,"292":-3.060745150819634,"293":0.10396049270015603,"294":0.035203098592232855,"295":0.598160922600829,"296":0.8555675197638202,"297":-0.20378487135201553,"298":1.8895889739282195,"299":-0.8326542802254596,"300":-1.8684557344601294,"301":0.7302989930679241,"302":-5.119553835527426,"303":-0.206778860598514,"304":0.8406521328567182,"305":4.142057195468261,"306":0.0338042449539485,"307":-3.037948964867409,"308":-2.923418332973342,"309":0.2601645866324581,"310":2.408331965415092,"311":0.8465700536154745,"312":-2.726700591186067,"313":-1.0991544652258523,"314":2.4445369853711605,"315":-5.614701384671686,"316":-0.7568326133290149,"317":-4.8191339111792,"318":-4.581543577711097,"319":2.5458437390629056,"320":-0.3475309841702392,"321":-0.8234892993512953,"322":-0.6784230625823348,"323":0.6365268261652424,"324":-0.03497647028449755,"325":2.033615775813121,"326":1.6514619938753192,"327":0.982891288938598,"328":0.6619574631941488,"329":-2.126606866475563,"330":0.950365353189499,"331":-1.0263463296372375,"332":0.7762399790361387,"333":-0.9346438015315558,"334":0.20606759982060788,"335":0.22630848786659202,"336":0.19709056144036372,"337":-0.008640396320834944,"338":-0.35703259133499526,"339":-0.05922844746258003,"340":0.8833279480106079,"341":2.870952110587789,"342":-0.9465373389478615,"343":1.6395521337257768,"344":-2.2085707579592357,"345":1.1231555520822354,"346":-1.1682888129473843,"347":-0.15916161514809643,"348":-1.5810458511542906,"349":-2.071296678556408,"350":-4.252652252170184,"351":4.505427340099232,"352":5.2049074939174655,"353":1.2438175550584334,"354":-3.7332901436544126,"355":5.906701257420054,"356":-0.5069688004443337,"357":-0.5182010425181476,"358":-2.423862779489791,"359":-3.3856207248834957,"360":5.348469225755395,"361":-0.5468282319526946,"362":-0.13288865045585285,"363":-4.279963872542403,"364":1.9456506439336279,"365":1.5906713968378985,"366":2.1465683961382687,"367":-6.291326475702674,"368":1.6617509547190044,"369":4.7816770614888275,"370":4.171476609853342,"371":-2.777572030494368,"372":-5.636862083038138,"373":1.92256839009188,"374":4.082946769932135,"375":-1.2331193188428125,"376":5.351584871782386,"377":-0.20586296929918024,"378":-0.08633711344610079,"379":-1.5858612472102138,"380":-0.9724668717183392,"381":0.21862432831640652,"382":-2.4230907008521956,"383":2.417899248466424,"384":4.365907113207065,"385":-0.31132292070081224,"386":0.3793987723722374,"387":0.5045459139875638,"388":-0.6615415182640326,"389":-1.6567777923159375,"390":0.9924581385315728,"391":-0.5471551458110008,"392":-0.29571912025431746,"393":-0.7720389565499338,"394":2.383938564070688,"395":-1.3125737769298933,"396":-0.380764648964754,"397":1.748864136276186,"398":0.9880807487840474,"399":-3.3730828689784746,"400":-0.6136719805296266,"401":1.7284589744464047,"402":-2.1436902037784877,"403":1.3989405419409453,"404":1.3144387830077675,"405":-0.3947732252165438,"406":2.4424629199366765,"407":-6.792314823051106,"408":0.7788385064413219,"409":0.9732370454497434,"410":-1.9747716649289122,"411":-7.015596429124786,"412":-8.40398920179376,"413":-0.6823352662281711,"414":4.819648669273433,"415":-2.2527228005434905,"416":-0.25597438667696676,"417":-1.979916674554481,"418":1.9128852464080992,"419":-4.8292158948603685,"420":7.959299509976203,"421":-5.367119530529803,"422":-1.9640213840732514,"423":-5.0696172578415695,"424":-0.7516684202510322,"425":2.4799577087955815,"426":-4.42029967321107,"427":3.259176280416026,"428":-10.74640016156586,"429":4.531670608962316,"430":-4.2304881792981845,"431":-1.0164336332306074,"432":1.1795604176414454,"433":-7.550138485826709,"434":6.701094304064272,"435":0.17233723453416416,"436":-0.3086119613669396,"437":-2.994092962105185,"438":2.251854476845343,"439":0.011821202816880922,"440":-1.1849586737182811,"441":1.3966593962936276,"442":-0.3525776641661381,"443":-1.1600206936985566,"444":-0.6324813927441201,"445":-2.504160790562885,"446":1.7139682367575417,"447":-4.121572962082967,"448":-3.087586414013482,"449":-2.4281044743352536,"450":3.3248962622112996,"451":0.9980874497457075,"452":1.959975466590793,"453":-1.7352365521066595,"454":-2.530527366460526,"455":1.0225915623695463,"456":3.073302995801003,"457":-5.08586217625457,"458":0.16463216930429375,"459":3.7407591998642657,"460":-3.4002281557903227,"461":0.21458747049474833,"462":-1.8989746064114534,"463":0.12646930705839896,"464":-3.21085511368301,"465":-7.164712274251259,"466":6.64008991926937,"467":2.2520504599708953,"468":-1.0349350699211235,"469":-0.9076455801087724,"470":-0.4961941078324526,"471":-4.593205967622827,"472":4.568904001112667,"473":-2.2812564523597736,"474":10.077979241395454,"475":0.582754137768282,"476":-6.35725732471157,"477":0.07406389355361029,"478":-1.5592880368247986,"479":-4.644438208119792,"480":-5.330380182260503,"481":-2.502058226174419,"482":-7.017159592375394,"483":3.914650588100644,"484":-5.433460028936607,"485":-4.010514622123003,"486":2.133909248574778,"487":2.065360176418277,"488":-7.397450834455744,"489":4.135254848942622,"490":-4.0932111488362395,"491":-7.379441798596112,"492":2.553161816108986,"493":-0.7810895936214948,"494":2.6804861178549633,"495":-0.2588125259688108,"496":-0.23888676009510362,"497":-0.28948308562741476,"498":-3.5020642950289047,"499":2.4942151592715365,"500":-0.7847430173856368,"501":-0.05071570848578506,"502":3.6204787386533037,"503":-1.5981001107962174,"504":-0.12450484957301021,"505":-0.8362338205574434,"506":3.7054828547699783,"507":-0.3879057882576817,"508":1.731175717628022,"509":-1.5327303924388707,"510":0.010634531920618018,"511":1.1813515207623664,"512":-1.833419928140749,"513":-1.4567961689726174,"514":0.10870361675077332,"515":0.07450199918027003,"516":2.277803359954769,"517":3.0865448113741825,"518":0.6863957198206895,"519":1.8499109175262445,"520":-0.3346133111301739,"521":-1.2174962331369708,"522":6.2818855772861495,"523":0.6263413891959032,"524":2.126804578981885,"525":-11.85350964208701,"526":-3.629106587748215,"527":2.77481902012342,"528":-4.09710062759059,"529":7.403400306492879,"530":-0.1523577044213711,"531":2.7338848493070826,"532":-0.022685797959854703,"533":-2.9100762009783314,"534":10.646854451781685,"535":0.15005796432394317,"536":10.072139234443728,"537":14.473740609327418,"538":3.7765296091561114,"539":10.408550318298193,"540":9.810464146069954,"541":1.6777167266337951,"542":4.377942749932362,"543":2.217881262703878,"544":7.563568182575797,"545":1.5901947974770947,"546":13.535656501685416,"547":-1.030283136360419,"548":6.303258671057834,"549":3.269815607222436,"550":7.596699845932702,"551":-2.6513934645116652,"552":1.6495368483962773,"553":2.862632187698138,"554":3.585989177385574,"555":4.145239354203694,"556":-1.7177554307809366,"557":0.7000592843199287,"558":0.5944869481758326,"559":5.047719957970387,"560":6.244067067186832,"561":-0.41254691061914656,"562":-4.851301132280308,"563":0.6046319774999062,"564":8.653620459636423,"565":2.983918598943335,"566":0.9922579223085276,"567":-4.687725128367765,"568":-3.2161160584350266,"569":-1.0080210525563065,"570":-0.19456441512725753,"571":-3.051560172690467,"572":-0.43245873595183143,"573":3.4116942888176713,"574":2.1914334564385154,"575":1.701758847578887,"576":1.2154861874884604,"577":-4.684627531808126,"578":-1.4949772177958605,"579":-2.3225914698411922,"580":-0.5779702129056709,"581":-0.759512990950198,"582":1.9999185094314214,"583":0.2807813515445426,"584":-0.13985307641241992,"585":0.18619732259861535,"586":-0.542534004033297,"587":1.3243121427406843,"588":1.8362791300770838,"589":-0.4521396243128265,"590":1.8140412098435135,"591":-0.6675524676757403,"592":-0.7577057961498826,"593":-0.12161774288100081,"594":0.9280133786825399,"595":0.1922703525815927,"596":-0.12046171571799758,"597":0.3488322440821226,"598":0.5478023657873381,"599":2.127592324036927,"600":-0.8314125906804156,"601":-1.4958947658068968,"602":-0.9895780569448793,"603":0.8243708830509563,"604":1.0526828316412908,"605":0.2900494199769038,"606":-1.0780141103403227,"607":-0.6328070044141079,"608":-0.34656975917459065,"609":-0.8350665470954441,"610":-2.2456201987241053,"611":3.8910627429248366,"612":-0.10887382961800368,"613":2.3073581992236782,"614":3.281529760564573,"615":-4.6807923236565365,"616":4.085001925700379,"617":2.0279609813238246,"618":-3.429511983553312,"619":2.1337463455295227,"620":0.31794152758115024,"621":2.6522324228921685,"622":-1.9309970947916288,"623":4.067409624962221,"624":0.9028354612928152,"625":3.3852290960770515,"626":3.7105411647307465,"627":0.8919965915269934,"628":0.20396018159440923,"629":1.0807046697043472,"630":-1.570719346761116,"631":4.433808424160346,"632":-0.18057223749706616,"633":-0.387604731529123,"634":-2.182678229088165,"635":-1.0716776460314454,"636":1.3386186247124283,"637":-1.180994064648371,"638":2.4224421529901856,"639":-2.2923634128962287,"640":2.3560782011332706,"641":3.1275168847911923,"642":2.8549312255029227,"643":3.7070570155856806,"644":-4.357418042269102,"645":6.895602678829982,"646":0.03870358685037155,"647":0.30467052135920025,"648":2.935473374955307,"649":-1.228435155101607,"650":0.5361615346549371,"651":-0.31877473845650683,"652":1.153476229838987,"653":4.134092077356279,"654":-2.3396853267832745,"655":-3.2826061513054205,"656":-4.991137530233743,"657":2.1407483609401785,"658":3.373940581286893,"659":-1.567279997417641,"660":9.133548893181848,"661":-0.9281671227876576,"662":1.9959270302393504,"663":-5.055272982255012,"664":1.7760141634809528,"665":0.6290058877235051,"666":-2.8310219563173855,"667":-4.915464325712992,"668":7.7680921345022,"669":-1.0149007227529676,"670":-3.3549232481827995,"671":-4.668139829389399,"672":2.6856964895280004,"673":7.274733727520298,"674":-0.18780824271817056,"675":-3.529370223266898,"676":1.0206724187188898,"677":-9.541003844090918,"678":-6.1310485694397565,"679":3.0837712256840506,"680":5.608036351042222,"681":-0.08353029153334335,"682":-2.362525249333548,"683":2.5636955003195796,"684":-2.4986796934727606,"685":-1.8289708829487161,"686":3.13702868083418,"687":6.791610171140023,"688":6.250766650482401,"689":-3.3941167887314236,"690":-7.366479600928722,"691":-5.5588744932045255,"692":2.8432481856329246,"693":-2.0488016081788283,"694":3.7644422807363784,"695":-2.3338744641043787,"696":7.075806715186391,"697":0.7102081337122229,"698":-8.594341198753403,"699":-1.6525680573232835,"700":-2.6270211188337615,"701":-3.3962440356369674,"702":3.467619007704663,"703":1.75483351068617,"704":-2.173956346923996,"705":1.1331590074199824,"706":-2.5585042013130317,"707":-2.4613026521091115,"708":1.172176048808116,"709":1.846254710087371,"710":-3.4820460770589334,"711":3.140012839281465,"712":4.765916287727744,"713":-1.9265883706246896,"714":-0.42774523339930465,"715":-4.950582807757146,"716":5.453147785605067,"717":3.3020303094106116,"718":-0.19910487492270654,"719":0.950210308599429,"720":-1.3485527423337351,"721":-7.485283532153812,"722":7.045633795360894,"723":1.5629213860246587,"724":-3.5484084035400003,"725":3.3859615686555045,"726":-3.5599851922367023,"727":-10.328341477428491,"728":-5.184776669291173,"729":0.5042232955100189,"730":-6.528739052759222,"731":8.732230881186288,"732":3.5175810670759486,"733":-6.541144311964895,"734":-0.19681854453972372,"735":-7.534602636478633,"736":-0.18512939230946734,"737":0.3178117857449041,"738":0.5573293586750278,"739":-3.979374486205357,"740":-2.0508218462691006,"741":-0.7785106350982249,"742":-8.824430469011364,"743":-8.104059854325945,"744":-1.6935909356581613,"745":9.769730589519755,"746":10.021133094170084,"747":-3.9183159475769385,"748":-3.427342025554997,"749":-0.42869671123130376,"750":-1.5201101730263962,"751":10.665910502401799,"752":1.0378990696695694,"753":-0.05281134696950817,"754":7.538104380322455,"755":-3.90667257159098,"756":0.7395746085203996,"757":-18.187550862993973,"758":-16.286461120459702,"759":-0.5895781330587263,"760":-1.9011595283447038,"761":7.594836389516147,"762":5.990251475490007,"763":-2.9917953818422887,"764":8.623716045003123,"765":-8.765423478455522,"766":6.524334171722734,"767":-0.21541985219426094,"768":5.193657715689969,"769":1.0386423909185998,"770":6.634269712280962,"771":16.978156109771554,"772":16.303224651946262,"773":4.075355464213388,"774":3.0598765384584823,"775":5.06706872494695,"776":-2.8188331966860143,"777":-5.0095070369176415,"778":-2.1976902484405834,"779":-0.792847043301515,"780":6.171779082959385,"781":-7.9760881326231425,"782":-8.044096041314983,"783":1.3528073920935129,"784":-2.8433402303629,"785":7.124653961609877,"786":-0.5038938071489728,"787":2.00848417669858,"788":6.788271419344519,"789":-3.994725455695428,"790":-10.338964529751705,"791":3.5637922910964113,"792":0.8351745416254819,"793":5.390153358928146,"794":1.3225179857855907,"795":-10.881502979719446,"796":-1.8228549062792625,"797":4.021830203361124,"798":-6.0980911818129515,"799":1.2960329657516148,"800":7.8422704971747335,"801":5.341488763660064,"802":5.836419808845471,"803":-4.176069613015108,"804":-3.9118285154284123,"805":-1.6845228483852612,"806":2.2426576477088283,"807":-6.449745827329884,"808":3.894311899998292,"809":-6.111744687654963,"810":-1.091872944506416,"811":0.6324876863141957,"812":0.2441249343609289,"813":-1.428163606796151,"814":0.8782209818698549,"815":0.31615766511569293,"816":0.4303444138185523,"817":1.4654203624591713,"818":-0.9432445427415765,"819":-0.06576697722574672,"820":1.7071227133732583,"821":-0.5515887375716724,"822":1.1718435981346353,"823":-0.5263090366108228,"824":-0.4776740364970183,"825":-1.5315792485611592,"826":0.42747566948022897,"827":-0.700104477060326,"828":-0.37146632848506517,"829":-0.35238099102453746,"830":0.5790280815555204,"831":3.3286073477245663,"832":-0.2753223489661794,"833":-0.7541573519124066,"834":-1.0940533883092807,"835":0.06999988770897932,"836":-0.7173482911862877,"837":0.2936426232566309,"838":-1.051950131231698,"839":-1.1222350504610794,"840":0.330122141172258,"841":-0.14785383722440198,"842":0.5783787476875837,"843":-0.5851854447838717,"844":-0.36318410655040273,"845":-0.13483813061005726,"846":0.8963082917249582,"847":-1.1543030611227563,"848":-0.06778155392245712,"849":-0.31066403309248364,"850":-0.9343117520904402,"851":-0.1793838322005561,"852":0.784981012245548,"853":1.9556257316140904,"854":-0.674383608408093,"855":1.439387509034676,"856":-0.9855837947746698,"857":1.3387829792846138,"858":0.48444827349962527,"859":-1.3758418486153723,"860":0.17630967187062108,"861":-0.35187282538515113,"862":0.5827992689879742,"863":0.07816063906673457,"864":0.23102408316053857,"865":-1.2479351885508116,"866":0.5033251251115647,"867":-0.8992393864113377,"868":0.5237980608134708,"869":2.5082525192244245}},"hiddenLayers":[{"inputMatrix":{"rows":20,"columns":29,"weights":{"0":0.48915791746884635,"1":-0.7701346411523731,"2":-0.602476182465528,"3":-1.2295705933665384,"4":-0.8418676943044106,"5":-0.5317950881053841,"6":-0.26016831501759285,"7":-1.7067634003925558,"8":1.332323180103442,"9":0.932932098613906,"10":0.642944793155749,"11":0.10229230165827148,"12":-0.4549215026882243,"13":-0.060357419453249114,"14":0.3406146243857703,"15":1.0751506714242487,"16":-0.047960126390265784,"17":-0.023649419561528856,"18":0.7888082125568313,"19":-0.6414335738788408,"20":0.5097164532268188,"21":-0.7565006708819638,"22":0.01102133467423777,"23":0.8312610776166045,"24":0.5113595967510073,"25":-1.3791568381776644,"26":0.5729764349059417,"27":-1.8188232709011352,"28":-0.3792668042586689,"29":0.5663946875965233,"30":-0.4804907253605267,"31":-0.9081767973529047,"32":-0.5572064797967052,"33":0.1504989050024932,"34":-1.2596965864928258,"35":0.7971517512382256,"36":-0.5750633550936796,"37":-0.5252904032704379,"38":2.589729146214221,"39":0.4079561051611575,"40":-1.0403326054628208,"41":-1.1106495616719048,"42":1.0424848363812331,"43":0.18771894149117255,"44":0.5435287836228468,"45":-1.7456556829181342,"46":-0.8542364172984329,"47":0.057928622388110786,"48":0.5133392443160747,"49":1.2408788507478568,"50":1.5022278509914937,"51":-3.3633469343781557,"52":1.464191486420189,"53":-0.6875813049937043,"54":-1.2467747697438214,"55":0.010479670743972347,"56":-0.7186172975547113,"57":-0.3795229198957548,"58":-1.344029737779952,"59":-0.19396367286853167,"60":1.3532392099793298,"61":-0.7720625000737283,"62":-0.351531383387791,"63":0.6561596508107463,"64":-0.2064225632065762,"65":-1.4041258562258903,"66":1.839765560312902,"67":2.846753396629648,"68":0.2389818140958704,"69":-1.4266491196570046,"70":-1.2548438782993827,"71":1.426383850876959,"72":-0.5788719532179265,"73":-0.5722515886146632,"74":-1.5185953964854235,"75":-0.21783164144992284,"76":0.475157580896228,"77":1.2967248502778492,"78":-1.974962208506948,"79":-1.2107734872013038,"80":-0.13471235266119155,"81":1.1315485564147696,"82":-1.1734331944213927,"83":-0.3672209362607008,"84":-2.1500575775078734,"85":-2.2521265521153797,"86":-2.0949400026092353,"87":2.2511297700690953,"88":0.18717189286341543,"89":-1.6296341935913645,"90":-2.1347822580563216,"91":0.05641764281958351,"92":0.49840558154853554,"93":-0.015517373193821387,"94":0.8540929104927297,"95":0.8121629485422285,"96":0.3272951219115968,"97":0.08078125406555652,"98":-0.08815830753993158,"99":0.6978916375006518,"100":-0.11638582815919296,"101":0.204378960559118,"102":-0.17454770766837888,"103":-0.20472819411799795,"104":0.6511242971455762,"105":1.181999188908363,"106":0.12957075422938522,"107":2.055136801890869,"108":1.3713000320199682,"109":1.3959333414090882,"110":-0.3139191234797447,"111":-0.483614556620334,"112":-0.21531803143001746,"113":1.0688247727823015,"114":0.5784796082114861,"115":0.9586798086271981,"116":-1.9915989567738404,"117":0.9413019354008988,"118":1.3724244755182105,"119":2.397865027833277,"120":-1.6942035355935814,"121":-0.6276492932489224,"122":-0.7336305064756661,"123":0.8356532262170492,"124":0.45467442380076745,"125":1.2934339477097407,"126":1.1174543910700943,"127":-1.2036306452820564,"128":-0.10106196523740778,"129":1.1748826071060634,"130":-0.0636672156917375,"131":-0.07188740272877867,"132":0.16721880521681218,"133":-0.1030199049419158,"134":1.8924326043777058,"135":-1.1106021597429079,"136":-2.5132175041097833,"137":-1.4876984685715027,"138":0.8162040218633407,"139":0.9099344696755046,"140":-0.6002050994313185,"141":0.8960652763473916,"142":-0.2170192144052959,"143":-2.219269808165792,"144":0.018182101935759615,"145":0.14129485997328148,"146":-2.3483517365799007,"147":-1.3059555787379564,"148":1.80797856935383,"149":0.6883348859750975,"150":-0.15902480293463944,"151":0.3865529991037279,"152":1.6321949663998991,"153":-0.6939040070395912,"154":-0.5037673703048843,"155":0.2897088753961195,"156":0.08984818525270455,"157":-1.4969624255613716,"158":-0.09781578813718399,"159":0.28855961980526385,"160":-0.5938467209498464,"161":-0.565964937191543,"162":0.1644499479712798,"163":-1.009808812112235,"164":0.10886569217015375,"165":1.1494738072831672,"166":0.4896126094834664,"167":-1.964261906107243,"168":-0.5319938592947886,"169":-0.4552989112108809,"170":-2.3058783921682973,"171":0.12097141392507679,"172":0.6553506369809643,"173":0.952335835907813,"174":-0.3299896009556815,"175":-1.2695629903642578,"176":1.2767848667012043,"177":-0.8814177016611207,"178":-0.8046152880452927,"179":-1.565992762287873,"180":0.05666117959397832,"181":-1.1995276313616188,"182":4.832217352947042,"183":1.7636268842167415,"184":1.0614959300478315,"185":-1.123570486980378,"186":-1.1168510877902431,"187":0.16613605553961924,"188":-1.005513316138495,"189":-0.3568945081413035,"190":0.6294766642087047,"191":1.1762166885998988,"192":0.5057382933939101,"193":0.5305986642637573,"194":-4.80290129290913,"195":-2.688304154487339,"196":0.17374831128182733,"197":2.6383246829821627,"198":0.20806155141953347,"199":-1.857811922694305,"200":-1.9967815314544906,"201":-3.386088197511133,"202":-2.5240860151585007,"203":0.10926908928266969,"204":-0.7119560473082928,"205":-0.5114646281623049,"206":-2.5174458242523805,"207":-1.8925303764338013,"208":-1.6878674521041452,"209":2.4018526439518957,"210":0.5016157707297468,"211":-0.02361916072080534,"212":0.9398855693225716,"213":-0.5128100721308616,"214":0.3076538979776273,"215":0.5150563523429046,"216":2.305722741340422,"217":1.2100308999208047,"218":0.9429777003559084,"219":-1.0737444694947191,"220":0.24248983874697785,"221":2.68405597356844,"222":-0.9265181038164633,"223":0.11120525541183231,"224":0.8945051268473047,"225":0.6823699295781462,"226":0.8003432257593581,"227":2.2853909602941047,"228":-1.591156308945051,"229":2.7728876640379,"230":0.7007337550763982,"231":-0.030224734853736036,"232":0.28780453265342293,"233":2.0137811682135145,"234":-0.7702939830743328,"235":0.7201219295461011,"236":2.4608810322750703,"237":-0.7870111802711686,"238":1.3906393743869903,"239":1.0648194017561978,"240":-1.0086764770284682,"241":2.4933040894553544,"242":-2.374605475297533,"243":-0.7739766711129984,"244":0.3491065113763245,"245":2.8808143012944267,"246":-1.1068781208907919,"247":0.3658060991395301,"248":-0.9702073955714857,"249":-0.6008356257720017,"250":-0.9559038174898796,"251":0.37245928176521803,"252":2.45216634181541,"253":1.5303955074635316,"254":1.355794231332717,"255":-0.5111874371687679,"256":0.6292829344934707,"257":0.08398590595463562,"258":-0.04318407670442335,"259":0.8765236302620218,"260":-0.8071420524692758,"261":1.7145724487131917,"262":-1.0388520209360328,"263":0.9354668642619476,"264":0.500479325995019,"265":2.1031543830123463,"266":-0.07134145899532535,"267":-0.22520274797853482,"268":0.8809358835490044,"269":0.3495562892909829,"270":0.23888244744750795,"271":1.919168795017365,"272":-0.6068176196631626,"273":-2.021133637672106,"274":1.1222399350144254,"275":1.2883514547869073,"276":-2.98826657453368,"277":-2.303925731158565,"278":-2.1316324319743174,"279":-4.288346355571744,"280":2.140648999700254,"281":1.0028763970026102,"282":0.13181730636914943,"283":-0.5853289711882261,"284":0.0266048725259139,"285":-0.5815112625584994,"286":0.7343434667640915,"287":-1.2690671769784088,"288":1.047108793478294,"289":-0.856032973940125,"290":-1.7354144173498915,"291":-2.5803088018970377,"292":-0.08998304817482815,"293":1.8019438370724898,"294":0.688898945775829,"295":-0.09813249634246994,"296":-1.2167957546496733,"297":0.4123891992017799,"298":1.704000737672796,"299":-0.06996902936751478,"300":1.9976421636314963,"301":0.6564339257538178,"302":0.05918589693051335,"303":-0.256404392731611,"304":0.7382464815254766,"305":-1.3310900060745046,"306":1.4033659604459814,"307":1.1554745831134605,"308":0.7453528133067746,"309":1.2145466037279218,"310":-1.549435958022132,"311":-1.8476318049392968,"312":0.28928237380509614,"313":2.9211485057847635,"314":-1.36325317448813,"315":-2.6622909110992654,"316":-1.5363549237382648,"317":-2.542968613514094,"318":0.6095764226281453,"319":-1.0321402421993935,"320":2.947005440043603,"321":-1.0759366113083997,"322":-0.2871042999864538,"323":0.7879694035620979,"324":0.7116446414857743,"325":1.064047756114216,"326":2.0493541864413647,"327":0.5619350947098715,"328":0.4533823767720887,"329":-1.5551550167740746,"330":-1.5125755811221155,"331":0.5134173538124388,"332":0.6549148229136271,"333":-0.40380002446238955,"334":-1.333393389003346,"335":-1.5530494849632954,"336":-0.5877749863224128,"337":-1.3427182045270412,"338":-0.8358020389100801,"339":0.6129056901304366,"340":1.1905630765477015,"341":-0.44736490210224883,"342":0.2479060287232099,"343":-1.461111541747553,"344":0.41291121470596925,"345":-0.6162818857512553,"346":0.7599790165569817,"347":-1.6150906473890247,"348":0.898933948693296,"349":1.5763251148885038,"350":-1.059917265804377,"351":-2.958414282008542,"352":0.3112130505488919,"353":-2.6688955260904472,"354":-0.7940926080015324,"355":-0.34223106763403766,"356":-1.2202668698899464,"357":-0.9062504280350177,"358":-0.00016160078788888833,"359":-1.4459525628268248,"360":1.9313792177170919,"361":2.315724241598708,"362":-2.391990397174632,"363":-1.3433583038977908,"364":-1.6407349916976313,"365":-0.419852560555435,"366":-2.0522744482384643,"367":-0.4486541175509668,"368":0.10165079388739941,"369":1.4770087080421734,"370":-1.1400229430141064,"371":1.507765200682104,"372":-1.0643182070319381,"373":3.1192612605783614,"374":1.0683089321165269,"375":0.3800356524389261,"376":0.8210727985564651,"377":0.8348778940383029,"378":1.5022420984826266,"379":-2.397119642077099,"380":-2.700691589692315,"381":-1.3715205424642303,"382":0.031210130862451106,"383":0.5705934997428748,"384":-0.464214122782845,"385":-0.7020127970716254,"386":0.43332378166136487,"387":-2.7113632765443536,"388":1.3070163008657545,"389":-1.7807417124946043,"390":0.07522893342832614,"391":-0.5136736878715152,"392":2.6645894142366866,"393":2.515584761635992,"394":1.9271401453849333,"395":2.1991006677616944,"396":-0.6455395791957164,"397":1.4252598059643329,"398":0.7223725905148877,"399":-1.311928230996326,"400":-2.1364237196982634,"401":2.443324424153864,"402":-0.04690656544033583,"403":1.8688246738399097,"404":-1.030545879958134,"405":0.15248746197087185,"406":-2.133582870545688,"407":-1.580203438087102,"408":0.24102921752757664,"409":2.0416576515728364,"410":-1.037690530632794,"411":-1.7656555740621334,"412":0.15410925038434645,"413":-1.6652495982008055,"414":-0.39108759579709895,"415":1.6386972506473214,"416":-1.3253610065663117,"417":-0.9617091601440609,"418":1.0014139101112243,"419":2.6951791788561654,"420":1.0253720927152734,"421":0.33254304651638733,"422":-0.08231549285203112,"423":-1.0844315073972615,"424":0.38593069741965036,"425":0.15170458980181803,"426":-0.5301108279819631,"427":-0.1513456744268066,"428":-0.2543207517153669,"429":-0.06972419582441264,"430":-0.7439747100883177,"431":-0.1650786592950574,"432":-1.6766731101045838,"433":-1.3556842369610302,"434":0.30153051057241514,"435":-1.2967295103626724,"436":-0.9270506753607483,"437":0.4162838982367153,"438":1.221241182494829,"439":-0.37154507819137594,"440":0.022697150915611693,"441":-0.5895999472803455,"442":0.9550147296395659,"443":1.0297834694580703,"444":1.8387605814085854,"445":0.5987891604563803,"446":-0.44158300039364384,"447":0.6590737420556714,"448":0.6891756471535692,"449":-0.6401072522232707,"450":-1.0472464400969321,"451":0.7151836920666689,"452":0.3886640151646544,"453":1.19247326849306,"454":-0.023476661204186084,"455":-0.21032062282678476,"456":-1.0828015811886984,"457":1.6306059316363726,"458":-0.18240230392049891,"459":-2.6204771760262737,"460":-0.5297115548532414,"461":-0.7099887560848254,"462":-1.1656991360715239,"463":-1.9120808687216964,"464":2.056597856438441,"465":1.7109281042894402,"466":-1.7783464079542002,"467":-1.970941764990929,"468":1.8084571423700828,"469":2.656390578766403,"470":1.753880882327369,"471":2.9416994127818703,"472":-2.0728571783860836,"473":-1.4724102585834071,"474":-2.9612717119635437,"475":-0.19345042585008063,"476":3.3384764503010085,"477":-0.32515511894260624,"478":-0.24782771385113259,"479":-0.8200855839544285,"480":0.5951037521278757,"481":0.7416480871288068,"482":-0.718269974292524,"483":-0.35570450095562245,"484":1.7655198358880164,"485":2.3778614431852985,"486":1.8716497425084633,"487":-2.535147022889179,"488":-0.9441626136147706,"489":1.023656386634141,"490":2.035070959073598,"491":3.6406247163223275,"492":0.7774745688222341,"493":-0.5352147691315307,"494":-0.6642500707462917,"495":2.761161430952193,"496":1.9330419542843684,"497":1.5527001519177366,"498":0.3286952061123843,"499":-0.6706146377894049,"500":0.5603390476790265,"501":1.4412905143928336,"502":-0.3248189793717722,"503":3.930121707716188,"504":-1.2227556073227095,"505":1.095140106071513,"506":0.6934575064032592,"507":0.6408526769412421,"508":-1.469904380766035,"509":-2.4582428188536487,"510":-1.6426101261107422,"511":-1.6418330566042094,"512":1.8918330422779295,"513":-1.091236576531168,"514":-2.0572184793627883,"515":1.5478820516690894,"516":2.250525588006522,"517":-0.783202070246162,"518":0.34090197046459475,"519":-1.7649568634853077,"520":-0.3633020587799039,"521":0.7399547442771182,"522":-0.38217926663651175,"523":-1.4103039631929566,"524":0.5396127828926633,"525":-0.2509932866692204,"526":1.0770468945258325,"527":0.11573584186167972,"528":-1.5771897894240117,"529":0.528481410441828,"530":0.129665084444667,"531":0.07898824730046494,"532":0.9181938068960707,"533":0.013905806830525873,"534":-0.11435927376241202,"535":0.189314489581746,"536":0.9964167955933293,"537":-0.20781849848502054,"538":-1.2193604946155119,"539":-0.21965322843359134,"540":0.2394794862505743,"541":-0.14353948156791263,"542":0.02785076853818069,"543":0.44625217196004957,"544":0.5244069132924458,"545":-0.2855883613195572,"546":0.8506962798549779,"547":1.1182119790314595,"548":0.14585275451304658,"549":-0.7082521251521683,"550":0.6202878066452288,"551":3.8797742541479723,"552":1.9348860795661549,"553":-0.8440503303868595,"554":-6.806013766543086,"555":-2.4117406179784346,"556":1.5774530120680252,"557":1.1874066368424065,"558":1.04508801922253,"559":0.31565275643080887,"560":0.5209416512905256,"561":0.7759667890097486,"562":1.3319079314776532,"563":-1.026011729970996,"564":1.2683732832277013,"565":-0.7251864449180957,"566":0.13692440754670085,"567":-1.1139541905658041,"568":-0.7314739497383741,"569":1.3397758543412066,"570":-0.3408777962445211,"571":2.3313988199661626,"572":2.0238043737422617,"573":2.3911436324808215,"574":-0.4308748703838871,"575":0.08788721645498314,"576":0.21064663349978016,"577":2.219920966273571,"578":-0.7927325114337791,"579":-1.9624442213792912}},"inputHidden":{"rows":20,"columns":20,"weights":{"0":-3.0703862618980082,"1":0.718055899388376,"2":-0.8750202102916783,"3":5.071319632252004,"4":0.7847182523002506,"5":2.408917170930377,"6":1.8091994258067334,"7":-5.314456897266683,"8":0.1587375856334213,"9":-1.0320687958394954,"10":4.382385459740141,"11":1.4171269500488188,"12":-3.4918529348688123,"13":-2.24164918896092,"14":-4.187106553132947,"15":-0.0024509958581818937,"16":-0.7561639125899097,"17":1.4974473606946408,"18":-0.7959808522995108,"19":2.2574415344454315,"20":0.9339885926961494,"21":-3.3897110763493705,"22":1.350243231333607,"23":-8.325827356041163,"24":-2.418646171983159,"25":1.0196812247665634,"26":-6.849827390869429,"27":-1.1821722187509707,"28":-0.6179444749626967,"29":2.446410640019113,"30":-1.576074228561346,"31":-2.332438381278721,"32":5.668177082189707,"33":-1.0448032713774922,"34":0.017749723389787978,"35":1.115035498409695,"36":-1.8819764105020547,"37":-0.4047398854072136,"38":-1.851907780273541,"39":-0.2477279865141353,"40":-5.550975593165267,"41":-4.471975947365367,"42":2.4940608767179397,"43":2.2772939752301466,"44":1.1992800714378054,"45":1.0960467871965536,"46":1.0940518404087365,"47":-0.8891157856606828,"48":1.1526975335363243,"49":-0.12473937476698367,"50":0.03583776009950783,"51":-0.9327450488528398,"52":1.5942303846934,"53":-5.11354662747309,"54":-0.7436039498816358,"55":0.6151339049436515,"56":-1.1198612818038458,"57":-2.3138903306682876,"58":-0.9528704404504309,"59":4.824127495546643,"60":-6.62162774125492,"61":-2.7372049249205137,"62":-0.945569906593676,"63":-1.8195055749815008,"64":0.29491279161920003,"65":2.914952611321794,"66":2.2407138619304114,"67":-3.5879448396568145,"68":-0.9272449349074213,"69":-0.6496975098905738,"70":0.2450375090591336,"71":-1.4278130407174612,"72":-0.760808173661167,"73":0.44408872783688813,"74":1.3422488639570846,"75":-1.1697822832057252,"76":0.24930975542177783,"77":-0.8496041525174519,"78":-3.8948545098720837,"79":0.37951577334531805,"80":0.16288299737389667,"81":0.9323355132693723,"82":-0.7547223149532198,"83":0.9279921821198543,"84":2.6250504760811024,"85":3.2175019912775227,"86":-3.3879879054140165,"87":-2.207691999975854,"88":2.1182757650151043,"89":1.4871999449713271,"90":-0.17863039297199623,"91":1.2895333734135948,"92":-1.9412224519157457,"93":-4.949140111986042,"94":0.998781662215484,"95":3.1005915809849123,"96":-1.8582114583756593,"97":1.0297931035973507,"98":-2.166528453456363,"99":3.900753209256825,"100":2.01876831290131,"101":-0.2089842107147332,"102":0.06645750312895972,"103":-1.205518904985934,"104":0.3107199318160175,"105":-3.910071633316305,"106":0.7857675973388976,"107":-1.415399735659591,"108":-0.6221235279471319,"109":1.5251283151540147,"110":1.7346202835692088,"111":-1.0516807621524833,"112":5.0709883231555155,"113":4.332611429670595,"114":-0.8032078581248147,"115":3.89068432473745,"116":1.4656558965216802,"117":-3.6552446251582054,"118":-5.028532315259528,"119":-3.490971480846235,"120":-3.1070181304979827,"121":2.7111070927230903,"122":0.8154972096232754,"123":-1.0361945308476475,"124":1.5749325232655575,"125":2.9427262238912952,"126":0.7968910231478068,"127":-1.9915385427644965,"128":0.6319214574882713,"129":-2.704642230907975,"130":-0.41898413801313483,"131":-0.001681796819659638,"132":0.44354676352120437,"133":-0.9394366333221191,"134":0.24389269683142473,"135":-2.2931244091437772,"136":-3.3080636845103655,"137":0.42127771370545763,"138":2.072531420393381,"139":3.0295870375060763,"140":-1.4529268968057687,"141":-1.5420667704703386,"142":1.5175707120205224,"143":-1.5024931389165561,"144":0.003868819813398446,"145":1.7627592202923645,"146":3.620183326078711,"147":-2.997008340537534,"148":-1.4300212437431068,"149":-5.021904384337156,"150":0.9442077973772597,"151":0.42128958930903976,"152":-0.7459384692591513,"153":-1.3516658953036802,"154":-2.4319056376070693,"155":-4.430014809485586,"156":2.2099885992701567,"157":-2.1586899846390173,"158":-0.38258419032131336,"159":0.1684975645351121,"160":-4.57677184143607,"161":-0.830001624349234,"162":-1.3059243071464524,"163":0.4428272552695744,"164":3.3539962006840516,"165":-2.2564269321906694,"166":0.2714970720588644,"167":-0.8894392626464114,"168":1.6032094426816326,"169":-2.5317711592143186,"170":0.4033526573904542,"171":1.8592175929378645,"172":-5.3567938009845655,"173":2.0178593667341125,"174":1.4589291243246358,"175":2.347080612473169,"176":1.912536175761605,"177":-2.4245652199544385,"178":3.4747695516140022,"179":-2.557703917638112,"180":-3.48408464753769,"181":-2.2839091681479244,"182":-0.3986683638549487,"183":0.5784651650146925,"184":-2.8759156626349798,"185":1.2374521911550496,"186":1.2602215248102318,"187":2.0166332304139813,"188":0.021303534847572622,"189":-3.467788291813794,"190":1.941401377696781,"191":0.20746057330593282,"192":2.3817290994816314,"193":-1.33745072226901,"194":-4.1786456797538465,"195":-3.648945931894514,"196":-2.028646962783605,"197":-0.5607583278095677,"198":2.6237662987998585,"199":1.6141954256856283,"200":-2.279618375670791,"201":-3.524186408117939,"202":-5.231142226880405,"203":0.5121063211577627,"204":0.05282677786621508,"205":2.5744573823678407,"206":1.5871885432787378,"207":0.46080699154932064,"208":1.6949194599786055,"209":-4.049118786319569,"210":1.7458914130957515,"211":3.648368078053229,"212":2.357924685028619,"213":-3.671830769126012,"214":-1.0812574148081264,"215":-1.6189128801121533,"216":-3.0930605246635,"217":0.16546266059190887,"218":1.213952173797997,"219":1.114704624843692,"220":1.4118879689776958,"221":-3.04039126683359,"222":-0.9873063289863755,"223":1.5445431754544998,"224":0.6516039614760941,"225":-0.23957099048721314,"226":-0.7398298650722374,"227":1.113836431735291,"228":-5.7108413476464355,"229":1.2986448460634898,"230":0.24401630540749217,"231":-2.138815039378246,"232":-3.528186986268036,"233":0.6190993391993189,"234":1.7550845196133444,"235":0.7323803249661269,"236":4.304013362644731,"237":0.593170539402826,"238":-4.17313218008703,"239":1.2345956404654848,"240":-0.72481659902191,"241":-0.8815527080295124,"242":0.2413650715401827,"243":-0.19018144664285874,"244":2.1873776368064815,"245":0.6312494396883621,"246":-0.6775829288219165,"247":-2.048233062259206,"248":-0.5327356757665964,"249":-1.6026832623403806,"250":0.8925995600575589,"251":-0.5169056817228457,"252":0.6423302129072752,"253":-1.0040842038212618,"254":0.8493021720969064,"255":-4.9192723910148315,"256":-1.6579593268702866,"257":-0.88064204119176,"258":-1.8128393330918557,"259":1.452185817840797,"260":-0.2565554645215467,"261":-0.27924503835936837,"262":0.9530223663048725,"263":-0.4753126639489758,"264":0.39281187382401245,"265":-1.4046173677274596,"266":-0.0598316053236311,"267":1.4503631839971902,"268":0.06192929019521858,"269":0.5714195478273113,"270":-0.9552285812685473,"271":-1.206062388276809,"272":-0.21158867929451108,"273":0.9298145490260088,"274":1.0088981774738706,"275":2.469331323008008,"276":0.299690637537246,"277":-0.04991325819393972,"278":-1.5204852796500423,"279":0.5398829175708854,"280":2.222307908730587,"281":-3.0761765751377053,"282":1.7670576100147357,"283":-1.8959946996905377,"284":-2.2099384892535006,"285":4.530534964567806,"286":-0.3770063173060587,"287":2.713138193342602,"288":-2.2337234091291713,"289":0.8645117765157464,"290":-6.601333139420688,"291":-4.7147532209243534,"292":3.6085020795103406,"293":-0.6614132065077238,"294":3.752193970328684,"295":-2.0442370412780084,"296":-5.006994977716032,"297":-1.5867957471252396,"298":1.3297638075613372,"299":3.0489267371353765,"300":-0.3816666218333169,"301":0.5824821468394998,"302":0.26144610108118277,"303":-1.4430615013243477,"304":-7.418793081898063,"305":-3.3472559974799063,"306":-3.4185186784532196,"307":5.126688467632253,"308":-0.14170408892371483,"309":0.1299490863736646,"310":-3.4286597677202586,"311":0.6687857512211421,"312":-0.0928021056718933,"313":2.4201148234605157,"314":2.062017495397836,"315":3.690902621009602,"316":2.1810465742624467,"317":-0.8789367500599309,"318":0.3874476916630143,"319":-1.2362532695149917,"320":-0.08963162905498528,"321":-0.42677339355030824,"322":-2.8202872226802773,"323":-1.8455840487894337,"324":-5.424494366838844,"325":-0.4612163811078859,"326":2.2713151061061603,"327":-2.4167591054835613,"328":0.17919806529472349,"329":-1.7286680588226577,"330":1.540136507849718,"331":-0.4669670207716377,"332":2.609643921335988,"333":-1.2895830444576135,"334":0.0763127215148847,"335":2.9982278940513187,"336":0.4907684417280314,"337":1.4478423276233294,"338":-3.843274260219981,"339":-4.805396544784634,"340":0.3463143105883285,"341":-0.8293414276799501,"342":0.026889967575697653,"343":-1.0186391429546124,"344":-0.20654644746570808,"345":0.9137038478718957,"346":2.4154078467134026,"347":-0.5928502314512195,"348":-0.3302163994114296,"349":-1.476709287703226,"350":1.0682157789806723,"351":-0.5470498380529599,"352":0.797900638445875,"353":-3.244675803404958,"354":-1.72753641181338,"355":-2.226250479365279,"356":-2.4119528279517333,"357":2.323493333433688,"358":1.5134064411970896,"359":0.7715194545812454,"360":-6.13862416841074,"361":0.7279760407301669,"362":0.8043548658477975,"363":4.676859921650031,"364":2.321926529458902,"365":-2.0033356111302734,"366":3.741107520097999,"367":-6.015854373950841,"368":1.9372630269423687,"369":-5.905214439105213,"370":0.7935204496730364,"371":5.228005154964915,"372":0.26010777173848415,"373":3.7616153988383503,"374":-2.1758358301709704,"375":0.6066556950360009,"376":3.0688806340175385,"377":0.2777324425269847,"378":-1.815347569722282,"379":3.119210341708729,"380":-0.5711443130369254,"381":-1.8242405661497476,"382":0.2946782403455726,"383":-1.7579591786024302,"384":3.0858057623626873,"385":1.6962294016582244,"386":2.1596604186929578,"387":-2.0021915431989883,"388":-2.179064674790496,"389":-1.1029389060765622,"390":-0.44303917930321857,"391":-0.5198096625218829,"392":0.4617506084491233,"393":-2.4063995203528155,"394":0.6031120691980936,"395":1.4501142691305748,"396":-0.11772998339051015,"397":0.33518474690471944,"398":2.5899616184056122,"399":2.5384594248662036}},"inputBias":{"rows":20,"columns":1,"weights":{"0":3.3309693175689623,"1":-2.1417805353468022,"2":-2.304902422666802,"3":-1.1158759355441892,"4":-0.6270017671377325,"5":-1.5165438989899005,"6":-2.8950496930897227,"7":-0.9658823104136386,"8":-1.4353968849092007,"9":-1.7104669133378887,"10":-3.1722755331366734,"11":-5.253328953633383,"12":1.434069736259716,"13":-1.910068242028158,"14":-0.45824124773037217,"15":-0.47747951370495956,"16":0.0935919628485053,"17":-1.711395959349218,"18":-0.27037190359061636,"19":-1.3665096302884634}},"forgetMatrix":{"rows":20,"columns":29,"weights":{"0":1.8182997348928798,"1":-2.3863619789944344,"2":0.21944479649506074,"3":-1.7544474541339234,"4":-1.4924687225449123,"5":-1.3309582354151386,"6":-0.9635050903577212,"7":1.615570706282497,"8":0.33694704066008263,"9":-1.447811130215377,"10":1.0327634552242513,"11":-0.10500940185594536,"12":0.48543666023615734,"13":-0.26848689266491177,"14":2.3008724762397668,"15":0.5475628887286833,"16":0.9706832378834297,"17":0.20704813666515554,"18":1.7700489811825333,"19":-0.32454425671369597,"20":2.5406210004024805,"21":1.0936058552392742,"22":-0.1748708196105255,"23":-2.0133376183069123,"24":1.5668622741707385,"25":0.20232291040709333,"26":2.1524435717693664,"27":0.6500274522941499,"28":1.3418767585867082,"29":-0.8614885607132788,"30":-2.5782569408814857,"31":2.860754493613572,"32":1.3511658052687712,"33":-0.9032475777392407,"34":1.8763366536489852,"35":-2.1294632382200485,"36":-0.029361765262952512,"37":0.7946671650026494,"38":-0.7055239210204663,"39":2.378613516000356,"40":-1.7252751349035877,"41":2.083890992702125,"42":-1.7992366822426058,"43":2.042300570307905,"44":-0.9915710406280024,"45":-0.0782062416303157,"46":2.0462087453638396,"47":1.889486943650431,"48":1.3563151187153892,"49":-0.9651570102239099,"50":0.45823887651851136,"51":0.2311093832313304,"52":0.31162586869004455,"53":-0.5138842663341969,"54":1.6215940663870656,"55":0.27545176048969094,"56":-1.0518033032340657,"57":0.5790287839383236,"58":-0.007117542494694715,"59":-0.5415997682711134,"60":0.5115113910859963,"61":3.350087370447024,"62":2.7803318011557803,"63":-0.7145985346881578,"64":-1.1652604239370485,"65":1.7637139014865275,"66":0.7120751179117983,"67":-0.6030477981870959,"68":1.0180891117729591,"69":1.4518855299772877,"70":1.2693844584581684,"71":-1.2402515308460305,"72":-0.38015024782883505,"73":0.6498604691311071,"74":2.5514771506279086,"75":2.291335080512622,"76":1.6654989848881632,"77":-1.400386710631746,"78":1.4191060226782837,"79":1.6831229378379897,"80":0.2670636736558138,"81":0.376898815111439,"82":1.208558250567546,"83":-1.3164172776675909,"84":-0.04328824584033629,"85":-0.1508929714538715,"86":-0.23459862735885514,"87":1.5165438542498766,"88":0.5540651681569092,"89":0.8305828737942987,"90":-2.4154237266281635,"91":-3.028797273727133,"92":-0.06288609042723219,"93":-1.3459975326858094,"94":-2.9351384400885108,"95":1.173735334179747,"96":-0.46269433554294825,"97":1.2038211060815074,"98":-1.2796551031150105,"99":-0.4911675257750372,"100":-1.1574670405294325,"101":1.9450602799721357,"102":0.01991111861459894,"103":0.9151887340783988,"104":1.8750176659726359,"105":4.300359570848432,"106":1.040889196801936,"107":-1.3394776723858186,"108":-0.5141836289511998,"109":-0.45886502087066094,"110":0.866635579212873,"111":-0.7317127470371381,"112":0.998535933961799,"113":0.25880930362266147,"114":-0.5420850479454128,"115":0.9996152106529489,"116":0.2853015429214722,"117":-0.11957615099447004,"118":0.40813460453540484,"119":-2.19981556200059,"120":-1.9002886733328908,"121":-1.583773394746231,"122":0.39186610894306056,"123":-1.3148698627914719,"124":0.42518756021746973,"125":2.6813114791847465,"126":-0.39543647071918725,"127":-0.805297721812926,"128":0.5447911505139191,"129":2.11177774368182,"130":-0.07741063253587505,"131":-0.19816343295557887,"132":-1.0540566570453564,"133":-1.4125666061035163,"134":0.5514185804380394,"135":1.3528839082868176,"136":1.7815649760554753,"137":0.992880380483152,"138":-1.9679601293608868,"139":0.5125264969848701,"140":0.5266157872360835,"141":0.4012961024682676,"142":-0.053013207127866495,"143":-0.14561036205791883,"144":-1.5924605444858158,"145":-0.4204188567739912,"146":0.39879839185489063,"147":-0.7428426811283657,"148":1.1197246193964339,"149":0.8644905291073716,"150":-1.7561311906219643,"151":2.1348083816553634,"152":1.6032508886602366,"153":-0.7492316343745714,"154":0.42437809706596485,"155":-1.892211267729308,"156":-1.6162525368187668,"157":0.2676103372383745,"158":0.29808813529628053,"159":-3.421561558286871,"160":0.2862483391806125,"161":0.5398503515009349,"162":0.20725686574303573,"163":-0.681512848924124,"164":-1.1427993073989824,"165":-0.42538879094393145,"166":-0.18808209619973112,"167":-1.1214356040412183,"168":0.5915146314714348,"169":0.41219622409497003,"170":-0.045344946429591776,"171":-0.8423203521434635,"172":0.5696063411384773,"173":-2.650057053189894,"174":0.033805586408219415,"175":-1.4545134721697714,"176":2.307927289206735,"177":2.0318567068789206,"178":1.2743531609909782,"179":0.38977870911257495,"180":-3.2014860443837003,"181":-1.3911552499525859,"182":0.7109851193642516,"183":0.45891053157547723,"184":4.129628501331985,"185":-1.370732826696644,"186":0.8108854665586024,"187":0.3190450731689103,"188":-0.5695800238054386,"189":-0.9318132846551168,"190":-0.2757635295251182,"191":-0.03668849021976154,"192":0.898810912668101,"193":2.615061430768077,"194":-1.9167654017881761,"195":-5.556474978148774,"196":-0.03905823924155543,"197":-1.0415488239842603,"198":-2.4858619791719176,"199":2.5762668297360682,"200":-1.637141579913551,"201":-1.4336224196645515,"202":1.9567973856812997,"203":-1.5065255395028634,"204":-1.4578164599744645,"205":-1.9909319202643718,"206":-0.6836024346151341,"207":0.4693514336245964,"208":-0.6125196913321929,"209":1.3073597189551538,"210":-0.25106348060307915,"211":-1.5395614489763594,"212":-0.7774518082703578,"213":-1.1536569396737069,"214":0.02367827517484303,"215":1.3893860927477133,"216":-0.0221368327914891,"217":-0.6127073708717373,"218":-1.7915144789644621,"219":0.09107134701152268,"220":0.32708052206752514,"221":1.5251292655973583,"222":0.6828051359453626,"223":4.288848866848491,"224":1.8922352762514825,"225":-1.1511272695046733,"226":-2.9951509926438407,"227":1.2628711927446246,"228":0.7949010636180162,"229":1.3431757766214205,"230":0.9987854561251399,"231":1.537928712501124,"232":0.5805316231405795,"233":1.8699078341958724,"234":-0.45636768762010166,"235":-4.483336307912815,"236":-3.686532798291936,"237":-2.1604093180101263,"238":-0.06879678199943479,"239":-3.205034947939829,"240":-0.6850244113070564,"241":0.2715835229280037,"242":1.3288669747269228,"243":1.4595601848890492,"244":1.6741340470475528,"245":-0.5443094945809542,"246":-0.6061105962067803,"247":1.3374804144317871,"248":0.8425711281083195,"249":0.49469675370081095,"250":2.2203974926524004,"251":-1.1593294830169456,"252":0.965109051790116,"253":0.5346903941099452,"254":1.621888447894835,"255":0.6814914661702297,"256":0.9723125996206144,"257":-0.7809231973515542,"258":3.1120306009009786,"259":1.1177809275091486,"260":0.486278609617686,"261":0.14827215562551127,"262":0.6847925796000022,"263":-0.1725166657754069,"264":0.46942109782938546,"265":-0.13751050297135375,"266":-1.9941858262217624,"267":-0.05644801952393595,"268":0.6136901286797264,"269":-0.030483756792197583,"270":1.2309168258154801,"271":0.2143479555379717,"272":0.48506429634108233,"273":-1.188454071723667,"274":0.8707385605871643,"275":-0.25286662421423645,"276":1.7057424288179102,"277":0.9554894159046382,"278":0.6739245931398808,"279":0.11440338385520725,"280":-1.9728944342656316,"281":1.4684225230072878,"282":1.2013878798066575,"283":-0.9715572215063125,"284":0.2532381760829547,"285":2.130026396179382,"286":1.50694842476723,"287":1.5274155667697278,"288":-0.9594038608700377,"289":-0.7923078232003087,"290":-0.18461726814319795,"291":-3.1565203034591978,"292":1.648315839868236,"293":-1.784139640224269,"294":-1.5319717269568365,"295":1.2557627083710219,"296":-1.0134645892463523,"297":2.131273427613053,"298":0.28036598870020407,"299":-4.332915945096611,"300":1.6658686305413086,"301":1.073426295814611,"302":-1.0181116495371691,"303":-1.9673329917265119,"304":0.6168111780551065,"305":0.5144979417384891,"306":-0.7308776601765165,"307":-0.2171171983196658,"308":2.443716299467125,"309":0.15714307237142577,"310":-0.1920609778478724,"311":-1.2409900377880583,"312":-0.4667063952861533,"313":-0.12007135915718821,"314":2.720626456627535,"315":1.59082643147856,"316":1.6057496626525816,"317":-0.659561801982066,"318":0.2342212938162026,"319":0.9969958994455168,"320":-0.8035602592560925,"321":-0.04547752734530671,"322":-0.7558152032851368,"323":0.03990418754405534,"324":0.4964131271740876,"325":-0.3268539359406619,"326":-0.7592405391578282,"327":2.5050993083576425,"328":2.1857181326561204,"329":1.3784519896123903,"330":-0.651517535969948,"331":0.5223359066966915,"332":0.4627426703496237,"333":-2.0784631438161,"334":-0.3067746421389273,"335":0.36277407472799666,"336":0.5897773376313542,"337":4.582260491129158,"338":-0.2987860739667626,"339":-0.7749592072888811,"340":-1.826817093581352,"341":2.0742045426711013,"342":1.4529320157071366,"343":-0.8300843467366804,"344":-0.3352284302318165,"345":0.8263012227254962,"346":-1.941121046852711,"347":0.20318387359457898,"348":0.39162068481072493,"349":1.9427274552336777,"350":-1.0327652154022806,"351":-0.9406340701502028,"352":-0.3631561480516835,"353":1.126587730315036,"354":0.01675327689813602,"355":0.615588530452792,"356":-1.013353365344004,"357":0.8557997692938674,"358":-2.2030403024210305,"359":0.6703186526051391,"360":-0.0092454883556473,"361":-0.16001410399041474,"362":3.0031251851828857,"363":0.25816002301896346,"364":-0.3535609133010198,"365":0.7076029074745039,"366":-1.6866018935911067,"367":-0.7688912389770707,"368":-0.31024136999660257,"369":1.3400805405480996,"370":-1.402702439702124,"371":-1.5532100080926847,"372":0.7998816130161095,"373":-2.039977769714518,"374":-0.828787608439924,"375":2.95120628373784,"376":4.334742050760421,"377":0.6000572588313667,"378":-0.13722868001810362,"379":0.043165638231444425,"380":0.013760567513519575,"381":0.24772022588749013,"382":-0.7909969693757835,"383":-0.14298028739891178,"384":-2.2568141380426954,"385":2.5750203492636983,"386":2.5169191231637087,"387":0.04262648314578371,"388":3.264946976830037,"389":-2.9724697316424726,"390":1.9138439387170008,"391":-0.6227401024608279,"392":0.08470363009958219,"393":-2.0551649247973587,"394":-0.24117079151776039,"395":-1.0138062134457448,"396":0.1014862241258,"397":-1.9029420514977864,"398":-1.5932512148193294,"399":-0.17886903904087126,"400":0.3928971477211897,"401":1.25976735756385,"402":-0.24554737110167443,"403":0.26774435526851464,"404":-3.2780476758412807,"405":-1.2412882205610674,"406":-2.56969161497476,"407":-0.7013317976562107,"408":2.824019955308397,"409":1.4287817479537708,"410":-1.1644033085363985,"411":-0.30924328898727993,"412":-0.11038471191514322,"413":-2.1116016623763145,"414":0.6754894841400383,"415":-0.018223161035845415,"416":1.7463139292886483,"417":-0.7153615750993918,"418":-0.17873446871176668,"419":0.5759924038723946,"420":0.4967305310143075,"421":-1.2033145637444573,"422":-1.229206342225019,"423":-0.8304072050398155,"424":-0.0004680947870029978,"425":1.8475070690577111,"426":-1.9671682070689445,"427":-0.35605328202476494,"428":-0.7003999399990161,"429":0.5019275282212227,"430":-0.6427952959594887,"431":1.929371838775667,"432":-2.209322766759174,"433":-0.36369985816088723,"434":0.6603107374468092,"435":-0.032668613271865155,"436":1.8933206766808777,"437":-0.8934376527552313,"438":0.84461172182507,"439":1.5141018173304586,"440":1.4955205469987458,"441":1.3857980108700343,"442":2.802245591698548,"443":-0.4868385312854989,"444":-0.9789823583948778,"445":-1.5139085116339084,"446":-0.4119254067045741,"447":2.134411607970319,"448":-0.14575904674507842,"449":0.2263514932607866,"450":-0.9798306728800216,"451":0.2791831603049443,"452":0.7681100923565984,"453":-3.0494764458853143,"454":-0.48183432137775656,"455":1.4510709350089905,"456":1.4298182057378552,"457":1.7010845124495346,"458":-1.3761410699885772,"459":0.18256281335047433,"460":-0.5835712107628895,"461":-0.9040161063166056,"462":1.699740931812909,"463":-0.03013454113621487,"464":0.9433160530490134,"465":-0.041280781435855333,"466":-0.7536078786625207,"467":0.12072061033238782,"468":-0.3947800660661911,"469":0.4324189889511433,"470":-1.071056357696539,"471":-2.3134330544686503,"472":-1.220105433807544,"473":-1.8493473523611497,"474":0.29601679393482244,"475":0.7312336146871048,"476":1.4175270392866364,"477":-2.0510157498625876,"478":1.0143471865671108,"479":0.47856693112388543,"480":1.101521080625127,"481":0.8360032569381837,"482":1.5807482330899107,"483":-0.8423051470884744,"484":-0.15451804517803502,"485":1.5497022131513218,"486":-1.8398793315183701,"487":-0.30831466463890134,"488":0.07707109586606156,"489":0.7559094313744589,"490":-1.2598626532661363,"491":0.018206730186980605,"492":4.048456731388316,"493":3.926567182995318,"494":0.9307857643170829,"495":-2.8169960670924716,"496":-2.2029159932278595,"497":-2.608528577584868,"498":-0.8093377159801506,"499":2.1333888555725617,"500":0.2675514678843901,"501":-1.2042690473413449,"502":0.3222228493028909,"503":-2.6099554197755164,"504":0.7830786887065804,"505":-0.5385857762295818,"506":-0.023806301299284013,"507":-1.4375917758413184,"508":2.5325866434497595,"509":2.1333533035940433,"510":1.463087825442444,"511":1.6899127656235287,"512":-2.0282729666503427,"513":1.7045629233519657,"514":0.4229749677081824,"515":-0.9075550857028836,"516":-2.0589178191842747,"517":2.7012846382540237,"518":0.7503142680866274,"519":2.6361611750777256,"520":0.6766140323217011,"521":-0.1513800693958205,"522":-0.27167855233990756,"523":2.0494868291454007,"524":-0.7384093447551016,"525":0.570666036512083,"526":1.484398395076682,"527":-1.1054972405309413,"528":0.5148971282894687,"529":0.5533983622601342,"530":-1.34205281781875,"531":0.8096532730149951,"532":-0.2233963452899142,"533":2.2955960264458466,"534":-1.191560109375793,"535":1.2802016350319028,"536":-2.3003398842296052,"537":0.35511081873904415,"538":-0.9083328991227089,"539":-1.4427404578645424,"540":-3.631732692261351,"541":-0.24300466764235915,"542":2.5524641225750893,"543":1.4997427411145645,"544":-0.6091867377422467,"545":-0.023856367059896202,"546":0.9438802436986014,"547":1.376962128765487,"548":0.5112511283636308,"549":0.4020979599496266,"550":0.3161428739859048,"551":-0.5281857093222104,"552":-1.7074790329659155,"553":0.7093983326979766,"554":4.396752580790243,"555":2.7994810623315822,"556":-0.9428913413578135,"557":-1.8778254996500128,"558":-1.685426488232826,"559":-0.18839366423578768,"560":0.5867552438084324,"561":2.242422925305817,"562":0.5456663538340161,"563":0.5560984756793893,"564":1.161085536418941,"565":-0.29963632930612244,"566":-1.213589955379466,"567":-0.07697993818336632,"568":-0.8989394293437466,"569":0.6478624687689714,"570":1.2465099193301208,"571":-1.4046275126456809,"572":-2.442119369660058,"573":0.5918183801208868,"574":-0.41251282977293396,"575":-0.4209248542354092,"576":1.3335130894207474,"577":-0.7996181305844335,"578":0.06204058522788546,"579":1.781299574282446}},"forgetHidden":{"rows":20,"columns":20,"weights":{"0":2.05866106189472,"1":1.3060661606639012,"2":-3.4363790526468274,"3":4.0041029473572785,"4":1.7002745211154795,"5":0.07121957192870325,"6":-1.311058531016549,"7":-1.2024615445459754,"8":-0.9344265972142519,"9":1.1143026874195987,"10":-3.1821912545515314,"11":5.5794305481292925,"12":-7.3019450629527975,"13":1.1448610909421597,"14":-0.4079192606894055,"15":0.3980018842416065,"16":0.6906177246871241,"17":-3.9372336378375064,"18":-0.7670638359834738,"19":-2.0331838339954427,"20":0.4638909407737858,"21":3.067371970491627,"22":-1.9664117176295395,"23":1.2105846636713162,"24":0.49229213967394886,"25":-2.234777569060202,"26":3.599978045029197,"27":-0.9894736330481333,"28":4.021229312887017,"29":-1.117540717381634,"30":-2.933454119137748,"31":1.0218022646400609,"32":-0.8620340231294934,"33":3.015390054178923,"34":-3.52581342956463,"35":2.942746405803693,"36":-1.2617274389051696,"37":0.2228984221431515,"38":0.8880362958715656,"39":-1.4594301307117221,"40":0.8499483473815418,"41":1.8024399091065206,"42":1.1570225220875068,"43":-1.9629152322225984,"44":-4.483231033423514,"45":0.14891692730273734,"46":-4.615878676945188,"47":2.5324848824488577,"48":-4.837680541748081,"49":5.60795618532228,"50":-3.2381354523329597,"51":-2.413778529268813,"52":4.854201201236952,"53":1.8895412261313203,"54":5.080190466528501,"55":3.890837695219417,"56":-1.8035221035013855,"57":0.687514297774161,"58":1.7361222932609097,"59":0.9648693172232863,"60":-1.4895163449825055,"61":1.891253658182335,"62":5.435044180660311,"63":-0.3637204077289628,"64":2.607916599510205,"65":-3.889178272952986,"66":-3.49186037985879,"67":2.941569603719391,"68":-0.7048537346935423,"69":2.9498601380295364,"70":1.9008510758585249,"71":0.27544275575983657,"72":-0.6198706920526025,"73":3.1869863942375773,"74":-0.7245276923428089,"75":-1.2895878390972095,"76":0.8024824388501294,"77":0.3814445560421112,"78":4.865340675547123,"79":-2.111219442113205,"80":-1.1616159668272432,"81":-3.0633131295179385,"82":8.342471725161973,"83":-0.28044704813682053,"84":-0.0747433426412356,"85":2.5635905883041117,"86":-0.0294265966791367,"87":-0.955452953055951,"88":5.780092375744791,"89":0.9002882682604348,"90":0.6161408883407865,"91":-2.9813601081489933,"92":1.8317407994556114,"93":-1.2135430340199993,"94":-0.17782581847201012,"95":0.7689605202815505,"96":-1.7275945563468371,"97":3.958521379898032,"98":-1.7831162269519178,"99":1.586631945116533,"100":4.9584873388957735,"101":0.9795017067969048,"102":-0.05605031301546938,"103":0.33246849125332256,"104":6.96801509192485,"105":-0.200373753677474,"106":0.8755885801576866,"107":-6.062974650793471,"108":2.1957976554903014,"109":3.8984293272281363,"110":-1.2864470457617176,"111":-0.07823006925659245,"112":0.04396176551947969,"113":-0.03988958162252987,"114":-3.3667328028381873,"115":8.860339312889945,"116":0.9731422566894248,"117":1.857209190279517,"118":-3.405081274551767,"119":-0.4168990556270763,"120":-2.3881516839759294,"121":0.363238672917854,"122":-0.4668028742000137,"123":-0.602411058888548,"124":0.5649993365766361,"125":0.433449043185372,"126":-0.11796143057998873,"127":-2.1794376982569563,"128":-1.112191809812208,"129":-2.5161120871774147,"130":1.1722497797457954,"131":-2.1140635172059556,"132":1.0761994453690218,"133":2.334324498840516,"134":-0.896858587087679,"135":-1.8688438550822015,"136":-1.957399684016659,"137":1.3544577161694744,"138":0.657511697545044,"139":1.6098503264270712,"140":0.449440388646279,"141":3.9555303745807295,"142":-2.440728319955429,"143":-4.273285992322102,"144":0.17684344772215524,"145":-1.952743360846324,"146":-1.1349497998300129,"147":2.0701760871457564,"148":-0.8839720004681413,"149":0.4097288473025257,"150":-0.7233506922799893,"151":-1.694447526072113,"152":5.239814194965093,"153":-0.7492058143559386,"154":1.5804753380734458,"155":-0.16612880614800843,"156":-1.749344846535991,"157":1.1603483795562108,"158":6.279231844984856,"159":2.5956510424734978,"160":-1.4349654880282086,"161":-0.8150391939149154,"162":0.09401946969292546,"163":0.33704085931052524,"164":3.183424523709198,"165":-1.9883949183219265,"166":1.133790952342927,"167":-1.0251424618396205,"168":0.1826465929231492,"169":1.5813952941247453,"170":0.42225628034837853,"171":-0.8101521406357182,"172":0.23065742855433255,"173":-2.5955190195608075,"174":-1.238020640834096,"175":2.225994287688375,"176":4.4863179093139705,"177":1.0768762312493634,"178":2.4282621386801457,"179":4.617663323904676,"180":0.46610007402829734,"181":1.8997595016994635,"182":1.4794023028499037,"183":-4.762333961838275,"184":-8.260775321083637,"185":-2.634042509207529,"186":-2.3292201496457596,"187":3.9997079390362478,"188":-0.41348610211399217,"189":-0.7968223297570337,"190":-2.2874192293062867,"191":-2.6042582344547767,"192":2.2640551495562735,"193":3.531061679315105,"194":1.1721173621297045,"195":3.7306003360655526,"196":0.1168103948161382,"197":-4.9855889690695445,"198":3.067428035408599,"199":3.099838842860538,"200":0.27361687014372993,"201":-0.019775116116937226,"202":2.059595086067349,"203":-0.47709399262860464,"204":-5.82984840018179,"205":-6.2674607335455645,"206":-1.715624610887186,"207":-2.4750487483262935,"208":0.6835401979043514,"209":2.6200323566421466,"210":-1.8110041836430768,"211":-0.8041113589397846,"212":-1.9295536532203916,"213":4.4499779286253105,"214":1.9133537529186506,"215":5.395196421088094,"216":-0.08388897024674959,"217":-0.3384472598428151,"218":-2.3734737596844027,"219":-0.512067317288746,"220":0.045070262444379554,"221":-1.3764611028102194,"222":1.5266746514883416,"223":-4.3573919939287435,"224":-4.368793703652177,"225":2.8423876218173225,"226":-1.7842504911781603,"227":-0.9640032552225387,"228":-0.37876300757059245,"229":1.3996513367238752,"230":-1.178612573075197,"231":-4.472052035295897,"232":0.3809863141091801,"233":-1.5464842110066543,"234":-0.5313139024613285,"235":1.5017945506863566,"236":-2.5046011934395707,"237":-0.3191439891641035,"238":1.9034855178173156,"239":4.667500760125008,"240":1.4562085950193768,"241":0.3820031286757829,"242":-0.4118296834330355,"243":2.828414269196677,"244":-2.611119414451581,"245":-1.4075186617398399,"246":1.0659478514239877,"247":0.3901636921235663,"248":0.3975519746762125,"249":2.545897097290069,"250":3.5495985396394167,"251":1.6352091701496287,"252":-1.74916484896646,"253":-1.3324647749663316,"254":-1.5373340076239066,"255":-1.5816293882008754,"256":1.174780995116615,"257":-2.443220216137409,"258":-0.7180782237963287,"259":1.998881310443871,"260":0.9214208261610695,"261":-3.147263797772759,"262":-0.41861373575417427,"263":4.22406032494093,"264":-1.9484128748681928,"265":2.7938408461276936,"266":-3.1712971590969214,"267":-0.19183150674660893,"268":0.9710773246870691,"269":3.7712054089428424,"270":1.353743987252173,"271":1.4161262658426088,"272":-0.9589815048810044,"273":-0.16601170204547616,"274":1.0158593162841543,"275":0.10330280239668437,"276":1.8663005357481692,"277":-3.0877880907779125,"278":-8.453165871264028,"279":-3.11415313127789,"280":-5.409432372473145,"281":-1.1766351346354922,"282":-1.5675337934652205,"283":4.1937364802845645,"284":0.7251641124340297,"285":-2.297651172381855,"286":3.278650724410399,"287":1.2400563468125885,"288":2.562953116037973,"289":-1.9456593524089838,"290":4.894134715736547,"291":0.7860921950879303,"292":6.488578621363036,"293":1.6131617616252978,"294":-1.8882377500858514,"295":-0.17258155386736185,"296":-1.3052509819073401,"297":1.9266692816841986,"298":-4.411770641586438,"299":4.91277547690164,"300":0.14988028304283518,"301":2.4369773553747,"302":-4.0446894314847945,"303":1.7004339548272704,"304":-0.09413435313489109,"305":-2.770462758114511,"306":2.334583124995252,"307":1.084631519616178,"308":-1.584234956625427,"309":-0.739328457224168,"310":-1.1474009129413423,"311":1.2924897806991056,"312":0.23852571955909563,"313":1.066275728256305,"314":0.20926831830015905,"315":-0.7484643054672663,"316":0.4105831752136524,"317":-0.9499150741823583,"318":0.23854061541394858,"319":-2.0153861615086854,"320":1.5260403714257147,"321":2.4858882430981586,"322":0.08054790528715161,"323":-2.8761815546612373,"324":1.0639444230526716,"325":0.5231969659953247,"326":-0.7397597864101081,"327":-0.17907444765118424,"328":-1.1948188427114257,"329":0.26978376067720683,"330":-2.8453881038487396,"331":-1.6085723632463476,"332":0.3203566587354269,"333":-0.8775232039331449,"334":2.0101113582954935,"335":6.927072150028761,"336":-0.19389934061362485,"337":-2.8044379607205077,"338":0.5370450805454446,"339":-3.7512289121108444,"340":1.2642241856504604,"341":1.2258723058944516,"342":-0.7116980538308584,"343":-1.4119114780833497,"344":-0.8793547472957594,"345":-0.025696829981176415,"346":-0.9807324481254575,"347":0.728977040285926,"348":-0.4562593775359405,"349":1.9609492075327868,"350":-1.4246919084986367,"351":-2.1301857777022337,"352":2.5955313423405246,"353":-0.03271593825587978,"354":2.5372574522581175,"355":3.460775516960332,"356":-1.0056222676632853,"357":-0.055776412609680276,"358":-0.9583002998310841,"359":1.3315565366212947,"360":-0.6817191876922556,"361":-3.738327156321525,"362":-1.6255429148020317,"363":-1.4708827610991833,"364":-0.8794137823991536,"365":0.41403515530724405,"366":-0.42792779454032254,"367":2.057195485778133,"368":1.5188020821371757,"369":1.8530776528367119,"370":1.6007635590013403,"371":1.729898713517395,"372":-1.3975313111779348,"373":-2.051658938491657,"374":0.27031618744433844,"375":-0.31270040111944597,"376":-4.860557853931453,"377":2.911593264555375,"378":6.1569826196879225,"379":-3.0816066054366456,"380":-2.3806586987179643,"381":-4.424756229480173,"382":4.751645049400673,"383":-1.076735398912663,"384":-1.2165634366193954,"385":-0.7063072434244879,"386":-0.5930843018838177,"387":-2.602251319969644,"388":2.840835025696689,"389":1.1816679238457373,"390":-4.587545474273881,"391":0.032718497817861784,"392":-3.20801387911653,"393":0.11586723931520782,"394":-1.2049483233635545,"395":-1.5077666429398082,"396":1.0131427970440414,"397":-2.6731928459086385,"398":-0.48301394486672883,"399":-0.39820939706447134}},"forgetBias":{"rows":20,"columns":1,"weights":{"0":0,"1":0,"2":0,"3":0,"4":0,"5":0,"6":0,"7":0,"8":0,"9":0,"10":0,"11":0,"12":0,"13":0,"14":0,"15":0,"16":0,"17":0,"18":0,"19":0}},"outputMatrix":{"rows":20,"columns":29,"weights":{"0":-1.3100186706168893,"1":2.0416485457246045,"2":0.7402619719906667,"3":0.272821637508385,"4":0.13261771725568694,"5":-0.34315826210178774,"6":-0.8512427951470192,"7":-3.08175471278839,"8":0.48804631390315617,"9":2.124705053164619,"10":0.04020597640758435,"11":-1.2005703757183435,"12":0.5023484842487821,"13":0.4587627085104408,"14":-0.30157996760803074,"15":-0.8659212103430446,"16":0.019132128380236885,"17":-0.7302722302767883,"18":-0.37134927837836773,"19":0.1584348006267647,"20":-0.2690904284294813,"21":0.47056229682463824,"22":-0.411462471394305,"23":0.5164637784619953,"24":-2.5154393786457003,"25":1.5662607508676452,"26":-0.6063226218686981,"27":-0.20371624026561677,"28":-0.7195878963071668,"29":2.4036655770802473,"30":2.4436065649811036,"31":-3.41284922305114,"32":-3.1098601282164466,"33":-0.28916775508866205,"34":1.2994078089993837,"35":1.2254016717305056,"36":1.5651175748013613,"37":0.6978992907214198,"38":0.17513099905311957,"39":-1.9246348540950118,"40":0.5559013680381198,"41":-0.24181352168305786,"42":-1.2082316783624443,"43":-1.8331212643380093,"44":0.7649523839925644,"45":-0.45683214605291034,"46":0.02122650588308743,"47":-0.5223795178623238,"48":-2.2653421353289214,"49":3.2487821366139027,"50":3.4557683098970187,"51":1.519676219081726,"52":1.5098547316585622,"53":1.6740710440635036,"54":-0.9899960526549381,"55":3.8275312362657683,"56":-0.9368486938235632,"57":-3.3316332103055357,"58":0.9365747797662528,"59":-0.4570289699161323,"60":-0.19920930185751295,"61":-0.223535314901473,"62":0.08051147053033196,"63":0.32575344672340667,"64":-0.626989003907693,"65":-1.8059243504451576,"66":-0.09415951662927673,"67":1.2281318123353455,"68":0.9577875993299371,"69":0.42521875050766894,"70":-0.6704882809251133,"71":0.24960986908174493,"72":-1.5100765405756862,"73":-0.46669583244204704,"74":0.4943816764842757,"75":0.2874742509062113,"76":-0.011414208129597748,"77":-0.8571641739679783,"78":0.9461706248223416,"79":0.07679323167721133,"80":1.8255390617454637,"81":0.15794219958051975,"82":-2.2789869587530247,"83":0.15436631918850463,"84":2.0172618739731414,"85":-0.9185675184070008,"86":-0.7488322787789558,"87":0.15442578685671499,"88":0.9487476378009598,"89":-1.256612693836728,"90":0.25705990502026327,"91":1.2681003002724458,"92":0.6225611257039927,"93":0.2044941216884549,"94":1.4536247952491927,"95":-0.4913827044403267,"96":0.07879551978284419,"97":-1.22358695374238,"98":-0.037206425916377746,"99":1.0484822115507217,"100":-0.08703563874376391,"101":-0.09619921626622971,"102":-0.7816402171739577,"103":-0.4340051853542823,"104":-0.48849796547637414,"105":-0.5605776963578464,"106":-1.0124360341957466,"107":0.7893675129894973,"108":0.9889010552264756,"109":0.6953889866896185,"110":-0.267745447268522,"111":0.05858930224671731,"112":0.48518226865955694,"113":1.0950637458564725,"114":1.16017493119575,"115":0.4396812494614364,"116":1.903327672910019,"117":1.0515103344581016,"118":-2.42954084641328,"119":-3.1709545056626225,"120":-2.0510681317964834,"121":-2.060394402539932,"122":1.0965983348858166,"123":1.1558796347607785,"124":0.0575949110644058,"125":1.833332831297849,"126":-2.978665704633457,"127":-0.463911585319568,"128":0.3183242537060586,"129":1.2609265680093824,"130":1.5331415793162906,"131":1.3405961143027034,"132":-1.809318377708025,"133":-0.9997353491327339,"134":3.9469298642315294,"135":-3.1653526693514427,"136":2.539912188208761,"137":3.297519996723581,"138":4.357046326662243,"139":-0.5823387529711906,"140":1.56451599115229,"141":-1.9579779447104533,"142":3.570327091235331,"143":-2.095216912462646,"144":-2.295011430286434,"145":0.2283549277834532,"146":2.5391882706377444,"147":-0.5296614411710027,"148":-0.5542741374078879,"149":-0.6161620233600946,"150":-0.260524909008734,"151":-0.5007283997969071,"152":0.9005966617242598,"153":-0.4470954460383268,"154":-0.9345317216609969,"155":-0.21863499312671064,"156":-1.6827118309271984,"157":0.9073208762730447,"158":-2.2226217000868216,"159":1.012664683606078,"160":-0.19357095799343366,"161":0.49244509076313325,"162":0.8271898019045959,"163":-0.2841071692193242,"164":-1.2502230693093774,"165":-0.7243108521672728,"166":2.0479507720032375,"167":-1.0594209325298531,"168":1.6139146197088343,"169":-0.5679046778701842,"170":-1.3724807249717406,"171":1.2123977291875327,"172":0.4100163584084801,"173":1.5132175939089874,"174":0.5680824183662044,"175":-0.9214574355320778,"176":1.208937765688095,"177":-0.2349109906536641,"178":-0.5859794289123036,"179":0.1231592416317866,"180":-0.15041989649956206,"181":-0.9633778958929736,"182":0.11695162551252887,"183":0.6521599899258668,"184":2.1047677489025687,"185":-0.131808251018309,"186":-0.12947481041581368,"187":0.555654453208732,"188":0.15477829488008765,"189":-0.5851938393776829,"190":-0.9666557326741207,"191":-0.6132157687206807,"192":2.3247162343905967,"193":1.5077014394233998,"194":-1.1188125383894683,"195":-2.043751141578156,"196":0.5681292431127016,"197":1.1651725942083766,"198":-0.7437759842646128,"199":0.47979034445389945,"200":0.08488215998988322,"201":-1.194688823151384,"202":0.9389458580846055,"203":-0.37456634426163926,"204":-0.29398993076066043,"205":1.726640068682596,"206":0.22752176563315324,"207":-0.08881929953173297,"208":-0.8520394923294824,"209":-0.13924893222664925,"210":-0.6414599445249682,"211":0.779315070619262,"212":3.3163698787563525,"213":1.6056068776777268,"214":-1.5712135178409925,"215":0.5919854730158947,"216":2.1072058603449144,"217":0.15875251709750515,"218":-0.9498238467036334,"219":-0.6695206592101285,"220":-0.16211905712415556,"221":2.3517024892453255,"222":0.32120858804258123,"223":-0.6773321764117973,"224":-0.30349548190681014,"225":-0.41640070526803785,"226":2.4471000031817756,"227":0.49477723471717594,"228":0.993428950081171,"229":-0.4760650674476977,"230":-0.8654295243559036,"231":-0.5439502629304814,"232":0.19468491347816497,"233":0.6001483716456235,"234":0.9339267498269563,"235":-0.5180204715205585,"236":-1.0365632332946202,"237":-0.6043955247047939,"238":-0.4444541832952755,"239":-2.0221183671283463,"240":-0.20854423869815322,"241":0.9388562420374691,"242":1.6388369391277269,"243":0.5231204599449158,"244":-0.2863461006688341,"245":1.606298057556769,"246":-0.8388649568094891,"247":-0.2318472861019886,"248":-1.0514589500570948,"249":0.13980497599333414,"250":1.1659479182064287,"251":0.4085322768999723,"252":-1.108243882158722,"253":-0.8888618737872628,"254":-0.6246213383171384,"255":1.1211835064202387,"256":-1.627683224546196,"257":1.1646971646362958,"258":-0.03305817945726138,"259":-0.21717555095215108,"260":1.3686383423176904,"261":-1.0542719558099187,"262":-0.11115642650729265,"263":1.2192042953225743,"264":0.47591233984624776,"265":0.129360631581222,"266":-1.4100633436995944,"267":-0.012342025699606362,"268":1.1409534997396495,"269":0.7287811051716886,"270":1.4029241134189532,"271":1.0238189926851204,"272":-0.6311904782133404,"273":-2.3909547185701143,"274":0.9850014417202606,"275":0.2169210257088893,"276":-0.07997339445244273,"277":-1.6282039460512174,"278":-0.5039461024287394,"279":-1.6465173202113483,"280":0.7676906715760777,"281":-0.730813500846107,"282":-1.2166070022412452,"283":-1.087992895856277,"284":0.25615304814897316,"285":0.834667891033047,"286":0.3861469786747416,"287":-0.6768455470001209,"288":-0.3371188764872422,"289":0.1401744859825591,"290":-0.4525490099202719,"291":-1.0748607438560276,"292":1.91246163340904,"293":0.19074970466478303,"294":-0.23747238469673185,"295":0.48668883445508354,"296":-1.991913998233888,"297":-1.7652215368924062,"298":1.7014600558051907,"299":1.4821877686607714,"300":3.06537767135773,"301":0.8219073988050926,"302":0.013640425749552388,"303":0.35172265240943706,"304":0.7970871756585968,"305":-0.43222324683019314,"306":0.6617232700748495,"307":0.8356210700626373,"308":0.709600681329758,"309":2.307897747507524,"310":-0.3314290338118892,"311":-2.2328282113558613,"312":-0.6105236166662628,"313":1.671373352271179,"314":-1.4337876214374596,"315":1.6238811529019799,"316":0.27933023947665797,"317":-1.509134465235651,"318":1.4255003455980682,"319":-0.21725025163701894,"320":0.6793721120827698,"321":-0.24380347185691537,"322":-0.29263205173362117,"323":-0.6995118437009845,"324":-0.19057485423898665,"325":-0.13053854556587033,"326":-0.340765912410373,"327":0.007828169045368314,"328":0.604119912276889,"329":-2.6661066375167266,"330":-0.2089763347049394,"331":1.512951165987963,"332":1.2220385759340042,"333":-1.3786764205197015,"334":0.3535423948785969,"335":0.5325049886718177,"336":-1.3186021910459895,"337":-0.7649855107559855,"338":-0.07378280137191597,"339":-0.9565553562221136,"340":-0.19458932797576664,"341":1.2036594012845003,"342":-0.29743237711187537,"343":-0.8403973871277007,"344":1.0190954791182514,"345":0.3471115720906613,"346":-1.2714756537318055,"347":-1.0280236968575411,"348":-0.29495204864877433,"349":1.8378143268311609,"350":-1.803559318725313,"351":0.8525044147249762,"352":0.8540866581134204,"353":0.6802517420631663,"354":0.9227182238050438,"355":0.7355661174921609,"356":-0.8356705376393881,"357":-0.7410789783071654,"358":-0.6440738146221531,"359":0.30209257315441834,"360":-1.057943127252116,"361":-0.10445945546145699,"362":-0.9246764992984291,"363":-0.246004910108226,"364":-0.07698398435299007,"365":0.225949092726317,"366":-1.6831610846879226,"367":-0.4735875721786555,"368":-0.6309475249006445,"369":0.25815989497454855,"370":-0.8372945928118859,"371":-0.8913850033217111,"372":-0.0161853984010652,"373":0.6935953449839691,"374":-0.16235458758871957,"375":0.7012820777156783,"376":1.04864179491434,"377":0.6309524889321161,"378":-0.6025198098701795,"379":-2.777616940131865,"380":-1.511206015508617,"381":-0.3641803056648572,"382":-1.322692087451582,"383":1.8810291234593004,"384":0.5644380592324069,"385":-1.8189914055681822,"386":1.0288154365147255,"387":-4.957941125039257,"388":1.1091686856428329,"389":0.33946072912897746,"390":1.347121116473047,"391":-1.2020051034540922,"392":0.06704618267762337,"393":1.0467114012191066,"394":0.5451487274542043,"395":-0.04014843995960223,"396":-1.4525448270752033,"397":0.4463851813442079,"398":1.5809511814485728,"399":-1.0187484201539474,"400":-1.0846858446939363,"401":-0.04608226569763637,"402":-0.9348153699228486,"403":2.259604790661774,"404":0.17659776533645502,"405":-0.18729362060466684,"406":-0.018211185181226802,"407":0.2655706915220823,"408":0.34682996710141806,"409":0.6935287773671412,"410":0.3199065996653656,"411":-2.341022471652159,"412":1.0439511400605532,"413":0.3900881831081812,"414":0.24112735732925863,"415":3.302259635642973,"416":0.2107987783776146,"417":0.22988292852862172,"418":-1.059531277224209,"419":4.879312902982542,"420":-0.9506502658507191,"421":-0.07205895175970695,"422":-1.427117017802701,"423":-1.1416584636689988,"424":-1.8493951651444864,"425":-0.2341835180707283,"426":0.7575432495024048,"427":0.3252040622965366,"428":0.7001188382040894,"429":0.8610025494290655,"430":0.05641874847593256,"431":-0.6796979752054376,"432":0.3537276051765291,"433":-0.04849268632473843,"434":-0.45031075059876224,"435":-1.7069775702394938,"436":-1.5076907601887866,"437":0.6940575387449416,"438":2.0894451345620357,"439":3.527348190840608,"440":-0.3539102010617234,"441":-0.18481330772557225,"442":2.406284625387689,"443":0.5217053406317984,"444":-0.09725038647542295,"445":1.6869865896252019,"446":-0.4933608891819111,"447":-0.6859777569220693,"448":0.8159925848409256,"449":0.7078302383991593,"450":-0.3356747239401485,"451":-3.8302923308066226,"452":-2.816784705533999,"453":-1.694113090177435,"454":-0.5655245460984564,"455":1.5121105412873705,"456":-0.25204431850958003,"457":0.5918332984602419,"458":1.6762345171682682,"459":-0.4175727265774818,"460":-0.3073492901127436,"461":-0.6890131893225369,"462":-1.040233365162054,"463":-1.552675352884521,"464":1.4690528088839294,"465":0.7187201963220294,"466":-1.7422996806431992,"467":1.1009784516056904,"468":-0.2224401617389286,"469":-0.7650952223900958,"470":1.6037130308749985,"471":0.47178396389697064,"472":-2.3138764314567095,"473":0.5309753700933226,"474":-0.1984397754793959,"475":2.196159873829109,"476":-1.2805070199117858,"477":1.9296315316890411,"478":-0.2967067102688284,"479":0.6682943949166611,"480":0.33625363512444323,"481":0.07363939883356248,"482":-0.18126369857737681,"483":-2.0462577546726988,"484":2.391805031879308,"485":0.13726378302190895,"486":1.4197832508478347,"487":-1.6295999780843071,"488":1.268831621171702,"489":1.8363020168818105,"490":4.354652780148796,"491":1.1080578854022052,"492":-0.5470699799506834,"493":-0.12970933040456145,"494":-0.834403417673495,"495":0.6119856127782064,"496":-0.22225655836802952,"497":-1.0347572695689415,"498":0.039276352216945906,"499":0.2333188394589731,"500":-1.0186798505763037,"501":0.5128265933862745,"502":0.6160035690702198,"503":1.041625250270574,"504":-0.736076748757909,"505":-0.15065790450321617,"506":0.9302313604417558,"507":-0.1696649639490491,"508":0.2563767373167713,"509":0.4068085025259677,"510":-0.23299667320853545,"511":1.6001810549930977,"512":0.4941090250811548,"513":0.39449357439890553,"514":-0.4029081823069119,"515":1.0123070424034664,"516":0.09528759324197901,"517":0.2847637914990815,"518":-0.1502147550753412,"519":0.7824785613163108,"520":-0.5250806481122983,"521":-1.1040907636363386,"522":0.47690675146076017,"523":0.8343760829940936,"524":0.9135048268936462,"525":1.219230770086618,"526":-0.5467722962969168,"527":0.4273009689266926,"528":-1.1975119583958915,"529":0.5765981040520557,"530":0.16068482184652338,"531":2.6269669781705605,"532":-0.6655721890721329,"533":0.08307133843230839,"534":2.2637852088499564,"535":2.5403002517978375,"536":0.5613366146311792,"537":0.6478749925206445,"538":0.51535060279479,"539":-0.7153860675428492,"540":1.1097214945088503,"541":-1.0008331882325572,"542":-0.5768971654687758,"543":-0.8136384871499178,"544":2.6076014833869365,"545":0.770895409321661,"546":0.5445500653701816,"547":0.0719242058043757,"548":-0.42883522395005824,"549":0.3864095829999484,"550":0.5044877074110591,"551":-0.24705228232028684,"552":-0.771849975901943,"553":-1.483015787826433,"554":-1.5719383450011222,"555":-0.005401134842943458,"556":-0.3017889208217287,"557":0.9123214869011982,"558":0.8190604693204211,"559":0.8563642083567258,"560":0.3880927522188233,"561":-0.43517170511703396,"562":-0.9729053825059034,"563":0.44396123636324886,"564":-0.43161007849651856,"565":-0.1689859064227303,"566":-0.47622206815113205,"567":-0.18043086266673822,"568":0.45424459320244337,"569":0.568101052457076,"570":0.21297741298710549,"571":1.2095648120449707,"572":0.5444951580742062,"573":-1.7121452652298357,"574":0.3499229265832529,"575":-1.346372758620207,"576":-1.4241255193630513,"577":0.7765388079721572,"578":-0.9698232287649643,"579":-1.5116814485807002}},"outputHidden":{"rows":20,"columns":20,"weights":{"0":-0.8811280408610135,"1":-3.3872839548954334,"2":-5.4138493380691495,"3":1.0390028905237472,"4":2.87801982140942,"5":-0.6885593961454376,"6":2.0609220689231464,"7":-4.843721749673221,"8":1.1538705885124538,"9":-1.5240393176946645,"10":3.8416025953951785,"11":2.532385176800144,"12":-1.636170915055379,"13":-4.999470798138242,"14":-1.1381817102802134,"15":0.5965425241710126,"16":-2.237008882754525,"17":2.9527256599712497,"18":1.8974608960241024,"19":-0.6519207493562769,"20":-0.9132981076869202,"21":0.6607162056990095,"22":-1.2020461410580285,"23":-0.8114840826340612,"24":-0.07246769037153404,"25":-0.7775831658671682,"26":0.29897887858703126,"27":-0.08513557320170115,"28":-0.5565434468046655,"29":-0.2908630270696481,"30":-2.051962186666105,"31":-0.1521227057055763,"32":0.6748903496206603,"33":-0.005852145344604767,"34":0.7170696636671802,"35":0.4646350948341239,"36":0.19537824191589698,"37":-2.720183859009274,"38":-1.6871087250487211,"39":-2.7930966592141244,"40":-4.754330863384508,"41":-0.7442359212583461,"42":9.526230372488627,"43":-0.48839872316608335,"44":3.806189352662251,"45":-0.3519513805610633,"46":2.76484852951831,"47":0.8316143461766874,"48":-0.3341451624962371,"49":-5.1894075328546245,"50":4.087718329166862,"51":1.4821054314691036,"52":1.023442432250033,"53":0.35074896701832053,"54":0.041107199043233913,"55":1.9717957200117777,"56":-1.8222011828444342,"57":-1.8919583183677422,"58":-5.30199196738471,"59":-1.4048041553728314,"60":-1.8051255243006128,"61":-2.007976370281087,"62":-0.3642641860844821,"63":-5.6082406599738555,"64":0.3904230432889111,"65":-0.24144424950264776,"66":-0.9011538099129116,"67":1.3952622623620243,"68":-0.8872373911548732,"69":-1.8685096644106547,"70":0.39761144279807586,"71":-7.72719725474857,"72":6.521938341475744,"73":1.6957236983673447,"74":-0.598615169381141,"75":1.5185341188031467,"76":-3.720667011887198,"77":-0.6095853904240565,"78":-1.5762733043186723,"79":3.4092826869722637,"80":-0.9773704027630173,"81":0.6259948954380826,"82":-0.618251916457528,"83":2.1087201493126724,"84":1.156827806611316,"85":-0.4047641478480682,"86":-0.773240235735261,"87":-0.4106717100839537,"88":1.367378446258372,"89":-0.18506748114272017,"90":-0.2588716232957667,"91":-0.46427779309663547,"92":-0.3544773798685213,"93":-0.7389750549642086,"94":1.381134506327656,"95":1.5720767517662768,"96":-1.3167304940708016,"97":0.3953100433769313,"98":0.08200063259825427,"99":0.7868708483377397,"100":3.0468286926097554,"101":-7.110586919738802,"102":-5.619464048798507,"103":1.9864458705266104,"104":-2.1217480123114907,"105":0.6518906558906963,"106":-1.4607640620226283,"107":2.219821489830323,"108":-0.3715119104927814,"109":2.8554499983060055,"110":-1.6090556355745291,"111":2.9527393213612765,"112":-4.506045432999488,"113":-1.879925665493322,"114":-0.02163764402272027,"115":4.559942155977262,"116":-3.457866239033192,"117":2.093141801803963,"118":4.677132407875158,"119":-3.7100324406701803,"120":-1.6533637401250323,"121":1.5284355998968957,"122":2.0582021592116124,"123":-8.686425105994424,"124":-0.5526876080078691,"125":-0.37998937494278207,"126":0.1494487774584186,"127":-1.6602218693896222,"128":0.06593437324956489,"129":3.6208801821860526,"130":-0.8693765737099298,"131":-4.342129851092681,"132":4.87141735349205,"133":-1.6052429550882708,"134":1.2718606217941442,"135":0.4369636351955632,"136":-4.658836989751006,"137":1.139536039748492,"138":2.1271384345486197,"139":-3.2556472747115466,"140":1.6427586416367113,"141":3.8268396918810725,"142":-0.16134302451312504,"143":-3.896870615008572,"144":0.6887457235921264,"145":-0.832358901122607,"146":-1.4919587772084588,"147":1.2054863818017278,"148":-1.0164679664355134,"149":-0.5744437124759451,"150":-4.528640598229434,"151":-0.1543768481213349,"152":5.7399173234387595,"153":-3.6861512687162166,"154":0.5638815909051473,"155":-0.1643654073931458,"156":-4.320511341073994,"157":-1.5015407369272906,"158":2.9658414167150635,"159":3.103800932084909,"160":-6.079534725581482,"161":-5.134729799107491,"162":1.2062466079106131,"163":0.019525450505243295,"164":-0.7218784585127788,"165":1.4590969320209648,"166":-0.8433776290470058,"167":1.638776590215723,"168":0.14103597918287447,"169":-0.12317545700586709,"170":-0.916591954940699,"171":1.4547076895920532,"172":2.3523331861883072,"173":1.6056979926932473,"174":3.0774061868304217,"175":-3.538465902143158,"176":2.816359787721726,"177":2.5774067643810175,"178":-2.4259053844993432,"179":3.454068895834138,"180":-2.1535879766966066,"181":-8.399231237318945,"182":0.25568987234350443,"183":-1.555910388321733,"184":-4.833456012500382,"185":3.1295919291018266,"186":-1.4178799588435618,"187":3.52450862416516,"188":-2.125622664699563,"189":1.4659265115224553,"190":-1.0519930297596052,"191":-2.306758535966034,"192":4.08761699183243,"193":-0.6921115455387276,"194":1.9075522003391596,"195":-2.53982884709337,"196":-3.3216271926464276,"197":1.9572406360615064,"198":5.055110337868862,"199":1.5046237230997292,"200":-2.602292413535683,"201":-5.360556992059037,"202":1.5236645721622453,"203":-1.026540186933007,"204":-4.645116530119242,"205":1.0715005007751908,"206":2.267580880636045,"207":6.035200213444746,"208":0.09712577030693725,"209":-2.7067839163640484,"210":0.5185082823518703,"211":-0.010544480576093838,"212":1.836447843086809,"213":-3.047099307876038,"214":1.5951247024937403,"215":-2.4216108345307426,"216":-1.7091651598748372,"217":-0.17004297999806392,"218":5.234435051569217,"219":0.8889399558921224,"220":-4.278385130588332,"221":-2.0352923902128115,"222":0.37054542131166057,"223":-7.094464549226498,"224":1.7150469163498068,"225":1.2445731350657918,"226":1.925546491217234,"227":-2.1013704137749105,"228":-1.0375656638688604,"229":-2.1650496402643475,"230":1.3806225169081656,"231":-9.893538142711298,"232":-0.8874665210891766,"233":-2.0190157853132003,"234":1.6243614290633994,"235":2.21281400336208,"236":-2.0583962050467792,"237":3.789744630577704,"238":2.0544698238134633,"239":-2.293649030188879,"240":-1.3886882487322598,"241":1.4199455365170295,"242":0.7116630011761305,"243":-2.185878755521987,"244":-7.291915333457484,"245":-0.11766324359069924,"246":0.2420274293536618,"247":3.2227213598418,"248":-4.409961432748998,"249":0.5270210416188752,"250":-3.037304101041402,"251":-2.3760139709548147,"252":0.3550481873034792,"253":-3.063621026470584,"254":2.268640579804488,"255":1.8598087445674591,"256":-4.4605831359845265,"257":4.00658579733786,"258":2.699580466085323,"259":-1.710374081926236,"260":3.190975483172374,"261":-3.4723044034385206,"262":-2.617091401168572,"263":1.5947157584294243,"264":1.7486199711703239,"265":-2.107846692439066,"266":-3.590789715711435,"267":0.30509804262997714,"268":1.1534688533217383,"269":-2.4295715636289166,"270":-4.096639334455694,"271":0.7203698912876164,"272":-2.3713850111332984,"273":1.9627921128145722,"274":-0.32811131336857274,"275":-0.6510197551267823,"276":0.5458381353567658,"277":-2.6462324877793857,"278":-0.01380457851750179,"279":-2.9572872520458326,"280":2.953167352083548,"281":2.2343445191731024,"282":0.4186103079635814,"283":0.3083001221824253,"284":1.955875230480366,"285":-1.768157935072427,"286":3.036973724065178,"287":0.9191463278797499,"288":-0.22992585486505596,"289":-5.279012711220667,"290":1.5368313563719973,"291":-0.7015956600884673,"292":-1.1491207750767134,"293":-2.158770615482055,"294":-0.8722676485085211,"295":-3.969886586788593,"296":-2.8210544940437514,"297":0.304611095743726,"298":1.4066836032795225,"299":0.2584683061361062,"300":-1.2525800397375146,"301":-5.62033922033252,"302":1.0874827881302171,"303":0.8910496331537746,"304":1.4786959225129657,"305":0.613594046431853,"306":1.252903734675874,"307":-3.753000466302521,"308":-4.2309248076899255,"309":-1.3407548751254466,"310":0.44107997783364394,"311":1.0202329657586156,"312":-2.1302219588864895,"313":-0.6314191064349911,"314":-0.23926023568018248,"315":1.5533162746774205,"316":0.3572687038213242,"317":2.6309689715908187,"318":-1.5697654405677153,"319":0.3253382089241498,"320":0.7857785721544621,"321":-2.023985402458345,"322":-2.732134955277874,"323":-1.0071986911688535,"324":-2.476427674075362,"325":1.125955555751606,"326":0.809961038733041,"327":2.493888340521432,"328":-0.3925620051023166,"329":-0.9682196395242771,"330":-0.9874406546085194,"331":0.20832638567343112,"332":1.5989800460087424,"333":-0.7856856063335661,"334":1.7741621585504617,"335":0.5863851005244213,"336":1.1147017541162871,"337":1.1315929078135119,"338":-3.541162557614739,"339":-0.5354341524458641,"340":-3.9486003084075287,"341":1.3914075196557572,"342":-1.1665649280592068,"343":-3.482999992503732,"344":3.0505294214525573,"345":0.9978120486480837,"346":3.02474500004237,"347":-1.785775374161414,"348":3.166005637376791,"349":2.02965949565835,"350":4.583211918735542,"351":1.0768976221546458,"352":1.3190783204961072,"353":-2.5318324187010384,"354":-4.18293080036923,"355":-1.6204758756855964,"356":-3.241994588217797,"357":4.105107238007718,"358":1.774528375163297,"359":1.401088415394464,"360":-1.2561617877555251,"361":-3.050287356553738,"362":-6.6190659609153,"363":0.4213302329341433,"364":-1.763383880918251,"365":-3.4166550284686608,"366":5.238857771791648,"367":-5.251061868550576,"368":1.2316736301246138,"369":-1.8045232832610665,"370":0.6287321357371499,"371":0.027053718729151254,"372":-1.3673910182861353,"373":-2.8064934103918624,"374":-2.7009739702354265,"375":-0.7147207804690425,"376":-3.0317174170633554,"377":2.9562284581078186,"378":2.151426051595718,"379":0.41029185842068117,"380":-1.8727412660604503,"381":-3.0470415492915772,"382":0.3408235508170301,"383":0.5945554275879285,"384":2.0354070564131965,"385":-1.9645642123329194,"386":0.7687245134877037,"387":0.3091065927430963,"388":-4.427658366672725,"389":6.053289142118947,"390":-0.5993174972811838,"391":-2.0036253480021973,"392":0.17624431034462193,"393":1.9928278591540318,"394":3.8238111723231665,"395":4.9622559259133805,"396":0.509797089386452,"397":-0.6578767343924694,"398":-1.5441930780354454,"399":-3.1370005362170246}},"outputBias":{"rows":20,"columns":1,"weights":{"0":2.2282088680475005,"1":-3.5685416278904194,"2":-2.8076559215925183,"3":-1.0461305752473984,"4":-0.901960925480515,"5":-0.24135377399353194,"6":-4.133496451093025,"7":-0.8369693095881136,"8":-0.9323840861559182,"9":-1.5547208446723542,"10":-2.8809336503546077,"11":-5.232956279292171,"12":1.9532862592130606,"13":-2.2117799515331678,"14":-0.8215765936950209,"15":-0.5059507440309026,"16":1.0228047864008125,"17":-1.8859215338779696,"18":-0.6832224125913624,"19":-0.8101183252742007}},"cellActivationMatrix":{"rows":20,"columns":29,"weights":{"0":1.194634173425722,"1":0.71821192253248,