{"type":"LSTM","options":{"inputSize":29,"inputRange":29,"hiddenSizes":[20,20],"outputSize":29,"learningRate":0.01,"decayRate":0.999,"smoothEps":1e-8,"regc":0.000001,"clipval":5,"json":null,"dataFormatter":{"values":["al diel shala","alar'annalas","ama noral'arkhana","anar'alah","anar'alah belore","anar'endal dracon","anaria shola","and","ann'da","anu belore dela'na","aranal","bal'a dash, malanore","ban'dinoriel","band'or shorel'aran","bash'a no falor talah","belono sil'aru, belore'dorei","belore","by the breath of the dragon","by the light","by the light of the sun","children of noble birth","children of the blood","death to all who oppose the children of the blood","doral ana'diel","elor bindel felallan morin'aminor","elu'meniel mal alann","farewell","father","felo'melorn","flamestrike","gatekeeper","greetings, traveler","he who walks the day","help me forget","high blade","high home","how fare you","justice for our people","keeper of secrets","kim'jael","light of the forest","little rat","may peace calm your heart","medivh","minn'da","mother","prepare to say farewell","quel'dorei","quel'serrar","quel'thalas","ranger lord","rea","rise","safe travels","saved by magic","selama ashal'anore","shindu fallah na","shorel'aran","shoulder your burdens well, child of the sun","sin'dorei","sinu a'manore","sleep forever in quiet serenity","speak your business","sunstrider","tal anu'men no sin'dorei","taste the chill of true death","thas'alah","thas'dorah","the sun","the sun guides us","they're breaking through","valor of the forest","vendel'o eranu","well met"],"indexTable":{"a":0,"l":1," ":2,"d":3,"i":4,"e":5,"s":6,"h":7,"r":8,"'":9,"n":10,"m":11,"o":12,"k":13,"b":14,"c":15,"u":16,",":17,"f":18,"t":19,"y":20,"g":21,"w":22,"p":23,"v":24,"j":25,"q":26,"stop-input":27,"start-output":28},"characterTable":{"0":"a","1":"l","2":" ","3":"d","4":"i","5":"e","6":"s","7":"h","8":"r","9":"'","10":"n","11":"m","12":"o","13":"k","14":"b","15":"c","16":"u","17":",","18":"f","19":"t","20":"y","21":"g","22":"w","23":"p","24":"v","25":"j","26":"q","27":"stop-input","28":"start-output"},"characters":["a","l"," ","d","i","e","s","h","r","'","n","m","o","k","b","c","u",",","f","t","y","g","w","p","v","j","q","stop-input","start-output"]}},"input":{"rows":30,"columns":29,"weights":{"0":-0.029931892629540744,"1":0.9036403782548927,"2":2.063766500171482,"3":-1.2928828788011613,"4":0.3024049663558987,"5":-0.002376405337059083,"6":0.4873163891667771,"7":0.6896091585563746,"8":0.7590362631728679,"9":0.4673081028902546,"10":-0.24873751176326342,"11":-1.6071250776670114,"12":-0.4596726766455915,"13":-0.7792838713873548,"14":0.3512449524158877,"15":0.43938512448385386,"16":-0.9404445749138356,"17":-0.24448224504199043,"18":0.25501847879411865,"19":0.16282845394775292,"20":-0.3032578333872079,"21":-0.5783640435250154,"22":0.9588537274111362,"23":-1.5082739053066592,"24":-0.5225886345813957,"25":1.1327866105604694,"26":-0.14844714229061656,"27":-0.7714279960231996,"28":0.7081022823310479,"29":-1.0996022890315995,"30":0.4420487125981285,"31":-0.5984152924041737,"32":0.5641670657124479,"33":0.7187158326045288,"34":-1.1165859305685368,"35":0.2878557846040388,"36":-0.915627587490545,"37":-0.30699446640372285,"38":0.3004823842655129,"39":-1.904709538928061,"40":0.6839540975051488,"41":-1.055429968511852,"42":-0.4501212480487194,"43":-0.3654407362347065,"44":1.4685372773468857,"45":1.3745289364891928,"46":0.0941369422037254,"47":-0.6269446216535871,"48":-0.14250995034977723,"49":0.37195532320138547,"50":2.0448028080249885,"51":-0.5259745062683442,"52":-0.16111507311614912,"53":1.5044985680221954,"54":-0.7323535047980803,"55":-1.537914412828286,"56":1.6969485526816483,"57":0.0017579129552150752,"58":-0.5978648084623253,"59":0.6911816416455309,"60":-0.3371310344333762,"61":-0.4940298881386669,"62":0.04370116344965573,"63":-1.1745404333725824,"64":0.22145825892467147,"65":0.04822959962310688,"66":-0.7054672966416053,"67":0.23979472754126643,"68":-0.0780303092651625,"69":0.2783011085157771,"70":-0.4897174966220207,"71":0.9312924541496742,"72":-0.9556092506622663,"73":0.2728306021252671,"74":0.2638933700833444,"75":1.282552219187429,"76":0.40674255340135596,"77":0.03338449876053813,"78":1.1684533222861693,"79":0.2632158101944107,"80":-0.6706605418591741,"81":-0.6329470833747183,"82":0.39467220144589976,"83":0.2092394521888111,"84":0.29607692373088795,"85":1.607063506480386,"86":0.3425150290349353,"87":0.5756161882498866,"88":0.4841821489236936,"89":1.111235564772521,"90":-2.0759780135703174,"91":-2.879598913792027,"92":4.165146838776885,"93":-1.8277216327556056,"94":-1.2098859733022296,"95":-1.0496442792539455,"96":-0.026441998551003165,"97":-1.4329863554736815,"98":-2.352561864704829,"99":-0.42009740348873775,"100":-0.3763209849175089,"101":0.7832797356194354,"102":-2.0856124860323066,"103":1.554178793847384,"104":-0.682288881581094,"105":-0.36395211444719944,"106":-3.737859328902887,"107":0.13541988173698358,"108":-1.0291143082473233,"109":1.9741025390569213,"110":-2.25099451407686,"111":-1.8925506421429212,"112":-2.3470823321890224,"113":-2.149005240596906,"114":2.024006265512854,"115":1.6992606038735556,"116":-1.0785594077717187,"117":2.2058674795745676,"118":0.18707638681640737,"119":3.3226653363416334,"120":-0.02352700703798662,"121":0.28585391480159333,"122":1.3789246637502466,"123":2.5406340517747363,"124":-1.3451193227833098,"125":-0.48187143586171616,"126":0.9265046324527529,"127":-0.861087701205759,"128":0.17756180418813217,"129":-1.8827832513911067,"130":2.0056483462825705,"131":-2.292486626324353,"132":1.2876059061284815,"133":-0.8698675040991559,"134":-3.098072270675319,"135":0.5885277822252794,"136":-1.0841492995288424,"137":-2.3560560791001657,"138":7.963458082231218,"139":-0.6117727622428495,"140":0.7313690863813257,"141":-4.4580943209358646,"142":0.1183589285095927,"143":-0.2052784702160795,"144":0.24871748149419848,"145":-0.7072052444820062,"146":-0.3674355104472281,"147":-1.558197869124951,"148":-0.9251950668931227,"149":1.498323579324881,"150":-0.2043801047817211,"151":-1.179182441802512,"152":-1.4296203123649345,"153":0.7024855206207532,"154":-2.1104141893433153,"155":0.7922833310625039,"156":1.0933170208730874,"157":0.08723548046145996,"158":2.8085192621522146,"159":-1.932525279884638,"160":1.103258267797823,"161":-0.6141425520265105,"162":0.6977347143579269,"163":-0.062129785708628454,"164":-1.0829459858359658,"165":2.4811235058322887,"166":-2.486216975549452,"167":-0.757548568572732,"168":2.208610812260984,"169":1.4261636545279537,"170":-0.06440129852366758,"171":-0.3704943678956072,"172":0.7884435686226234,"173":-0.5457104557324634,"174":0.8773032295801283,"175":0.6446145010512389,"176":0.5991937119221519,"177":-2.390594567150807,"178":-0.4772310872076829,"179":-0.8391813123910895,"180":-0.1470991639314884,"181":0.26890536125254116,"182":2.0568294578164967,"183":-0.02505577852720646,"184":0.7020572223876648,"185":-0.2725773069246065,"186":0.35019827505491824,"187":-1.8921450328657936,"188":-2.1468176685828353,"189":0.44420528099484574,"190":-2.80329203860514,"191":-1.3162857592359767,"192":0.5938161118011827,"193":2.697325677404975,"194":-0.7944110681222267,"195":-0.09597115294905388,"196":-0.03658730542595461,"197":-2.1704864070521914,"198":0.48296696279473755,"199":0.26373026319815934,"200":-0.020090664877760865,"201":0.3571506848089251,"202":0.4133129910351983,"203":0.18420856696267424,"204":-1.1793379051439008,"205":-1.591284306547333,"206":0.27689119043325383,"207":-0.683528072538738,"208":1.2762892503025198,"209":-3.649990530087787,"210":-4.484439784699507,"211":1.13218721537113,"212":-1.1913941053374517,"213":2.1456447924004713,"214":1.048422684101751,"215":3.020556636428331,"216":3.0324029363059237,"217":-0.10524895421234554,"218":0.0019891756743617883,"219":-0.20946710149778355,"220":-1.3309630493799893,"221":-0.6602883603971025,"222":-0.5248875696226536,"223":2.8439520864936823,"224":0.2804772366042918,"225":-0.5713566292864509,"226":2.7624688631574608,"227":0.52493743126674,"228":1.1315371368865794,"229":-0.5174091600962691,"230":0.7986233099740256,"231":-0.997697883318603,"232":-0.3386996495267283,"233":0.3302552608618334,"234":0.2345131034096122,"235":2.401019905683928,"236":-2.253303368907901,"237":-0.2762486966769763,"238":-0.12299273803111693,"239":-2.0414490906447327,"240":0.41288517707727196,"241":-1.4240148511810136,"242":0.12751872197206243,"243":0.5440831743861136,"244":1.031958520294615,"245":0.876112132495593,"246":-1.6369820125885801,"247":0.9932764577464841,"248":-0.7346802028656088,"249":-0.9877491592626143,"250":0.1697582448908004,"251":1.5740719619362034,"252":0.008573279746549416,"253":3.350947291624123,"254":-0.0022683642075492345,"255":0.8947347527884901,"256":0.6456762820322133,"257":2.8838163337604104,"258":0.5317522173122198,"259":2.2485055241475305,"260":-0.6713793643486184,"261":0.11946184552863716,"262":0.6456565403811344,"263":-0.051920394225878054,"264":1.3387789482978505,"265":-1.8839055975895962,"266":1.4502043974448724,"267":1.7941148927555077,"268":-0.49673068276105053,"269":-1.747395261972905,"270":0.8046886813058585,"271":-0.028340146687594096,"272":0.5369156221210237,"273":0.12322771145127667,"274":-0.7656819403888684,"275":-2.9462159079939205,"276":0.17785529425580437,"277":-0.2561942570914852,"278":-0.4145286647647472,"279":0.5423227475636587,"280":0.02577847781042254,"281":-0.6450396897485986,"282":1.1650209446565691,"283":-0.1265040050611053,"284":3.903980973773983,"285":0.020450169868129704,"286":-0.9383932268836243,"287":-0.8796163952318264,"288":3.071381655710511,"289":-1.847277293086589,"290":-0.11191435745623907,"291":-0.5111246601262472,"292":-2.64208169305346,"293":1.9991659740345216,"294":0.6614154929425689,"295":0.19882894581779922,"296":0.6507049744926248,"297":-0.5141525725211922,"298":-0.885037798394884,"299":0.6815140540441269,"300":-0.1793044851527677,"301":2.3393823628220662,"302":-1.002869532693633,"303":2.986693107779166,"304":0.386602633565826,"305":0.0077066249600473745,"306":0.4267433588551796,"307":0.9655234552194182,"308":-0.3760060223100559,"309":-0.6736678070912956,"310":-0.7819613000689684,"311":0.5518497243904784,"312":-2.179655651580361,"313":2.2188384560274805,"314":-0.4150049065739424,"315":-1.1598161346971962,"316":-0.8065835398523794,"317":1.8301677861179027,"318":-0.8105192564578573,"319":0.16885665677501535,"320":-0.20762807996724053,"321":-0.41049235414792123,"322":0.3935287126962456,"323":1.0891569271078223,"324":-0.20396539830585292,"325":0.6554575941088617,"326":-0.14256754875030525,"327":-0.338465323845463,"328":-0.48514569247508027,"329":-0.09294383642156578,"330":-0.41018765323982553,"331":-0.005010361743093698,"332":0.555233848918486,"333":0.26401423950981356,"334":-0.10419772164893056,"335":-0.3842777741321291,"336":-0.007154842768921424,"337":-0.7839282510609294,"338":-0.24873275027179828,"339":-0.5217474157591974,"340":-0.6964245816377709,"341":1.3294763128493283,"342":0.2694269675049111,"343":-0.6790657986096772,"344":0.05723007347901663,"345":1.1824650575121278,"346":1.130605446430523,"347":0.05552609489336874,"348":0.543093843329762,"349":6.396906529039958,"350":1.0178163869442791,"351":5.990947116157167,"352":-0.14112106143378172,"353":-0.7500847718126549,"354":5.302395147864528,"355":-4.852489659409179,"356":-0.23601075922024442,"357":0.35874728886412593,"358":0.9041779626305905,"359":3.331465921106559,"360":1.702430958153983,"361":-1.7280466223618351,"362":-6.621447317369414,"363":2.6624256137555182,"364":1.2345942092268118,"365":-0.7714939118344916,"366":1.6590769666096539,"367":-0.7531156013995628,"368":0.5288064392799299,"369":3.0163141676726366,"370":4.547107275295235,"371":3.617674692751764,"372":1.750556064907733,"373":-3.037593998367273,"374":-1.6057558759340376,"375":6.9199632876307176,"376":0.4465283777802359,"377":1.6889440971923302,"378":0.706261323405714,"379":-1.907398032034176,"380":0.36029684162327785,"381":-1.0774786967732093,"382":-0.3242389733115835,"383":-0.5131135447085469,"384":-0.9382990029503208,"385":-1.0821700109625216,"386":0.7175366447368431,"387":0.08128847072663675,"388":1.2459733328396656,"389":-0.0956635755426716,"390":3.3494142830551668,"391":0.05225817237571228,"392":-0.5349866259717728,"393":1.748056809459389,"394":0.4255104579681668,"395":0.29650015295596055,"396":-1.6109405568914668,"397":1.189926907986139,"398":0.3438374285507279,"399":-5.244579391286124,"400":1.1531863328714718,"401":-1.7975571579518517,"402":1.703464848448551,"403":0.5000268651358896,"404":0.7318708759382072,"405":-0.11659305908495324,"406":0.6488323675963832,"407":3.8041499124166616,"408":-2.4912728475562695,"409":-3.593756239327948,"410":2.3398625963086093,"411":0.9536493669242061,"412":1.2252631761238517,"413":4.353899767669385,"414":4.324142357776773,"415":-6.562525678411967,"416":-4.235077837882411,"417":1.7271641880669155,"418":-0.7197036521452019,"419":-0.7563905440827883,"420":1.2965117393660524,"421":-0.54478939142592,"422":-3.543518116506491,"423":0.24766899322388794,"424":-2.558201909876157,"425":6.621778749361755,"426":-0.8817350374052558,"427":-3.1272015546615446,"428":-7.243543960663349,"429":-0.2921448853979822,"430":-5.2763383761136735,"431":-1.8921928420474832,"432":4.3978164452858755,"433":-2.4029359663219063,"434":2.0198538959961603,"435":-0.9736815917216858,"436":5.90013871886808,"437":0.5248468671751145,"438":1.9981982735919706,"439":-0.6070526330589338,"440":2.5933870863206736,"441":-0.7584348944164577,"442":0.49284808064924923,"443":-0.7451188890080233,"444":0.8145933591950366,"445":-1.407968855736349,"446":-0.250872989988365,"447":-0.23205058116135222,"448":0.21104720416613643,"449":-0.9323002973449779,"450":0.11338245438512914,"451":-2.2314257887473383,"452":-0.6429921774751193,"453":0.11496079142816812,"454":2.052456901173992,"455":-1.4936738088614714,"456":2.0624432252280593,"457":1.8782557939394369,"458":-2.2191165004547013,"459":0.9378531955839634,"460":2.553718216518296,"461":-2.129546170398586,"462":5.232847984041988,"463":0.9250873082408427,"464":-0.23211199074524105,"465":-5.208539826258156,"466":-2.575186319611015,"467":1.5842840487171026,"468":4.003223600616277,"469":-14.723203078819948,"470":4.757916425788421,"471":-0.3248903083111131,"472":-0.47293624526218503,"473":-0.09712044206791265,"474":4.929470909861111,"475":-1.8337385120681235,"476":-4.099690685217629,"477":-3.2539656861897375,"478":3.546664750537854,"479":6.2500807870524735,"480":0.38015870013104197,"481":4.6196328892576926,"482":0.6874498513797672,"483":1.9622943144575258,"484":-2.0116807348219186,"485":7.2811562296760455,"486":-0.03877217799492283,"487":-2.5396857260607306,"488":2.1098598942144973,"489":-0.8444502689067298,"490":-6.0160632962474745,"491":-0.1489495735583297,"492":-2.2731953234944977,"493":-3.9254879078988987,"494":0.9532040690750104,"495":-1.4483926938926182,"496":2.2554354772341356,"497":1.0586860488467948,"498":-2.037626219335068,"499":1.4922989049615338,"500":1.6198083463830633,"501":0.9506813765726859,"502":-3.056959577104894,"503":-2.690526549544769,"504":0.5368296920347632,"505":-0.2811518580843532,"506":1.3172120283276674,"507":-4.640836059594217,"508":4.2610697729727125,"509":0.015543387881436235,"510":3.1138444692278155,"511":1.3047588602376086,"512":-0.2713664356358869,"513":-1.5388035336135553,"514":0.6116892192543034,"515":-1.0501162789257106,"516":-2.5282934914767847,"517":0.3408997994138217,"518":-4.761918710928942,"519":-1.7758689705265505,"520":2.064867999216629,"521":0.7032906456370742,"522":-6.01885871541868,"523":6.785041675870891,"524":9.776668545277266,"525":-9.569868515280783,"526":12.88049925295752,"527":-8.233182838880134,"528":-0.6383883856334225,"529":9.482861247761438,"530":0.813580093298499,"531":5.100263771405357,"532":-4.0767991501466545,"533":-9.161247242303812,"534":2.2848173675770256,"535":0.08415644991498122,"536":3.6471471456480877,"537":6.613729616222138,"538":-1.2582572182066971,"539":7.122803837400729,"540":-7.514308002446032,"541":8.587507703310845,"542":-2.1300912560686416,"543":-16.255350262057004,"544":-3.9419723972209417,"545":-9.824169759597996,"546":8.71132667833365,"547":7.323695419452756,"548":14.236038130392437,"549":-3.2531817884919794,"550":0.7095114970790168,"551":-0.17105260263453803,"552":1.8946585360986237,"553":1.8715409817392799,"554":3.04921186657354,"555":1.65018649076089,"556":0.3870336610561542,"557":1.0890271386101633,"558":-0.6946837504134703,"559":2.075971650089324,"560":-3.4800281644864595,"561":-0.5805599799160721,"562":-1.6078245753093066,"563":0.04167700483847354,"564":3.625941447449565,"565":-1.8376786650657602,"566":1.4767218500816714,"567":-2.8521545724505204,"568":2.1455252719487516,"569":-2.471912690878161,"570":2.8638909713796306,"571":-2.8127652137096444,"572":-0.3572956327323118,"573":0.9839953802510464,"574":1.7877763124713553,"575":0.3872523261662762,"576":1.5323524929278138,"577":3.429934027359865,"578":1.0146124603011957,"579":0.8102853114389412,"580":-0.7359531126169668,"581":-0.34362116063451814,"582":0.5126115244375314,"583":0.2772750717211026,"584":-0.00966789316059502,"585":-0.9658871502506536,"586":1.3051352542211105,"587":2.379348481477304,"588":0.03508646432315892,"589":0.12818713775280033,"590":-0.025157437218584874,"591":-0.5881154927936292,"592":-0.6776722510987114,"593":0.14989591288896412,"594":0.20259265499775478,"595":0.8014847757342337,"596":-1.5125366870051729,"597":0.8016600440542381,"598":0.4400654897937053,"599":1.8248321342550475,"600":-1.1513818815434331,"601":0.07536295562286983,"602":0.02949653897612426,"603":1.9007296912161902,"604":0.508937484965996,"605":1.1568757069509195,"606":0.6146395622879096,"607":0.06948519907323332,"608":0.8137581520199689,"609":-0.0984355715032862,"610":-0.7411748745480724,"611":1.2571561115070156,"612":-2.017297899743696,"613":-3.97885060068141,"614":5.161806823977146,"615":1.625198851004944,"616":0.5072519918534544,"617":-0.43962880256064896,"618":5.155289298318146,"619":-0.04495242217292833,"620":-1.3271817319994472,"621":-1.4063622381773648,"622":-4.161018748976559,"623":5.0239379161271716,"624":-1.397107734652658,"625":1.0284260563231,"626":-1.221014627561132,"627":-0.8481365296205996,"628":-0.7455407738390573,"629":3.6988116988411606,"630":-0.12295504834159636,"631":-0.8819299925848312,"632":2.70672188751626,"633":1.890864021332194,"634":-0.892811048109669,"635":0.7634005650375165,"636":-3.054086763571212,"637":2.238854457879545,"638":0.14470231243909668,"639":5.878292079996998,"640":-1.9328850869391168,"641":-1.688364376991471,"642":-0.70293997244277,"643":-0.26764544361829534,"644":-1.8576782036446282,"645":-1.5916556055370974,"646":0.8596461934536305,"647":-3.5365220465076384,"648":0.7456016949158615,"649":-2.315811630978463,"650":1.9483056175519449,"651":1.1539086455345002,"652":-4.684768617779643,"653":-0.5258658066543348,"654":1.3208442545552448,"655":3.4821418449381487,"656":2.4462207213114193,"657":-1.6090578515813008,"658":-2.927008005935896,"659":0.6983796251448553,"660":1.3877999643323076,"661":-1.1687995915762979,"662":-3.951721279186583,"663":-1.531754382958603,"664":-5.420350417938912,"665":2.5023687934348846,"666":4.1203376960261,"667":-9.830410970836063,"668":-4.026814193029819,"669":-0.5666974531013559,"670":-3.8752554715231393,"671":1.586098739565073,"672":-5.212411952654626,"673":4.079125779303038,"674":0.4101844551439126,"675":-0.7320047894074941,"676":3.490565427252805,"677":-4.562844115077696,"678":-2.6215306637666997,"679":-4.138758918551752,"680":-1.8047147660694716,"681":2.737931043593004,"682":7.536354821769338,"683":2.2497886658034307,"684":3.2802884480815613,"685":-6.528844118657641,"686":-5.644741742411689,"687":1.9496508872042169,"688":-7.954545052870052,"689":-3.529420898105277,"690":-5.65137651092454,"691":6.3594227741863385,"692":-2.6522554699043615,"693":1.8022020633162483,"694":-1.3666734316404445,"695":0.7962302640568313,"696":-3.20192246332193,"697":0.7661381276876946,"698":1.2816126421173577,"699":0.03675406167812366,"700":4.895151174385533,"701":-3.8528579413498525,"702":-0.2457138066355786,"703":-0.8659398481179087,"704":0.8255470948878422,"705":-1.124656353633425,"706":-2.0637342744449074,"707":-1.5799707424860683,"708":-2.984464215112781,"709":0.142827953352358,"710":-0.3269215997177923,"711":0.5633314693276781,"712":-1.7317901258947106,"713":7.861742224849013,"714":-1.742828805490042,"715":4.224956242861719,"716":-3.554963323104142,"717":-2.0237911299428704,"718":-3.9104002808164524,"719":4.486083980451702,"720":0.6228336837587285,"721":3.2435615044867316,"722":6.464944595480586,"723":-2.7151048901070127,"724":-1.8029944360712904,"725":-0.7326584633246981,"726":-8.184618606239818,"727":7.49233748663598,"728":0.03052780818244278,"729":-0.11609138373571404,"730":-2.0768291518949074,"731":5.389939529391457,"732":6.8329077002308445,"733":-0.2920516182437889,"734":6.178992811501465,"735":4.006375409256416,"736":-6.911573909372488,"737":-2.944768677667676,"738":-7.363254352291445,"739":10.772572985255135,"740":3.7469183306109297,"741":0.052595948763232106,"742":2.8891326647070716,"743":0.9990120793514555,"744":-0.10397666002852106,"745":-4.051795217566115,"746":1.040038418545788,"747":-0.9287875506613233,"748":-2.7480220167955913,"749":-2.2851223791027784,"750":3.276403370199162,"751":6.49563240589775,"752":-3.0254166773757425,"753":5.199162410093931,"754":6.381995946497619,"755":3.3988503514321886,"756":-5.430867797155385,"757":4.683323306206392,"758":-3.148303371553589,"759":0.6108822664019176,"760":-5.812051574410505,"761":-1.6647815817294938,"762":2.708154113119921,"763":-5.595660249677326,"764":1.1775823211809389,"765":-0.1649929322400814,"766":4.045160436644551,"767":10.28171348038021,"768":-2.3785492265312875,"769":-7.756353508667108,"770":5.7745569611160485,"771":3.9222685461399793,"772":5.3969783598948995,"773":-3.0862428785994522,"774":-1.2279202301385261,"775":6.724133252944275,"776":1.0885769215174417,"777":-2.284066863663317,"778":-6.658582808495792,"779":-0.6584379883265207,"780":-13.711117255099955,"781":4.033937493090551,"782":9.238372446724375,"783":-3.4029307707153347,"784":6.236757154102789,"785":2.342606944331548,"786":-0.786950258101586,"787":-1.918917713967684,"788":-2.071837665072755,"789":2.0391430961176154,"790":-1.553418228352391,"791":-1.7016733093098373,"792":-3.821777429190932,"793":-2.3820197523548776,"794":-1.6919828827035537,"795":-0.025180729370332666,"796":-4.286580694986066,"797":-5.234117153585491,"798":0.8935327109401611,"799":-7.4979383708354,"800":1.27879770706221,"801":1.8476711377062192,"802":11.486097705321205,"803":-8.142023669628971,"804":5.585768587456186,"805":1.9423425422642218,"806":4.2396843238690245,"807":3.261634145104412,"808":4.0205487087842116,"809":5.277991055848159,"810":6.75224068082531,"811":-3.7387151639191454,"812":-1.3557733485771808,"813":0.7926254642549192,"814":-0.1380329823625228,"815":-0.3824903963225072,"816":0.8701048357277928,"817":0.2632155296468415,"818":0.09646717298338665,"819":0.005363474836738816,"820":0.18969029291625453,"821":1.0286644441494797,"822":-0.8386421866063904,"823":0.991412721947106,"824":-0.592714525481164,"825":0.6059749190296833,"826":0.44837261345957424,"827":0.977031150537197,"828":-3.5986491845563573,"829":1.0299646469427897,"830":-0.4955405872285445,"831":2.395065098292993,"832":-0.337194699223899,"833":0.7304276812648742,"834":0.7282014012320663,"835":-0.1469102723632945,"836":1.6210144256236154,"837":1.1769843627979528,"838":0.16652807650374152,"839":1.6554029068332214,"840":-0.22449655244165734,"841":-0.5865820757178795,"842":-2.375805506944094,"843":-2.517727984713102,"844":1.6350991780538953,"845":-0.21716059628553422,"846":0.5655077213719447,"847":-0.09251283716131618,"848":0.41545761435782724,"849":-1.8048412573628954,"850":1.1607192313209962,"851":0.032949134945376414,"852":1.8076895580560537,"853":0.2746615953466038,"854":0.8547065658341312,"855":0.11127588629642284,"856":-0.04129144205824106,"857":0.4758629466659185,"858":0.7777387363481283,"859":0.0073791545306574734,"860":0.06863031518738708,"861":0.6494749126926567,"862":1.6076343351304225,"863":-0.7963286837152873,"864":-0.3263096313399715,"865":0.8086743332574033,"866":-0.6228441587868703,"867":-0.07783659249973479,"868":-0.037427355857709226,"869":-1.1224928674828478}},"hiddenLayers":[{"inputMatrix":{"rows":20,"columns":29,"weights":{"0":-0.1726782945002304,"1":-1.5950184760271486,"2":0.3612483849099978,"3":-0.9448508279149805,"4":-0.18370703181223358,"5":-2.8292612959021324,"6":0.917932623295088,"7":1.8740572198264367,"8":1.2866607645527692,"9":0.68375486788568,"10":0.5971509249790964,"11":-0.8504887550161822,"12":-0.1547265306778595,"13":-0.713446784029184,"14":0.20947355226888034,"15":0.9568151872676636,"16":0.2806653504419166,"17":-0.21885354682642633,"18":1.5211172661428527,"19":0.29322690126864775,"20":-0.21884996872915682,"21":-1.6411102472499655,"22":-2.372566959262058,"23":-1.5589511198678823,"24":0.396474075692525,"25":-0.07076487833052382,"26":0.08637388226454938,"27":-2.7606711454886788,"28":-0.008211170543538131,"29":-0.5157677417542058,"30":0.8642898768471586,"31":-0.16276583624993024,"32":-0.8533699917412437,"33":1.8739598128225758,"34":-1.3235467969154782,"35":0.6895835407463056,"36":0.36122982839358414,"37":1.992198634790609,"38":0.2546436032437762,"39":-1.1945000896598477,"40":0.058197904036770505,"41":-1.2487577094665065,"42":1.5651366040199266,"43":-0.15696010436734648,"44":0.7121549150127005,"45":0.6647352468002176,"46":0.9749789775580556,"47":-0.6997320319875803,"48":-1.1542228126105802,"49":-0.8885711088112327,"50":-1.0546353579166419,"51":-1.9087315391007669,"52":-0.832858143944575,"53":-0.5838143502324721,"54":-1.6594367715012437,"55":-0.5858705609157746,"56":-0.13004680563107054,"57":0.810409354044214,"58":0.6882319345559886,"59":-0.9435789895355248,"60":-0.6907408511593914,"61":-0.7776308382063474,"62":-0.030754844468657748,"63":1.5945842634851644,"64":-1.7222831472688989,"65":-0.8540667152542579,"66":-0.6575605962447659,"67":0.5989235410024584,"68":0.4199153491338771,"69":0.7325171383911547,"70":1.423823441879939,"71":1.7130889863378265,"72":-0.15300312441425573,"73":-0.5862337468356564,"74":1.2360983812974724,"75":-0.01052363442130613,"76":0.5291456974146658,"77":-1.842435342084784,"78":2.6726581903613633,"79":-0.3161031296656695,"80":-1.135232647660832,"81":1.1735649820137055,"82":-0.9967747309500429,"83":-0.8042543306667007,"84":-0.1440275792288612,"85":-1.7783855152884023,"86":-0.8860869837413119,"87":-0.4109950681220025,"88":-1.3656766112057246,"89":-0.4132008992123202,"90":1.2965703107891775,"91":0.027888986633563748,"92":-0.6888257598732727,"93":2.2130108330032705,"94":1.4805369018587815,"95":-0.661006752142832,"96":0.9610509186893224,"97":0.6123985200720258,"98":-0.5467104424533821,"99":-1.0536363391991352,"100":-0.5311504824826081,"101":1.255718159799786,"102":-0.4756295510138213,"103":-0.20301201098707913,"104":0.17356883990398136,"105":-1.0560776092173858,"106":1.303782967780755,"107":-1.157271323145514,"108":-1.8494219457437184,"109":-0.30526785407017437,"110":0.782197525801828,"111":1.5776036132018552,"112":-0.02557939545498914,"113":2.5843308945418553,"114":-1.0695933430115496,"115":0.11557580020420298,"116":0.31461365387588547,"117":-0.3064793484348433,"118":1.5023191837924956,"119":-2.889683930098954,"120":1.2641912553320378,"121":-2.5003325697611665,"122":-0.5267359872709785,"123":-0.043874619592745835,"124":1.6530690289749648,"125":0.2763478118758536,"126":0.7831146241490246,"127":-1.0742057472370565,"128":0.9700323087636882,"129":-0.37187045157309445,"130":-0.06534517904696115,"131":0.9611153409406409,"132":-2.7170245623089198,"133":-0.10526073786257267,"134":0.4458647847658908,"135":1.6000537982628993,"136":-0.8083362713981802,"137":-0.6851416156728564,"138":-0.32566048958987287,"139":-0.5803251471962656,"140":0.46755892741435207,"141":1.7118516305023455,"142":0.17132546864031342,"143":-1.2046306219387009,"144":0.048752239756595005,"145":-0.64697923841555,"146":-0.19342261244392725,"147":-0.05868557702681989,"148":1.284879262051946,"149":0.8731910248148828,"150":-1.035458570744126,"151":2.541650727520691,"152":2.5129633551025243,"153":1.2207659760919054,"154":-0.5053238931534835,"155":0.05550715465436905,"156":-1.5037341190560822,"157":-0.8481502871964882,"158":-0.8613188046653363,"159":1.1344469144878588,"160":0.7511958539348386,"161":-1.8562107451218761,"162":0.052377316415638135,"163":-1.4189538170769906,"164":1.572896414390102,"165":-1.8637769965155604,"166":-1.9132123741439562,"167":2.2892396953198264,"168":-2.1491560275518093,"169":0.810255689900226,"170":0.9401544451613688,"171":1.0441979489980302,"172":-0.17128939683085598,"173":1.1518069707786982,"174":-0.4562663652954499,"175":0.5264346954365153,"176":0.21924456924048258,"177":-2.568041538698012,"178":2.170148278549196,"179":-2.2124254106140264,"180":-0.9423768919037088,"181":1.0672086691016247,"182":2.198052513836988,"183":-0.7036547304301105,"184":0.49979180591930655,"185":0.11290378915338764,"186":2.289694384965818,"187":0.8224100220361081,"188":-1.6533462893680162,"189":0.6524664822260188,"190":-1.3604014181949629,"191":0.8260979999297843,"192":2.2551875265811487,"193":1.5753375459514196,"194":0.15853274257203914,"195":-0.45416271708972833,"196":-0.19901908784812408,"197":-2.114874516518679,"198":0.32693980518085997,"199":0.12562846216142343,"200":-0.4360356294988245,"201":-0.6993619192434709,"202":-0.9636335090144009,"203":-1.2026746968024022,"204":-2.2388928630922647,"205":-0.1565825471006419,"206":0.06493161035738455,"207":0.97718416208408,"208":1.2639881206239105,"209":1.669978622138458,"210":1.2200893996223432,"211":-1.044192123034368,"212":2.7261623342794588,"213":-1.2559340147857552,"214":0.09892051773344233,"215":-0.8203633981128745,"216":-1.6751818048285168,"217":2.601842646413653,"218":0.4249159115600778,"219":-0.6187450649082921,"220":1.5006796226411976,"221":-1.5363939034644565,"222":1.7108975429574522,"223":0.8045697355304315,"224":-0.9977000099239567,"225":0.494623467373022,"226":-0.7247287280267971,"227":1.1279270773164063,"228":0.6270203695728729,"229":2.0107571579438703,"230":-2.2265467560795704,"231":-0.7986862256995864,"232":-0.9329205304577814,"233":-1.2065760540677999,"234":0.08289415715401541,"235":1.4006919524866728,"236":0.044217110915073576,"237":0.75653845299034,"238":3.500886045050367,"239":1.286833852769797,"240":-0.8297645831238584,"241":1.4382503544770164,"242":-0.20116476834208236,"243":-0.08221938366131462,"244":-3.1215519383676664,"245":-1.709643604901844,"246":2.2733188335621675,"247":0.4948562376269313,"248":-0.35537264724744366,"249":0.20083635180930506,"250":-0.5576567708503638,"251":-0.345572082247209,"252":-2.2792318416876527,"253":1.9279965140476458,"254":1.5379946875410437,"255":-0.8205351952564773,"256":0.8473054768921557,"257":-0.4150366599484556,"258":-1.7239185491200302,"259":1.543930071840536,"260":-0.3715743214337885,"261":0.4187193671788497,"262":0.25896437827745633,"263":-0.10028497518667238,"264":-0.46844086824396114,"265":-0.7833118629741243,"266":-0.1886036280205256,"267":0.09794482534491084,"268":-0.26885230161833595,"269":-1.9084221367621264,"270":-0.13921034127284587,"271":-0.3171707474779118,"272":-0.20144015725834877,"273":-1.171172136387492,"274":-1.144631192656466,"275":0.8153291035106974,"276":-0.20862899525664144,"277":-2.9743953770747797,"278":-0.904489492888378,"279":-0.5468675504040234,"280":1.081701470463043,"281":-1.8509457556336164,"282":-0.2266379431213199,"283":1.5866384382754808,"284":-1.8651401882163186,"285":0.6292043884969408,"286":0.5478568391076724,"287":-0.7510387371585789,"288":0.9251158620447519,"289":0.6835454970556364,"290":-0.16931903016293323,"291":-0.7665514450199534,"292":-0.7966668339033541,"293":1.2615325774091966,"294":0.8068320928684026,"295":0.8244939323718841,"296":1.5565743300042847,"297":0.2136731778526654,"298":-0.39602028878270207,"299":2.99391475753006,"300":0.43807004500374047,"301":0.5806458940577695,"302":-1.1332486349242548,"303":-0.3523391030096744,"304":1.4842561767547895,"305":0.2504968896244741,"306":-0.18627290401813654,"307":-0.16303726625500065,"308":-1.273106553090855,"309":-0.05193464932775808,"310":-0.7917284015031434,"311":0.4221707897082544,"312":1.9788398976411259,"313":0.021636640082305356,"314":0.7435446987060854,"315":-0.7612574323807623,"316":-0.48741603856894306,"317":0.3218440004209225,"318":-0.5887283295422565,"319":-1.3777889019568117,"320":0.43981438840266046,"321":1.5639987958816752,"322":-2.112425215569076,"323":1.4911757160984893,"324":-1.7469230306899999,"325":0.3607331192586219,"326":1.2060802007349136,"327":3.359948234939876,"328":-1.3418458670021494,"329":-0.2830668972205515,"330":-2.172311038830528,"331":0.22623498098403894,"332":0.819569534595748,"333":-0.5592759270963884,"334":2.515749718726068,"335":1.260500690467184,"336":1.5107756501407124,"337":0.12603789108743102,"338":-1.6442037560560323,"339":0.6358094661086169,"340":-1.7430740101273199,"341":-0.05425076546068219,"342":-1.7217763977626013,"343":0.2175646383546312,"344":-2.3553575909030506,"345":1.1652285430915204,"346":-0.47223906889838063,"347":2.1628733213882447,"348":1.364875167621335,"349":0.7279359202812643,"350":1.4355040170129936,"351":0.7030746456795719,"352":-0.35581082888895943,"353":0.1636480021356189,"354":2.0708411108547122,"355":1.0925100773077503,"356":-0.33853353076095366,"357":2.338333599779504,"358":1.2864062181658964,"359":-0.46801212826471106,"360":-1.4667215927361432,"361":-1.4198294053452212,"362":0.39378884141682,"363":-0.3212119258962256,"364":-3.338982422727728,"365":-1.0702925652924873,"366":0.10744043550968768,"367":2.337696097712512,"368":-1.4366054887808977,"369":-0.6590792817231347,"370":1.8649268726249382,"371":1.0418631289066194,"372":2.0984253501762304,"373":2.2903833274442826,"374":1.0203858330904678,"375":0.3787721527410852,"376":-1.0645703860538689,"377":0.35663715784608696,"378":0.9654464271546698,"379":1.0334891507246353,"380":1.3611889831870434,"381":-1.2343238789577824,"382":1.071372805151404,"383":0.18139944047522769,"384":-0.7944265302526793,"385":-0.05228309000782661,"386":0.23469312582866234,"387":0.47019971061261023,"388":-1.475937256418966,"389":0.3251041416321537,"390":-0.31363013767479625,"391":0.5181396938242401,"392":0.19954504322882846,"393":-1.8737328505844242,"394":-0.7785575064033102,"395":-0.15951152690401174,"396":1.7092542165791822,"397":-1.5146245598778056,"398":0.007175438593513355,"399":1.4396247299932612,"400":0.9915889532944717,"401":-0.15751653407301633,"402":1.343300586313984,"403":0.060891726850957804,"404":0.46267113710137925,"405":0.6112566254628317,"406":0.3849094033973964,"407":0.842919722117546,"408":-0.14974470442265558,"409":-0.7394059332096007,"410":0.39701855929441165,"411":-0.08782810612102915,"412":-1.242063804798948,"413":0.37177478780647405,"414":0.25926360835637335,"415":-2.5689069286540605,"416":0.6609974377787533,"417":-0.21433934980180766,"418":2.740481345269415,"419":1.4739739976606812,"420":-1.4358751562694956,"421":-0.7048663457728679,"422":1.7676754302174906,"423":0.7075907436062799,"424":1.3058921138259436,"425":-0.6796645582894084,"426":2.0620732074052475,"427":-0.6846585658000643,"428":-1.237985655540718,"429":-0.09890908990934982,"430":-2.760416089312137,"431":-0.7983558140901392,"432":-0.6576771699202935,"433":-0.653620033868042,"434":0.7872094417033733,"435":0.5002116235283915,"436":0.5648523668782307,"437":-0.3119151267123446,"438":-0.9183875278792475,"439":-0.12616260975056243,"440":-1.2612697579176821,"441":0.7041870144787592,"442":0.5416305785963587,"443":-0.680449488230802,"444":1.986422269642398,"445":0.3222309080767528,"446":-0.1276838508037206,"447":0.12149752742810171,"448":-0.15678967939338226,"449":1.3269742492652117,"450":-0.6305877357396854,"451":-0.9745239100615527,"452":0.03094805636849003,"453":0.44046994605230017,"454":0.971192733530746,"455":0.3799302715674769,"456":-0.8363993657405184,"457":-2.7543465089511825,"458":-0.253816681574629,"459":-0.18730928984614054,"460":1.1910957632990726,"461":-0.25526693497738684,"462":-1.010369160981649,"463":0.23494756843578915,"464":0.22573180921796895,"465":-0.8882032879497096,"466":-1.151855945940723,"467":0.7410121259652706,"468":-0.8102873932576666,"469":1.3765945547619127,"470":0.011258821487268393,"471":-1.0910668174902514,"472":-1.7513804059352998,"473":0.6391976736896379,"474":-0.5968678037503808,"475":2.3003504693047883,"476":-2.5569134639646545,"477":0.22235072095314273,"478":1.3085451787460318,"479":-1.0741627720062727,"480":1.6076837190208837,"481":-0.6706320858184639,"482":-1.043425682563543,"483":-2.7188928821776086,"484":0.9398991688734438,"485":-0.3388982921337529,"486":0.03210098765071497,"487":2.472840413167663,"488":-0.32751765526457055,"489":-2.083439029961755,"490":0.23795664432845837,"491":0.688076963063413,"492":-0.9499579110320415,"493":1.4520530207201428,"494":0.8367683054123435,"495":1.5368457076011341,"496":-0.389764502926931,"497":-2.5474105211124,"498":2.600165746893382,"499":2.1045286773365492,"500":0.028171635274144423,"501":0.1607246926635403,"502":0.7180164126624944,"503":0.26374663582624963,"504":-0.531197017742876,"505":-1.5281142710037097,"506":-2.6887646978959303,"507":2.058029814567362,"508":-1.1427562069447572,"509":-2.247490937733739,"510":-1.5692848397409227,"511":0.41413150518827396,"512":0.7415241247149086,"513":-2.7714350072182308,"514":0.5556582443772422,"515":1.9419960194521055,"516":0.7858413089047426,"517":-1.5704998981668294,"518":2.6542108283947616,"519":0.4297597026457858,"520":1.6296811342229351,"521":0.9433156114080671,"522":-1.4276045145341303,"523":1.1822184407298846,"524":-0.12190572854426965,"525":-2.9518708143907806,"526":5.4160607886296965,"527":-4.929323216553755,"528":0.33438086532375727,"529":1.560309892963884,"530":2.3056743963862742,"531":-1.5861571746084728,"532":-2.0862575653199618,"533":0.641308739446117,"534":0.5521179899956344,"535":0.8640858327132943,"536":-0.9444227937724679,"537":1.8429509113171567,"538":-1.0226472853243753,"539":1.5483734388915102,"540":0.8980013490739975,"541":0.376190053588097,"542":0.25290472205126197,"543":-2.6142208491943744,"544":1.0801644879333,"545":-2.221878616553058,"546":-0.7204460003427661,"547":-0.8340311953780961,"548":0.2048361457949184,"549":-0.9517487521933681,"550":-0.14454071219277137,"551":-0.4301441572078595,"552":0.8252451450311895,"553":-0.12969354768675478,"554":-1.2104084304505778,"555":0.4453071286295831,"556":0.7548222516649425,"557":0.7942927153748746,"558":0.5031637808534175,"559":0.1756027218214512,"560":0.3186064795212086,"561":-0.7417717194142784,"562":-1.2036327387377097,"563":-1.7756621824073133,"564":-1.277810221569939,"565":-0.09520695556249693,"566":-1.2311197773169718,"567":-1.4942955262025677,"568":-0.16106599386111126,"569":-1.2715361683300817,"570":1.1905382015301178,"571":-1.4766988393798068,"572":-0.22452234228623272,"573":0.4212556363870841,"574":-0.2627721529280059,"575":0.5563184399307578,"576":0.5861315254023308,"577":0.25477276405091354,"578":-0.1112176889255707,"579":1.1843322782938763}},"inputHidden":{"rows":20,"columns":20,"weights":{"0":0.2415918315504688,"1":2.3687115308563222,"2":-0.822753900882063,"3":0.9110375387869041,"4":-0.6501359021269509,"5":-2.0905878699008635,"6":-0.8673634055463835,"7":0.13605225911545307,"8":2.1183108128080894,"9":0.25861223952842105,"10":-4.136921453278957,"11":-1.1536039241119516,"12":-0.6663294823169329,"13":1.9891393783947084,"14":0.6556875738822323,"15":2.0855264949006957,"16":1.6187772657260808,"17":-3.506950124842392,"18":-0.793383354667215,"19":-1.022566507932428,"20":-2.3088764628198875,"21":1.9718999335969065,"22":2.2707859282057794,"23":-1.9976262131906006,"24":0.37608275192350255,"25":-0.6303634024562993,"26":-1.1297873181513118,"27":-1.6602580961104645,"28":-2.831563266510277,"29":5.853265844671663,"30":3.297854352257893,"31":-0.79200420541354,"32":1.0373144735005202,"33":-1.4960701106429957,"34":-0.7304273435417392,"35":0.7339565965811,"36":-2.931309587807259,"37":1.8763493108714222,"38":-1.0914903565430871,"39":4.36617129039321,"40":0.11612232120566468,"41":0.7933278322132599,"42":5.5680041294626985,"43":-1.7323548976262477,"44":0.11768785193873592,"45":0.15058108115233837,"46":-0.8755628749514474,"47":0.2531647511538131,"48":2.8494619814066384,"49":-0.47189454031309475,"50":1.2919104648900375,"51":-2.4575671097518055,"52":-4.025301839888453,"53":3.094490402798208,"54":-4.859231147182673,"55":0.46787607366811523,"56":0.8029709624361777,"57":-0.3693648512634656,"58":-0.6597657480065879,"59":-0.4179645227705121,"60":0.7946412000484896,"61":2.0602241052974892,"62":-0.5634114193705282,"63":0.3522258696042135,"64":0.9748253831478052,"65":2.2555443803904494,"66":0.6459869007386528,"67":2.6948340411698104,"68":3.695375123016579,"69":0.8551572113214152,"70":-1.2297455281137417,"71":0.7491883201144582,"72":-4.62715195122767,"73":5.6537546473141544,"74":-3.693585039788183,"75":-1.0601039067202676,"76":0.8210535679808993,"77":-2.878177441551405,"78":1.0144449276264311,"79":-1.5366701054791676,"80":-0.656976412117998,"81":-4.2148270463371285,"82":-1.6669019401534124,"83":1.5818164505281889,"84":1.170526588556402,"85":-0.10460679508674046,"86":0.5740018292198511,"87":0.11617586941728007,"88":3.9111722098345036,"89":-1.3918839673717296,"90":0.6384759829195354,"91":0.6507549799529189,"92":-1.4868095740533922,"93":1.128532588586976,"94":1.2608845044997619,"95":4.5169335365973735,"96":0.8424381283072202,"97":-1.1448485350225286,"98":1.4336040191475354,"99":-0.12901959827326717,"100":-1.9094827332593176,"101":0.47111724199169486,"102":-1.9176659732604355,"103":-2.9315430590392366,"104":-3.7702585891051053,"105":-1.4482283698738148,"106":0.2681746659792711,"107":-0.9148580989555928,"108":-0.5491718347340091,"109":1.582668865908211,"110":0.03113100076763475,"111":-0.35846381867521093,"112":1.3578488705219884,"113":0.40205684288455007,"114":1.1571590713624902,"115":-3.1076320492577976,"116":0.27737649320922175,"117":-2.719617996581896,"118":-2.2250194618719172,"119":-0.8979456867277594,"120":-0.4976819470767965,"121":2.4890953178745545,"122":-4.468135175003326,"123":-2.146168919707593,"124":-2.619469395175018,"125":-1.5322025574611535,"126":1.234543053708803,"127":2.9188849754685395,"128":4.3178986882175385,"129":0.6395422622911993,"130":-0.009467889947615393,"131":-1.3645494778097278,"132":-0.07650156957083008,"133":-0.28596127398285787,"134":-3.7489813196938186,"135":1.4127961421309005,"136":-2.719756170816151,"137":0.20022369707845197,"138":0.08229873343419541,"139":-0.12440827584647095,"140":1.291145494735205,"141":0.877488676495752,"142":-2.4607498521402373,"143":-0.33138782271988493,"144":-0.5153534614434825,"145":-0.08266161107731845,"146":-0.05465773466437545,"147":1.7930722579013971,"148":0.47759402646010163,"149":0.27357009206487987,"150":-0.431631472391508,"151":1.0122657534293205,"152":0.7768778041290234,"153":0.6801137323560749,"154":1.8136426072397978,"155":0.16764171091917351,"156":-1.621990109792373,"157":-0.10694760441136235,"158":0.33210275237250847,"159":1.471801798781099,"160":1.0198382858099142,"161":2.29637199242266,"162":-4.111666739297711,"163":-0.4569213595651303,"164":0.24764699447543226,"165":-2.0999982445210454,"166":0.6463281973256326,"167":-1.1616043909739857,"168":2.4159524602262055,"169":1.6939448368444852,"170":-0.4873490429356674,"171":0.18824944702934288,"172":0.16667098549247725,"173":-0.42183593694375804,"174":1.0791262338781864,"175":-0.7974480905851921,"176":-0.7885882547600442,"177":0.9064626505616762,"178":1.5890979732379849,"179":-0.661722087015527,"180":-0.1821824901275895,"181":-3.5992848286488917,"182":2.7464638287909775,"183":-2.855389520146465,"184":1.3076335759702598,"185":-0.9420470154785899,"186":0.16172523717871556,"187":-3.579557067903677,"188":1.6830889356534078,"189":1.8435653338039089,"190":-1.8093756121806934,"191":3.159820337985013,"192":-3.091496839882141,"193":2.4846508901937274,"194":0.4617123158949579,"195":2.5657936888237445,"196":2.6531727575874116,"197":-3.4809893562458045,"198":-2.4078493958171863,"199":-0.21341747508624195,"200":1.070136869009936,"201":1.2589063509365757,"202":-1.072014539305083,"203":-2.7570628983905223,"204":1.6220726842279358,"205":2.0377158557216037,"206":-2.122370711621623,"207":-0.6959369386316803,"208":-4.83108833611438,"209":-1.7039297714938086,"210":0.7261457778571895,"211":-0.6451627096349791,"212":-0.7633682532860773,"213":3.1892090922321445,"214":-3.6988249998970355,"215":-1.2443157132834326,"216":-3.597998869955474,"217":-1.312863357872467,"218":0.0802750733942847,"219":-1.2289085494344627,"220":-0.646562095265407,"221":-2.022422451704046,"222":2.9808398882308156,"223":-0.8555261868341134,"224":-1.6079787553088947,"225":-0.8001425968341163,"226":-1.783143503714415,"227":-1.2156459963258344,"228":3.133363598185152,"229":0.33658820588525007,"230":-0.5782698540848673,"231":0.9626966874189968,"232":-1.8389163910904704,"233":1.6087083743823294,"234":-0.9670269526848417,"235":-0.9343112632703198,"236":0.5816624686339849,"237":1.5886196503695336,"238":0.1479484341333756,"239":-0.32278891612953886,"240":-0.08826612087168094,"241":1.7875554912467277,"242":-1.8091927553055926,"243":0.7793152751183693,"244":-0.42968673464312135,"245":-1.9374023048071234,"246":0.9217232712449641,"247":2.9693184568245763,"248":0.8514432086503083,"249":0.5638093011307225,"250":-1.0014925462855997,"251":-0.26500114794296226,"252":1.2105586152400427,"253":-1.9462972067243287,"254":-1.9183709819954426,"255":1.9007402240835072,"256":0.977472689652134,"257":0.38099469329261043,"258":0.9043767358196618,"259":0.09827861521255109,"260":0.8684690730251662,"261":2.495752223178053,"262":-0.9512945114644171,"263":-0.22894534134729766,"264":-1.7420904227928182,"265":1.00062166582831,"266":1.5361601533904974,"267":-5.526728057191148,"268":-0.9468152979550786,"269":-1.111716376328645,"270":2.9611296041516306,"271":0.3493769135817736,"272":-3.666772737186733,"273":3.4806698349299863,"274":-0.23848190622571128,"275":-1.2181270862872287,"276":0.979750898286746,"277":-0.07533123438272736,"278":1.1620906688704586,"279":2.740879597623691,"280":-0.5951014937345734,"281":0.02252764166018243,"282":4.832873925741375,"283":-0.8978333700533433,"284":-0.8200147381763806,"285":0.22505019253548098,"286":0.3681407489827025,"287":1.075385920098489,"288":0.058469496866997026,"289":3.4816870227502843,"290":2.4241100343562043,"291":0.24273017866685087,"292":-1.018048516666288,"293":0.38027058589051477,"294":-2.943286708020578,"295":-0.37453321734133244,"296":-1.8925080008193493,"297":0.6174947455468264,"298":-0.15989942304756713,"299":-0.002127107815556293,"300":0.13344443216764423,"301":-6.030868338183965,"302":-5.3644938105681685,"303":0.08169887908687265,"304":-0.17730229997081912,"305":-1.5314460754810297,"306":0.45401077292849185,"307":-1.9210957879265407,"308":0.8099350195673674,"309":3.143460080522394,"310":0.8218843215080415,"311":2.501276954927337,"312":-0.6892466274048651,"313":-0.05033354227092295,"314":4.183876443267118,"315":1.4427420889720002,"316":1.9492087611059266,"317":0.16322894091217013,"318":-0.26335107580689704,"319":0.7694378595992132,"320":1.1669625073055456,"321":1.8206651121738324,"322":2.0379992750283207,"323":0.43044079213656844,"324":1.5007246699926564,"325":0.3107645223037991,"326":-1.7364915315458407,"327":-3.1556594403339413,"328":0.5271852358798479,"329":-0.04414198425101471,"330":3.452269149595423,"331":-1.9339516719009158,"332":0.6845624078598912,"333":1.3014907330257546,"334":-1.6473141062092576,"335":1.0004682465929584,"336":1.02501553191172,"337":-1.5990384063351526,"338":-1.7113199593669226,"339":-1.651276594891076,"340":-0.6481848502575418,"341":0.9630317149031191,"342":0.673940981629638,"343":0.21966319723152225,"344":1.8155261154238151,"345":0.4441919060978193,"346":-0.09284540367422198,"347":0.10398627111718592,"348":2.072872086257573,"349":2.3181689805211363,"350":1.9194913643392177,"351":-2.0794974294496464,"352":-1.4696532871624532,"353":0.5992964735910186,"354":0.8068127468471008,"355":0.3978425681838063,"356":-4.07078994420244,"357":-0.9751514536570846,"358":0.450906431365727,"359":1.9782445055759366,"360":-0.34660936498017736,"361":-0.5530060870527912,"362":1.5461167767519086,"363":-1.0043209850865875,"364":-0.06786680783821605,"365":-0.05071580078830587,"366":0.31873225802327765,"367":1.3841021834820049,"368":0.4602137713150876,"369":1.965009658927161,"370":0.31118224535621036,"371":-0.6959316552874577,"372":0.20279687330168694,"373":-0.7735159560502552,"374":-0.7241477451261144,"375":0.8856816957545159,"376":0.6391010828800949,"377":0.6418818236247258,"378":-1.8028412418779107,"379":1.6466262672749494,"380":-0.10067353747898392,"381":-0.8906366899757948,"382":-3.060561580203112,"383":-3.9262685757375824,"384":-0.776983158286217,"385":-1.7937786269708798,"386":0.9797007769245,"387":-0.22920213569906933,"388":3.4334396831154788,"389":3.99866696994318,"390":1.2605921620813694,"391":-1.3721005181091102,"392":3.4531442972998314,"393":-0.9676210110020491,"394":3.5527623437194316,"395":2.0924774425489234,"396":5.898062020540951,"397":1.8565926130328756,"398":2.4895303526650188,"399":-0.04272246772938659}},"inputBias":{"rows":20,"columns":1,"weights":{"0":-0.18652579778246675,"1":-2.6055735078082463,"2":0.7312861874296489,"3":-1.6319871368923942,"4":0.39104781240732595,"5":0.07125893611109309,"6":2.6865005546838128,"7":-3.003740203070905,"8":-1.1734519573695454,"9":0.03510926833897873,"10":-2.5200610686585545,"11":0.8483609164686886,"12":1.8654024593729241,"13":1.2980972699490867,"14":0.6102346028534972,"15":2.2450655589583786,"16":0.23109932499409647,"17":0.7724301484826972,"18":1.2119662382615222,"19":0.191217786281371}},"forgetMatrix":{"rows":20,"columns":29,"weights":{"0":0.26769261301704783,"1":-0.4618375766379355,"2":1.5573014522971844,"3":-1.1470622999980142,"4":-0.04426281092343773,"5":-0.42769106282952774,"6":0.928349292491849,"7":2.2181155416313088,"8":-0.8729068173984447,"9":0.9862295132745282,"10":0.07232311208360846,"11":-2.5390728668195943,"12":-0.692104414732352,"13":0.2997200739956647,"14":0.6400921105983233,"15":-0.48104162159091596,"16":-0.850516220931263,"17":-0.2664058381401773,"18":1.2027573840819208,"19":1.0140618533533499,"20":-0.5458156366546195,"21":-1.6055932878448549,"22":-2.6941574942027753,"23":-0.49649997208833924,"24":-0.4839412903945171,"25":1.8116578286935312,"26":1.1126129178380528,"27":-1.2778200745152075,"28":1.0136027621374188,"29":0.8689806445706136,"30":-0.32965135308097965,"31":-1.0242618452687606,"32":-2.735016114208681,"33":0.20137279006745762,"34":-2.0273989605010465,"35":-0.7402249717107944,"36":-0.72838487126893,"37":1.511676264981812,"38":-1.5676941272088492,"39":1.2978579763903069,"40":-1.19816296812907,"41":1.2095493614944344,"42":0.9099309320162139,"43":-0.013226850073508713,"44":0.3269001483652106,"45":1.4526140074650256,"46":-0.3762771657873693,"47":1.9078577392908853,"48":-1.126289307067927,"49":2.390716762775319,"50":0.7123114119920916,"51":-1.8412563172736967,"52":-2.0637821702564834,"53":-0.17252643579200508,"54":-0.7317829326740947,"55":-1.7710552060935199,"56":-0.4037261650314269,"57":2.6686202365291436,"58":-2.0258725116949154,"59":2.2208339114623383,"60":2.2370130650168076,"61":0.050722484677535186,"62":1.5727770125054559,"63":-0.7416653059079753,"64":0.10671853950630099,"65":0.6239469690725767,"66":0.9715759666416327,"67":-1.426555601755287,"68":-1.2276209335414565,"69":-1.6024837763955007,"70":-0.33108417031837956,"71":-1.1188322255274545,"72":-0.30588081438158393,"73":1.6333303670620853,"74":-0.6133375989046106,"75":1.4959198140290402,"76":-1.153730993711057,"77":1.550670648549597,"78":-0.6218653081553487,"79":-0.36473138013560924,"80":0.7998448375197961,"81":0.16694206941000017,"82":-0.0750911769698663,"83":0.2632398396735661,"84":3.1655219886788983,"85":0.5239509470857787,"86":1.6659541808086447,"87":0.9865944956775347,"88":-1.7215518800837635,"89":0.05762075187530014,"90":0.2851220536982569,"91":0.1993840419966294,"92":-0.28747908920121173,"93":-2.5680068914119327,"94":-0.20605312993589817,"95":-0.45619847799952995,"96":-0.5765569689242732,"97":0.49006512471675123,"98":0.7303132342671065,"99":1.0979697029958704,"100":2.640330215270057,"101":0.19490677541457277,"102":-0.4548286463269465,"103":0.8134912986067321,"104":0.25545675377113714,"105":-0.4802212477778805,"106":-1.858792339053726,"107":2.4720187593661365,"108":-1.1480421440819633,"109":0.5078707381836841,"110":0.7186698892607292,"111":-0.7053205381281733,"112":0.5579222147545565,"113":1.1740768323626178,"114":-0.4549881324289752,"115":-0.29488219051705233,"116":-1.3921579612808332,"117":2.366616215327426,"118":0.039677649544957526,"119":-1.1570044438446028,"120":-0.7444391720619906,"121":0.2977483995687624,"122":0.9722034885778595,"123":-0.3403005401597724,"124":-0.50171244313804,"125":-0.059473411040780876,"126":-1.5747112974648765,"127":-0.8928904824424142,"128":0.166305196628438,"129":0.3509723587643273,"130":0.9555679284600355,"131":0.5632347956107336,"132":0.2603906620015435,"133":0.15170729699397517,"134":-0.3443330471191311,"135":-1.2935007381234505,"136":0.5427834921306741,"137":-0.6352200505023665,"138":1.9257124604520064,"139":-2.896820451767837,"140":0.7889233418059405,"141":-1.0805851338450654,"142":-0.4328054117257862,"143":1.2546111312924064,"144":2.067908547893638,"145":0.017005726790713094,"146":-1.1331042386636268,"147":0.06087757317294425,"148":0.40647681337190034,"149":-0.9570623039933246,"150":0.8453658567676997,"151":-2.0673152034665585,"152":-0.4950816921192096,"153":1.118006459111383,"154":-0.02964851471152918,"155":1.6876578328837804,"156":0.209533900436017,"157":0.7548485227137214,"158":0.6970420959718014,"159":-0.14944036021092447,"160":0.2231679408643739,"161":2.8936395475288803,"162":0.6372094207930805,"163":1.9015641645889623,"164":-2.246512155730728,"165":1.4318396924877541,"166":3.7734186994891328,"167":-1.5154284679571455,"168":-0.25290624397717043,"169":-0.7553821205806929,"170":-0.878300460538056,"171":-2.3280821676728904,"172":-0.9826946438322958,"173":-0.7531639016376988,"174":1.253067558427217,"175":-2.526950826601016,"176":0.35999922666412115,"177":-2.85114476049454,"178":2.247079514162651,"179":-1.1386470905241886,"180":-0.5798750675281881,"181":-0.03608208391685177,"182":1.4822367087651578,"183":-0.714487502383981,"184":1.0205775245291555,"185":-0.045977245904766734,"186":1.042751080024087,"187":-1.6134633553011701,"188":1.0500784402458991,"189":0.23361814939785128,"190":-1.1589409534732011,"191":0.0630384741183668,"192":-0.3922294007298175,"193":0.3330251551545627,"194":0.7205321766944539,"195":-2.562563575509823,"196":-0.33984710054920947,"197":0.20280594222816473,"198":0.047626571841582824,"199":0.46597190412516504,"200":0.6110335074930591,"201":-2.221479874172755,"202":-1.1393302529688876,"203":1.492236500777726,"204":-3.3580146498505363,"205":-2.181455291784154,"206":0.029618762049194763,"207":2.4376001891313743,"208":-1.3087984637445087,"209":-1.6881226731928478,"210":1.003068065002498,"211":1.0680098551599335,"212":-1.0827323050877116,"213":1.6836327205901642,"214":0.46916926245291773,"215":1.3458778739248134,"216":1.9136768825633441,"217":-0.5300981201839633,"218":-0.6675464894449418,"219":1.5451525523210978,"220":0.1626098252163238,"221":0.9729202937106447,"222":-0.4765852648598567,"223":1.2277718929280743,"224":-0.9615545514877115,"225":-0.9621170575164641,"226":0.7427545123486148,"227":-0.7725607986094807,"228":0.18906862015544076,"229":-0.05139740341885945,"230":-2.622277899432949,"231":-2.0152052252559267,"232":-0.028316640178230504,"233":1.4321144399386805,"234":1.5346216265302446,"235":-1.5985054631718836,"236":-0.9336987566999038,"237":0.14633272116130003,"238":-0.2282572605631594,"239":0.9232453831029314,"240":0.7512926697222011,"241":0.22474434345390565,"242":-0.9168918902986127,"243":-1.0020708019615527,"244":-0.2571300616621434,"245":-2.0357408773838923,"246":-0.0741192525608674,"247":-1.198172187193368,"248":-2.4537034603276506,"249":-1.2253802790161374,"250":-0.20363628179323406,"251":3.514953211236073,"252":-1.0207400837798508,"253":0.5438053146588809,"254":0.978448588206785,"255":-0.5380100392732565,"256":1.1803089086495873,"257":1.458643310369928,"258":0.16914394136735109,"259":-0.38873736594047104,"260":0.7679527843676829,"261":-0.41136403908189173,"262":0.9869258951161285,"263":0.05742666258417678,"264":-1.405181015035792,"265":-0.44675114172620684,"266":-0.15680392224245004,"267":-1.5733010322735548,"268":-0.9970444021542609,"269":0.3349030554824384,"270":2.165485276517396,"271":-0.6528229840935917,"272":-1.2164991306713695,"273":2.2005019793944154,"274":0.2510826301841351,"275":0.22671034602536166,"276":0.26324558230236045,"277":1.5359014207748596,"278":0.5309721873251707,"279":1.0737110235133522,"280":-2.5299276791591754,"281":3.125135898271999,"282":1.1615247328159266,"283":-1.8352777410977887,"284":-2.2814241101025265,"285":-0.44224062415201765,"286":0.4832196232390121,"287":-2.0221352826229753,"288":-0.07224095807627381,"289":1.9313638902824215,"290":-0.18016415763595417,"291":2.950698311341023,"292":-1.3431085851468147,"293":1.9325120170623475,"294":-2.205301545816372,"295":-0.2414358255511877,"296":0.7729405050940794,"297":0.41957709748866573,"298":-3.6787128762650214,"299":1.5920385408120024,"300":-0.2544069837787905,"301":0.9243602455579527,"302":0.2927549652037061,"303":0.16086897279806847,"304":-1.1668357894037875,"305":-0.8023964023081898,"306":1.2512329968390103,"307":-0.12393398793887395,"308":1.0523029597190094,"309":0.48297118778479114,"310":1.320234728645994,"311":1.332210429316226,"312":-0.514258940765789,"313":-0.5689055906129691,"314":0.36075214026513197,"315":-0.940666493268367,"316":-0.9707201054728601,"317":1.1539438027917277,"318":-1.8481736008121323,"319":-0.9728705096978462,"320":-0.7805610621995843,"321":-0.7549283923406771,"322":0.09709839438260287,"323":-0.2795702466306573,"324":0.5897376165030842,"325":-1.2241934842810036,"326":-1.1334788529064808,"327":0.04234904274429913,"328":-1.131915946416541,"329":0.7787346595043739,"330":-0.11699791387821806,"331":0.40582041695897497,"332":0.9081839661662242,"333":0.02980108795689503,"334":0.25955283746220187,"335":2.563649494930959,"336":1.675016680423669,"337":0.9685912851995443,"338":-2.368519771453845,"339":1.6526200324615548,"340":1.1877166208648628,"341":0.14370347339112421,"342":0.012326520816640093,"343":0.3308572717515563,"344":-1.9771747096629553,"345":-1.7976310139447105,"346":-0.268380892649575,"347":-0.37628466667499366,"348":0.5969387476838885,"349":-1.2973452405476922,"350":1.5534264288091442,"351":1.4075995246404223,"352":0.9766813069428655,"353":-1.8301958031995804,"354":2.268086161844594,"355":2.8874175963418263,"356":1.1487425621412364,"357":0.2379999383285639,"358":0.8644572174347982,"359":-3.487781097192762,"360":1.7550420035169587,"361":-0.0843058845897879,"362":-0.3955101637784813,"363":0.029773163604323496,"364":0.3288433405175779,"365":-1.2816402363892794,"366":1.6198982668181912,"367":-1.1882977216804187,"368":-0.6764373927741943,"369":-2.1831315170731016,"370":1.806556636374655,"371":-3.527179233593344,"372":1.321341187654157,"373":-0.26024911966017966,"374":0.40049784639647956,"375":-1.7104295317760194,"376":0.8886997128283167,"377":-0.019661787740131418,"378":-0.18388069384640787,"379":1.3566656819645304,"380":-0.47724359838998814,"381":0.3253204494785816,"382":-2.574985328869686,"383":1.1460851479910446,"384":1.2264658339111911,"385":3.442041758768912,"386":-1.2238574270533926,"387":0.4505950197366514,"388":-1.5273666030764954,"389":0.4457068658393927,"390":0.22570492692652683,"391":-1.1320710760432242,"392":1.5561983248660745,"393":-0.5335740116120695,"394":0.4900687238815054,"395":0.420052988769037,"396":0.764936908639993,"397":-1.0372709723880527,"398":-0.23026622560477442,"399":-1.5689932424031883,"400":-0.3143739668296612,"401":0.05034970951176034,"402":1.4183931919488408,"403":1.057259457562064,"404":-1.6295744403724828,"405":2.4061554510021934,"406":-0.033344293212069345,"407":2.9273386116274756,"408":-0.773594741461974,"409":-1.0152171467956224,"410":-0.8147350090408999,"411":0.24786236702705627,"412":0.7620183844864526,"413":-0.058390545899149694,"414":-1.3579760480170973,"415":1.9580426165760387,"416":-0.929201805110416,"417":0.9119284840014646,"418":-1.3202782233413235,"419":0.2793857658832837,"420":0.15116584208687153,"421":-1.55062130813073,"422":1.3062987854695292,"423":-0.22758294593976022,"424":0.8907318995070843,"425":-0.6815539994674007,"426":0.7090831285054167,"427":0.37584297477382145,"428":-2.0037773189574226,"429":0.2163260797905689,"430":-1.1387475691511326,"431":0.2835059414028891,"432":-0.9996815157087625,"433":0.7709760777200693,"434":1.0355298502180188,"435":-0.03820550260317123,"436":0.2548168098975906,"437":1.2501337503758987,"438":-0.5674765240375617,"439":-0.6599543227778043,"440":0.3436934967494299,"441":0.48661501163386367,"442":-0.05905374227826232,"443":0.45442144549999264,"444":3.0548010574961757,"445":-0.07551765962862717,"446":-1.1932394113038403,"447":-2.003584504564812,"448":-0.2832419380621624,"449":1.7122354923968912,"450":0.35314053379899185,"451":-0.7761148904806017,"452":0.21797573165872622,"453":0.20931799418154423,"454":0.6414446357970333,"455":-0.36658089226819895,"456":0.8057613771124371,"457":-1.1271489466208555,"458":0.21364515704949066,"459":1.3600582994332433,"460":3.6593570860032374,"461":0.23991748340832686,"462":-0.023818460463109415,"463":0.4081725287218073,"464":0.4180434454842024,"465":-0.6918048161771153,"466":0.1939890494681125,"467":0.33317425329056377,"468":0.35029602776571717,"469":-0.8924521343360883,"470":-1.040688532883617,"471":-1.7440336706565394,"472":1.8094940330374862,"473":-1.4602898560247903,"474":0.7687797874750192,"475":0.5614224943404192,"476":1.9280173356201746,"477":-0.7309252217169654,"478":-1.8505716762593816,"479":1.1626433635822433,"480":1.2338590319562928,"481":0.04722946363798013,"482":1.441322370473495,"483":-1.1561175294714414,"484":0.902207899540046,"485":0.5196253616926806,"486":1.3739880044031028,"487":-0.2686990642234472,"488":-0.013114004746832325,"489":-1.2683255642336866,"490":-0.6963629157554416,"491":-0.9001151145217596,"492":0.048134478319199606,"493":-0.7066099659072633,"494":-2.4523370612169484,"495":0.7649995845135701,"496":-1.0672847163180044,"497":-0.17090647248672283,"498":-1.0379548272682808,"499":1.865038882992165,"500":1.7422745493840146,"501":2.0440882193998093,"502":-0.5680370728782794,"503":1.460747739647445,"504":-1.2571483030975255,"505":-0.4004027629261197,"506":-1.3246128120496883,"507":-0.24034989236662194,"508":1.1337624690184867,"509":0.45336184684520886,"510":0.23362601043356446,"511":0.5830099377591432,"512":-0.08531578103985633,"513":0.6294431695997504,"514":-1.5382861472249065,"515":0.1953450432249262,"516":-0.7506544321800874,"517":0.6671547823078066,"518":-0.16084139744022796,"519":0.41338483294075024,"520":-2.585132816525272,"521":0.6222013428605805,"522":0.672042525003013,"523":-1.5648127583654525,"524":0.8311594197554393,"525":-0.6668804338288123,"526":-1.4851841936667214,"527":0.10217720170215576,"528":-0.5783208698692894,"529":-0.2906787332855162,"530":1.3936261746042253,"531":1.3814861942439212,"532":1.4043836015451006,"533":-2.04400122335837,"534":1.3873880256784714,"535":-0.9960093376064916,"536":-1.0779916669790364,"537":0.638600392472808,"538":2.552419649871431,"539":-0.4848966413939169,"540":1.2529419193902924,"541":-2.894714882567351,"542":0.5381028837131164,"543":0.941858327837572,"544":-1.5347376995631807,"545":-2.6557855753167594,"546":-0.5619928516139959,"547":-1.346108247800223,"548":-0.6754903984593745,"549":-1.4903642875418521,"550":1.662398310826019,"551":0.5476017957576286,"552":2.268980555073608,"553":2.0730520008858244,"554":-2.787121219398865,"555":-0.7500653029699399,"556":1.653154048396145,"557":-0.4159466208482016,"558":1.0607006721782528,"559":1.720971944963738,"560":0.8733459292024768,"561":-1.2487002720835136,"562":-1.197293101329765,"563":0.45161895742047375,"564":-2.3005552799679796,"565":0.23735007875230332,"566":-0.6691099146954459,"567":0.19102512136139005,"568":-1.327205367835378,"569":1.2064409532455962,"570":0.9592291212153122,"571":0.31049231741668853,"572":1.1696699262831527,"573":-1.8244115288437266,"574":-1.442525446535695,"575":0.21244185165173504,"576":0.5558488451414804,"577":-0.9024925791253805,"578":-0.22039752371505647,"579":0.9247510307388341}},"forgetHidden":{"rows":20,"columns":20,"weights":{"0":-0.49087097826735865,"1":0.9724487178714798,"2":-1.2626942783432453,"3":1.9783684954344796,"4":2.8252200436779162,"5":-0.35136839025819777,"6":1.4459467481394426,"7":-0.32477982019696505,"8":0.7108481114095834,"9":-1.3625363454103838,"10":-6.379151987919452,"11":1.6217275808705123,"12":-2.5415761926913243,"13":2.872931795010501,"14":2.1904580845127106,"15":1.3672785537864554,"16":3.4671484405461537,"17":-4.583220921440051,"18":0.1858470601852656,"19":0.0029911595554046274,"20":-0.38126744491223963,"21":0.5273604169971136,"22":0.9560030808492693,"23":-4.150300775780943,"24":-0.4988836577131907,"25":-0.5180945154828924,"26":-0.2898834817243161,"27":1.9558083000065298,"28":-2.441726218626649,"29":0.2298956583265031,"30":1.941410204694078,"31":0.7391292483495205,"32":2.389232478347145,"33":-3.3084323521298753,"34":0.3838136189256493,"35":3.526851121822197,"36":-0.737678633289848,"37":2.182946805011096,"38":-1.1858401330213262,"39":1.6469655746487253,"40":-2.7576470835269675,"41":-3.6217674265798143,"42":1.1440504036879815,"43":0.2259846071806096,"44":3.421063989928028,"45":-1.0733881728317693,"46":-2.6563554621709096,"47":0.791884083885036,"48":0.6046792504597606,"49":-1.1910832302626275,"50":1.0197392939187397,"51":-2.006358252884165,"52":-2.8611388121673555,"53":-2.244631983194262,"54":-1.3606982641863492,"55":1.2524254002660853,"56":-1.5372918306530463,"57":-0.6329685178565748,"58":-2.6967203586444897,"59":0.038227779620603836,"60":1.5595510526361651,"61":-0.5002158655631854,"62":-0.8931560274178866,"63":-2.0097166250478953,"64":0.004417479363979957,"65":-0.8814284991718435,"66":0.277247249826655,"67":1.532113277421499,"68":5.12730118320135,"69":1.2755092923103362,"70":1.01720935591587,"71":2.6391136243810713,"72":-0.18433766282638728,"73":1.6288149643752619,"74":-3.9099961170971325,"75":0.06264082723954359,"76":-0.028052458355796065,"77":-2.0571056824664278,"78":0.742152617479386,"79":-0.15506094983633503,"80":3.512790173785942,"81":-2.2661780172320696,"82":-1.1554948891606434,"83":-2.4894606092728853,"84":1.5081683665796202,"85":-0.7198445882686723,"86":1.0128517660561092,"87":0.09475520390632472,"88":0.8750797207475262,"89":2.845218100789934,"90":2.31655577674596,"91":3.4338573124856264,"92":-3.4141141034463334,"93":-0.20393382631465495,"94":0.8606469831891927,"95":4.4170700290864815,"96":0.8869006859224887,"97":-0.7217631987745239,"98":0.5647298901044849,"99":-3.5281136404772715,"100":0.07258798234144961,"101":-0.6486768245349361,"102":-3.2213847444402934,"103":-2.53846707106865,"104":0.3777271843422187,"105":-3.3525381386340434,"106":0.04216019699978613,"107":-1.1933134314464555,"108":-3.17270239953842,"109":3.984363775415525,"110":5.68845683476423,"111":2.2234584972983042,"112":1.7668909290829475,"113":0.46129589968626433,"114":1.3269838197191308,"115":0.5700219023432743,"116":-1.4102922501974942,"117":1.0414663960320332,"118":2.2706136508058514,"119":-2.511078519605178,"120":-0.43086122431064416,"121":-2.5616107808852058,"122":2.9933325881225565,"123":-0.6038689963080343,"124":1.2852512639916867,"125":-0.5099138533207509,"126":0.42908098763995917,"127":-2.499196873023829,"128":-0.370701103773257,"129":0.1612238455681713,"130":-1.1121788402548742,"131":-1.8832989155136337,"132":-4.82313301081027,"133":4.2610164081199935,"134":4.372172283494406,"135":-0.5943648880852683,"136":0.6098212526315321,"137":-2.5518395112870738,"138":-0.07648489133529789,"139":-1.4014107166165375,"140":-0.2527340642893811,"141":2.471991599043251,"142":2.020968881634744,"143":-0.319588350350296,"144":-0.5724871019618217,"145":-0.8158768509989881,"146":0.05724029045552771,"147":-1.38791863118538,"148":0.8428935055934131,"149":1.4840900158846038,"150":-0.2604336558027319,"151":3.0142495716707156,"152":1.193754652445238,"153":-2.1988030443360733,"154":-3.2676271148763325,"155":0.22984377782783189,"156":0.3097922937094413,"157":1.9809523785897105,"158":-0.6622081858104701,"159":0.06787201712932933,"160":-0.6980090567256828,"161":-0.6760737532362393,"162":0.8540369717564478,"163":2.581206048286348,"164":3.8477479872889906,"165":1.7086880147022139,"166":-0.2707849689313068,"167":-2.34949311917548,"168":-0.8337771778575934,"169":0.31173941718591136,"170":1.2723868414948714,"171":-0.9976224803652561,"172":3.0033105464269654,"173":-2.5545378999868658,"174":1.3405421669068254,"175":-0.8158475840815147,"176":-0.5446741721440134,"177":0.3644444307465682,"178":-1.0083056537634716,"179":3.3226895763799273,"180":-0.2700949082151753,"181":0.9467525774651135,"182":-2.440503901077948,"183":-0.5471650383715683,"184":-0.5163708547014162,"185":-1.8538492657843944,"186":1.7863298262547251,"187":0.1740524382285863,"188":-0.09879821110634684,"189":0.3566900275665671,"190":-0.930919475240342,"191":-0.3459205436004752,"192":0.020492382813617153,"193":0.23236879517647063,"194":1.872387111655014,"195":0.9519337832576887,"196":-0.49264069190645093,"197":-0.48335791584245563,"198":-1.4462925531666417,"199":-0.4958222643837322,"200":-0.2564037154073272,"201":0.8830979950943938,"202":3.9166064953043866,"203":3.5404879166101106,"204":0.6343080488658354,"205":-0.1553484336429929,"206":1.1629478219555396,"207":0.06848860042571017,"208":0.0803774847863671,"209":-1.1683079275686072,"210":-4.234787157188531,"211":-2.802409964532477,"212":0.2484007791162388,"213":0.7721800503984083,"214":1.3460672008692813,"215":-3.3393913866394307,"216":3.572233450463139,"217":-1.3218872544162203,"218":0.5621765057158915,"219":-2.0717591701652176,"220":-1.371301875214513,"221":1.13620788750493,"222":-3.6726064116090464,"223":-1.9662458098159403,"224":-2.603151314886276,"225":0.9475853838197623,"226":0.13276630969520273,"227":-2.5055077318563344,"228":-2.2701071669137156,"229":2.5612977220136206,"230":-0.3653570552466943,"231":2.040160991951799,"232":0.153521479044027,"233":-0.9689355304502495,"234":3.4905802062940934,"235":-3.5942010699720623,"236":0.29786449536362936,"237":-0.16183804199576826,"238":1.299444281845876,"239":0.1585404710114559,"240":2.255837123171111,"241":1.8734020602972192,"242":-0.3729201533419375,"243":2.954984784377636,"244":6.069785042584271,"245":-0.38932126161377323,"246":2.9674435886301813,"247":-0.14171726142984936,"248":3.1974999839945637,"249":0.7160001632570118,"250":-2.2191595692625574,"251":-0.8777786636842324,"252":-3.1072113287919985,"253":2.160275970016022,"254":-0.723534943299731,"255":2.0607440437929796,"256":0.002872470416167422,"257":-1.5318622743378991,"258":3.343817227013864,"259":-0.1294878856443986,"260":-0.2604619574519278,"261":-0.5689605009837644,"262":-5.74519654325739,"263":1.1495993815071102,"264":3.2541567822149737,"265":0.9462704351318716,"266":2.051611276948005,"267":-1.7737480342831276,"268":-1.4620764938561925,"269":-0.011987501219780563,"270":-1.5190504341929851,"271":-0.6077544961370434,"272":-3.4690060145978587,"273":3.383501802006524,"274":3.8727666447120632,"275":3.549753000380429,"276":5.563081964403299,"277":-2.490224666960067,"278":1.0752083490823365,"279":-0.4987956278650522,"280":-4.151794194764877,"281":-0.4835278572106357,"282":0.0033431714592563576,"283":0.39231376837979676,"284":2.4204044634410815,"285":1.9401339125801815,"286":-0.5879777017753707,"287":-1.7988360311593983,"288":-5.220882046882236,"289":3.653451172108507,"290":-1.6214758923698862,"291":-6.360295107195524,"292":1.5098330452543864,"293":1.8750316608303688,"294":4.061115702740601,"295":-1.1455075472486838,"296":2.788468337713495,"297":1.3308653186565307,"298":-0.2975951004366662,"299":0.5785587777026315,"300":0.692759002170065,"301":-1.2173484339974578,"302":-0.6346748077617744,"303":-5.548250528293951,"304":-1.0153429387543076,"305":-0.9622862202473562,"306":0.027796869223100998,"307":2.883565936887272,"308":-3.24704990172217,"309":1.2352314058178717,"310":-1.999402835231191,"311":3.275602339670388,"312":-0.35489397329771283,"313":-0.39197003082800574,"314":0.860080726427427,"315":3.650690134975928,"316":3.705647318695482,"317":-0.7238782774445838,"318":-0.06459163539718692,"319":-1.5735629316675956,"320":-0.38251531624355334,"321":-0.038341621264533284,"322":-1.0395798753142749,"323":4.472641066086967,"324":1.3785221437009625,"325":3.6067951601961417,"326":-0.17917749502234798,"327":-0.4129335104598013,"328":-1.4220402627214759,"329":-1.4716042721741605,"330":1.0880927541100385,"331":0.7677563524941159,"332":1.3934859368451056,"333":-0.8135180745443596,"334":6.633129808120089,"335":2.0868397131177967,"336":-0.03546568284714044,"337":0.11609781577138951,"338":1.3167373584009068,"339":0.6172645278085446,"340":3.6972677861453245,"341":-3.9335640311463496,"342":-3.1265556512676778,"343":-1.4426301661873133,"344":1.9555933789476352,"345":1.0823723143099901,"346":4.128936882155796,"347":-0.8053985352157793,"348":3.104299197740118,"349":-1.8656455623463928,"350":-2.1517419425844917,"351":1.2526360518663915,"352":-3.3208918374402008,"353":0.5314697473462424,"354":0.07047113613790666,"355":3.6581447753918956,"356":4.427616724276621,"357":0.49336235745695234,"358":1.9254326352727285,"359":1.2110397626893288,"360":-1.2765299773399434,"361":-0.8440062251475505,"362":-1.5789064534150294,"363":0.2943247386173581,"364":-0.42714632269686476,"365":1.6147817908713793,"366":-3.237638243696243,"367":-1.8127265769236114,"368":1.5122353739346654,"369":1.352114961088713,"370":-2.1060870213104272,"371":0.24898475201831563,"372":0.6011890980275881,"373":0.3429905608189381,"374":-0.36033415294732757,"375":-1.3396124744482554,"376":-1.3814948650966474,"377":-0.9441053201134981,"378":-2.9868971890332228,"379":0.836298788426123,"380":1.8322331478665888,"381":0.6270043978938565,"382":1.8277483451980647,"383":0.4701250791835519,"384":-1.2383306806408474,"385":0.11763788489056455,"386":0.31169097021615666,"387":0.4925352767475049,"388":1.9960214838460038,"389":1.2936634371115745,"390":0.46026877951962203,"391":1.2753005899022558,"392":-2.9213586491953123,"393":4.726590320236558,"394":-1.1370690691617067,"395":1.7737455075810262,"396":-2.470588604030565,"397":-3.469959764224239,"398":2.064377653990073,"399":-1.0177072497127935}},"forgetBias":{"rows":20,"columns":1,"weights":{"0":0,"1":0,"2":0,"3":0,"4":0,"5":0,"6":0,"7":0,"8":0,"9":0,"10":0,"11":0,"12":0,"13":0,"14":0,"15":0,"16":0,"17":0,"18":0,"19":0}},"outputMatrix":{"rows":20,"columns":29,"weights":{"0":-0.7112429745638703,"1":-0.14798370324260507,"2":0.908154603255554,"3":-0.8652745979457148,"4":2.5007140211137746,"5":-2.0342195039513054,"6":0.5169164896685037,"7":2.236176787899285,"8":1.6692168853130627,"9":-0.6095148734779013,"10":-0.2927124085582552,"11":-1.1639097859803471,"12":1.074056290707385,"13":-0.5526980208656943,"14":-1.0636374199509209,"15":1.47116145240392,"16":-1.3217901659271698,"17":1.0099501091603744,"18":0.04941997874628765,"19":1.6493504965033503,"20":-2.0619079023580458,"21":-1.9593121239860127,"22":1.0990144828758308,"23":-1.983857821100251,"24":-0.6944059953033745,"25":-0.46340050586735376,"26":0.6217759172022761,"27":-0.8804043126899143,"28":0.10472095183305576,"29":-0.25209015585212663,"30":0.376530678842282,"31":-1.520533646811897,"32":-0.47240406274094865,"33":0.8560781894341972,"34":-1.0330664191634626,"35":1.5611661678256588,"36":-0.6738144306521222,"37":1.1917443651941302,"38":-2.309712960128926,"39":0.7641105835639761,"40":0.7800645170240621,"41":2.0656594757634648,"42":1.4161492562952938,"43":-2.348525818228702,"44":0.3618838985963902,"45":0.23940912802416967,"46":0.3226465422161456,"47":0.6167949635287453,"48":0.0035076824013001383,"49":1.2833642906978584,"50":1.1996596558033445,"51":-2.1943478826096663,"52":-0.7153383096196648,"53":-1.0744150481107093,"54":-1.2983282198995458,"55":-0.9742316655767977,"56":-0.04079326385986236,"57":-0.11761253917144954,"58":0.4658983986693414,"59":0.3928409877002787,"60":0.10877847698850458,"61":0.6043898463590769,"62":0.0709005424487843,"63":-2.063235719625295,"64":1.2042984693644343,"65":1.4006942957542383,"66":-0.5833614372438006,"67":0.8873133860904712,"68":-0.19037781727078998,"69":-0.19247900605370807,"70":1.3711373269657319,"71":-0.06538171350016893,"72":-0.28551450786250443,"73":0.5018631743603064,"74":-0.9003411443731528,"75":0.45266178066046214,"76":0.4066868229831867,"77":2.733982436510305,"78":-0.5436242278362603,"79":0.049435570862853044,"80":-0.16713080464863492,"81":-1.4533455093202219,"82":-0.7460217260327404,"83":0.4244611433770169,"84":0.3666894021644897,"85":-1.1041646512546313,"86":-0.33201024165219084,"87":-0.321408373660277,"88":-1.4129192133346853,"89":-1.231549640515687,"90":-0.24043080838198572,"91":0.5047694037136963,"92":1.5923092649047235,"93":1.9217258198271718,"94":0.10839807773676892,"95":-2.2673324132069834,"96":0.9206615848071676,"97":-0.1684227457602535,"98":1.295120711766103,"99":-2.77971156339105,"100":-1.8874957572802262,"101":2.1857013425424685,"102":-0.8183335461080228,"103":-1.286534271730195,"104":0.48209087436874215,"105":-0.4965800604878611,"106":0.6969167864373614,"107":-1.2297046948021848,"108":-0.7884528325456,"109":0.08747416784835839,"110":1.4022931778039531,"111":0.43348988233730495,"112":-0.6301138278585778,"113":0.5338804380936165,"114":-0.6554220130745784,"115":-0.9584859578080677,"116":-0.9708406543167755,"117":0.39482612202213857,"118":0.8746985788196409,"119":0.013124787796059608,"120":0.1790452899302153,"121":-0.7417874327913192,"122":1.847928973161574,"123":1.5769082836029344,"124":-0.5631729790391965,"125":0.7520083021254312,"126":-0.8340682796777398,"127":-1.499198939393431,"128":-1.0183687315856766,"129":-0.9812601724474432,"130":2.5930347602747967,"131":0.4655732011815447,"132":2.166922704941515,"133":0.6504001865514617,"134":-0.15724725058132633,"135":-1.3378380543148343,"136":-0.13381507598786777,"137":-0.4768756957345807,"138":-1.9003272626813583,"139":-0.45678154392337916,"140":-1.307486946208965,"141":-0.4793191217140801,"142":0.4292844603797199,"143":-2.0718500494763297,"144":0.18097884494488573,"145":-0.19193985273756825,"146":0.02472204780762422,"147":0.2453920043933472,"148":0.173082051078894,"149":1.1402780018505732,"150":-0.4242361719930528,"151":1.3461528118330135,"152":0.6466026682074479,"153":1.4749972898575612,"154":-0.21148838618556243,"155":-1.977580908617569,"156":0.4480646618501853,"157":-1.0689064102455104,"158":0.6804875823190324,"159":0.5398113201301162,"160":0.6768753731110793,"161":-1.6018277797387988,"162":-0.5210297970939156,"163":-1.3817278205896524,"164":0.7141427646347464,"165":-1.4681832213335517,"166":-2.280001659094664,"167":2.502077328513037,"168":-1.3292517950260756,"169":1.6004308827897067,"170":0.2703884212128241,"171":1.1485168106975248,"172":0.10268781058367832,"173":0.5074750867848936,"174":-0.977326674294583,"175":0.19926808248840713,"176":2.4127315371802323,"177":-4.708119427791806,"178":1.2738629115060147,"179":-1.0384143614258832,"180":0.3169660816507581,"181":3.0956555236537198,"182":1.7606901428494115,"183":-1.4730181982428934,"184":0.7199733966361485,"185":-0.5897045033277185,"186":0.7512986797092941,"187":-0.8974778725575492,"188":-1.3321837737738609,"189":1.124407653451153,"190":-1.6653278570182322,"191":2.641785424996584,"192":0.9556447604534686,"193":1.822886354998844,"194":0.7077548543174961,"195":-1.3376533367316574,"196":-0.6691219581689187,"197":-0.22450146048703076,"198":0.5477300399261169,"199":-1.4442691461396542,"200":0.9545894241506995,"201":-1.4396642642175352,"202":0.4321308620809976,"203":-0.10214508125371688,"204":-0.5693653322595724,"205":0.4093016151410129,"206":-1.6430684694156874,"207":-0.2935328606886049,"208":-0.3980621577663628,"209":-0.775202959554476,"210":0.06389773438248557,"211":0.198017951765582,"212":0.17269279826081332,"213":0.10249189947761976,"214":-0.29655307757834665,"215":0.7200562243975868,"216":0.06987999255863245,"217":-0.05224468602552128,"218":0.1693129527619454,"219":0.6715292065800433,"220":0.47996746141672314,"221":0.12636474541305995,"222":-0.15707255069270523,"223":1.8869738098707538,"224":-0.47579964547675635,"225":-3.025864858239608,"226":0.2585688647985764,"227":0.29683886732055803,"228":-0.34522460017782675,"229":1.1987361787892385,"230":-2.315731073264409,"231":0.3634635363510725,"232":-0.31591083025480493,"233":0.32336865071897825,"234":-0.9027170240140615,"235":0.06693697925485569,"236":0.2798430545872324,"237":-0.4174590242116093,"238":0.8955850752102954,"239":0.15642654073501439,"240":0.1510321640986642,"241":0.39708330728364166,"242":-0.5286888308630584,"243":0.5089347674695934,"244":-0.5061169613621608,"245":-0.5267546429456877,"246":-0.9048642197554768,"247":0.4077859759815006,"248":-2.0014394271406486,"249":-0.0071218094085268874,"250":-0.07222046596285102,"251":1.2916466022381299,"252":-0.8773147581636876,"253":0.13324770504628516,"254":-1.255345459482652,"255":0.684722927153615,"256":1.481232415979161,"257":0.127836759573053,"258":0.1295811220314162,"259":0.49790044785543003,"260":-0.39812774921206895,"261":0.9310963794369032,"262":-1.792419725009798,"263":0.508417101196052,"264":0.47287945524552616,"265":-0.5670032502948036,"266":-0.11478811758553237,"267":0.5397217448164041,"268":-0.532838575340785,"269":-2.526136157013185,"270":-0.3403441501834387,"271":0.3474026040103885,"272":-0.48999429143446893,"273":-2.3324468582054956,"274":-0.9398879989212776,"275":1.7629795739850906,"276":-0.898585702307552,"277":0.027493244915607295,"278":-0.926134294964804,"279":0.022195612865133198,"280":0.6643376287083022,"281":-0.7651553556559482,"282":0.3091633708468907,"283":0.49219233843639254,"284":1.9240737952911287,"285":-1.4697747585413559,"286":0.6427687620237156,"287":0.2880333389089289,"288":0.29806242891552814,"289":-0.7889539808596213,"290":-0.20298507497705193,"291":-0.012085019721113562,"292":-0.42739337534963584,"293":1.6591214923858004,"294":0.01363870105021933,"295":-0.6244031187937168,"296":0.28251740424828325,"297":-0.39469208292649277,"298":-1.2743495711157167,"299":1.5795265473055038,"300":-0.23443479113976481,"301":0.5712450005176064,"302":-0.9088635424006094,"303":0.055133071002241185,"304":0.39806622173041767,"305":0.494985207770007,"306":-0.8669931157387771,"307":0.8606081620723236,"308":0.6501936378322198,"309":0.7268831579118634,"310":-1.0138951683168975,"311":1.1808560779125374,"312":0.2506900217538924,"313":1.3435855292204846,"314":-0.7293035116437193,"315":1.8312765170729983,"316":0.47244875993416163,"317":0.7904131019255665,"318":-0.35458172411695527,"319":-0.7569572854564833,"320":0.2765961484542757,"321":1.2451768331985882,"322":-1.3497207834572333,"323":1.2636608090098471,"324":-1.0873725512664414,"325":-0.47723643296640605,"326":0.11388360327970608,"327":2.5091249811355345,"328":-0.6871090331695942,"329":1.3154795609771093,"330":-1.312094294767786,"331":0.9292844714121687,"332":0.3275343283781555,"333":-1.6442760522445639,"334":0.751952077967257,"335":-0.04162964227581541,"336":1.3149257448475884,"337":0.24336299921121055,"338":0.08984075208065918,"339":0.4009575905685999,"340":-0.736479658116094,"341":-2.2249976483784066,"342":-1.3208122839340162,"343":0.594314151296507,"344":-0.3844377599322092,"345":0.1533874804278111,"346":-2.1807062940404256,"347":0.978673331983616,"348":-0.20448372385335925,"349":1.067666474775265,"350":0.0922752422405905,"351":0.5734963236981675,"352":0.6037352372658316,"353":-0.30861615432008865,"354":-0.16342787100388875,"355":0.5499725900479215,"356":0.78914201252728,"357":-0.6431642642623121,"358":0.6738161363608957,"359":-0.23361456783481266,"360":1.3409939137269935,"361":-2.073468317746811,"362":-2.3488606381173422,"363":0.26487141509240025,"364":-2.450665887051413,"365":-0.25774059118434633,"366":0.42288390340424137,"367":4.691655006802105,"368":-1.7559867696532507,"369":0.8860541927740391,"370":1.5475814948993023,"371":0.21817905851277627,"372":0.9750547568367903,"373":-0.23385220387494032,"374":-0.6133891387409086,"375":-0.02714289417961895,"376":-1.0525065772700455,"377":0.4889192363990999,"378":-0.2215473981294103,"379":-0.4414207562707123,"380":0.44984961853029715,"381":-0.7517497845187137,"382":0.11967518057442779,"383":1.5345723755513476,"384":0.24666428516970193,"385":-1.178439720489116,"386":1.702112788429155,"387":1.0355728989635302,"388":0.6915789958661142,"389":-0.1747654225686701,"390":-2.1095810338909837,"391":0.5712163063566877,"392":-0.019832960241756816,"393":-2.965067903328036,"394":-1.5327835382772184,"395":0.5247414956467958,"396":0.9510091012709043,"397":-0.28329421958199175,"398":0.3632428531420074,"399":2.386833810426831,"400":-0.4271067966284924,"401":2.1368440781631834,"402":1.3135657852114524,"403":0.26669109221862547,"404":0.4037286280131857,"405":-0.6425122714812095,"406":-0.005564832545511692,"407":-0.04562549437363016,"408":0.12943209256955057,"409":0.23807535703906857,"410":0.39078573506406894,"411":0.022623068919136596,"412":-3.1462306506564612,"413":0.09981278900238394,"414":0.5777503986241248,"415":-2.7083894424164936,"416":-0.5880633548834844,"417":-0.3776545111061844,"418":2.4136656476357157,"419":2.2140094825052494,"420":-0.6256833321338476,"421":0.09795954444105807,"422":2.496195749570909,"423":1.5445400888621037,"424":1.378310511183027,"425":0.5509510608530457,"426":0.7178352944916829,"427":0.35320380868812906,"428":-1.164667570318908,"429":-0.2657284732457589,"430":-2.298041080991978,"431":-0.9785015456132855,"432":0.25252166310468716,"433":-1.0026989232013124,"434":0.006928650300792846,"435":-1.1650358411201178,"436":0.06548704349332303,"437":1.242853065186778,"438":-2.2886097647384864,"439":0.31071414641873674,"440":-0.2910631793818808,"441":-1.1824791947493543,"442":1.2033810854658373,"443":3.248061526748415,"444":1.516881363032281,"445":-0.39515000079941726,"446":-0.5577478320705342,"447":0.41091229208465085,"448":0.6868034399920913,"449":0.006519399546805393,"450":1.457767396920396,"451":0.44851259470272914,"452":0.12890046601921087,"453":0.23698122652119044,"454":-0.22334396317019248,"455":0.7157873998688096,"456":-0.919532642988765,"457":-3.687030974744286,"458":0.06427191549490852,"459":0.7365675972964498,"460":0.7378150368715187,"461":-0.11520581586088358,"462":-0.9049915439287332,"463":0.8077643940099996,"464":-1.8394236105139652,"465":-1.9584958792552059,"466":-1.827925283245468,"467":2.9771811836047077,"468":2.302686037962827,"469":0.06910568447606864,"470":2.892029495715088,"471":-0.25850308149603934,"472":0.6383344113270502,"473":-0.1999375768627044,"474":-0.9125344466227178,"475":2.148952545168285,"476":-3.234458503885035,"477":0.06249165696181033,"478":0.255464179261081,"479":1.6689060652245498,"480":-0.13486946627184565,"481":1.0344726623669356,"482":-2.83029091402321,"483":-1.4454467295001265,"484":-1.5962700909384526,"485":0.7572789687989757,"486":1.0378883685469014,"487":1.7577702260347587,"488":1.7681237580021383,"489":-2.231964631768862,"490":0.13344375224899224,"491":0.5298864212724405,"492":-0.7862441658226582,"493":-0.14010063652449425,"494":-0.216093988509166,"495":1.0291859526260674,"496":-0.19925790085338635,"497":-0.48907721533687126,"498":0.3634496305736954,"499":0.8064841115366416,"500":-0.47498780927320733,"501":-1.015809921446228,"502":0.448709607883108,"503":-0.5526768043216477,"504":-0.7352656945081512,"505":-1.5108647358144145,"506":-1.5833993132875903,"507":0.30653648151067675,"508":0.12358015954927384,"509":-0.19830103959308742,"510":-0.6296393960831119,"511":-0.3649877782325469,"512":-0.7283754239219041,"513":-0.4481365442810948,"514":-0.7402058481243909,"515":2.358268615017215,"516":0.6318430195616251,"517":0.6928287898068594,"518":-0.03432287620402421,"519":0.7679129378850618,"520":1.2994911661551949,"521":-0.0980654359462705,"522":1.1013884856728657,"523":0.08106658976750909,"524":0.6836791630983067,"525":-2.6583022587033325,"526":0.08194694510445258,"527":-2.6211277853761996,"528":1.0661179991802618,"529":2.7975271413048635,"530":0.20043474504555261,"531":1.2476071550714198,"532":0.48074320145947724,"533":-0.04347204098399662,"534":1.0579548466814086,"535":-0.3528919412905462,"536":0.11411085458611732,"537":0.15176141325698095,"538":0.29556775834505844,"539":-0.4764467665265081,"540":2.121974159518079,"541":0.4742843026586881,"542":1.2211931424025741,"543":-0.06597752104693483,"544":-2.842809654640758,"545":-1.4827515958613642,"546":-0.6890502536359624,"547":0.7362612422818158,"548":0.6012860968053564,"549":-2.602723921883698,"550":0.20450816492376517,"551":0.26019673441718444,"552":0.5330768477024391,"553":0.7322740328382562,"554":0.8831623096778879,"555":-0.32885801672814113,"556":1.1896106047016248,"557":1.606442969480752,"558":0.2327416208454473,"559":0.3042060318366661,"560":0.861373128742456,"561":-0.6677101056980026,"562":0.1369143178298499,"563":-0.5677959156854749,"564":-1.2888695538776076,"565":0.8289237935847062,"566":-0.07304939785112473,"567":-3.1752065368161166,"568":-1.3459802046606153,"569":-1.5432452380803514,"570":1.2718321911354964,"571":-1.4305248347074182,"572":-0.143600526253035,"573":0.8681649314335248,"574":0.40113621477491923,"575":-0.029496730348979885,"576":1.7035019779720608,"577":1.2886266234580284,"578":0.4611199905862488,"579":-0.5370973403634471}},"outputHidden":{"rows":20,"columns":20,"weights":{"0":-1.4397560581179698,"1":-3.1481913880518237,"2":-3.147654436443777,"3":-1.253971735425148,"4":-0.7440930675282315,"5":-0.7969886313514846,"6":-1.1025816546295906,"7":0.605418609175665,"8":5.935318350702862,"9":-0.6026299911275097,"10":-2.67601870195036,"11":1.778044255024693,"12":-2.404631131409842,"13":-0.4024669767099814,"14":1.9292552658010138,"15":2.168740574395979,"16":1.6077357388130602,"17":0.13176480689604053,"18":0.3496410579645212,"19":1.578316446631522,"20":1.7872211890762664,"21":0.26562833050116746,"22":5.2234215095932965,"23":1.6175591424815414,"24":2.400132685324119,"25":2.1557610116288,"26":-0.9677088181514986,"27":-0.028366818578641,"28":-0.7692751377414508,"29":1.6001377140977506,"30":-0.0788559092266749,"31":-2.1456314695303864,"32":1.1220735149260033,"33":1.3990673666386266,"34":-3.1485841729841257,"35":2.714674831291961,"36":-0.01327210975529626,"37":0.2783768515495526,"38":-2.4835601971833197,"39":1.6699806857125599,"40":-3.7350783761533077,"41":4.786789950754594,"42":0.4386078858124995,"43":6.358466760414112,"44":2.0843985604295177,"45":2.44419819655851,"46":-4.207546580270835,"47":0.9542118410010334,"48":-0.2514486047952129,"49":-1.580634647496814,"50":0.8405235477486838,"51":1.1243288386750425,"52":2.1329087396229554,"53":2.4286472572578,"54":-2.736895853408999,"55":2.07291155619316,"56":0.7054920543260025,"57":-1.7857685482756165,"58":-5.560796256983089,"59":-3.00253290805457,"60":2.464080521496199,"61":-0.2774151283573089,"62":-5.264006243342447,"63":1.1755729031421267,"64":-0.9738111316249769,"65":1.17753743341371,"66":-1.634017732569514,"67":-0.39659833329382477,"68":0.726814805230102,"69":2.8719252952819234,"70":-2.057422400369428,"71":-1.373585235578735,"72":-1.3444387292777664,"73":0.6033201661046248,"74":-3.3811501931035055,"75":2.464736243960633,"76":-0.8814107316649545,"77":-0.5904967259422113,"78":-0.89735180046966,"79":-0.21935833497892698,"80":-3.695925049808795,"81":-5.348917294405462,"82":1.2476342038467256,"83":0.05238136209190089,"84":-0.9018187181323405,"85":-0.04409542576928327,"86":-0.278737806308731,"87":-0.9643952288821837,"88":3.7717882012918547,"89":2.5160876535379257,"90":-0.8644409657775807,"91":-0.2729427056445905,"92":-1.7590017542278362,"93":1.752423623143925,"94":3.0459537610254235,"95":0.33959377570258825,"96":1.3271985393279657,"97":-0.13413873429468254,"98":-1.1505211331869416,"99":-0.6206653205768611,"100":0.6275039419805059,"101":0.16921210723313854,"102":-1.3055391616810832,"103":-1.876291336406898,"104":-4.121091828484341,"105":-0.9963763188079181,"106":0.052904924418342575,"107":2.38171424896438,"108":-3.2593267365578247,"109":4.52994590933669,"110":2.137429696767603,"111":0.9142376582757704,"112":1.3675803533195001,"113":0.22866963561355977,"114":-3.2513609314257947,"115":0.335658344098649,"116":0.665542767100589,"117":-0.8715160978098355,"118":0.5234643965365989,"119":-1.948224911065454,"120":-2.1647779106508107,"121":-0.4416231380488832,"122":2.7263668700257377,"123":0.8607237511568799,"124":-0.7853887106310589,"125":1.3469355622286994,"126":-1.5276709235023023,"127":-1.1195543613771817,"128":0.21143871214172155,"129":0.5916210807807305,"130":-0.22294004244777038,"131":-2.0725871477954936,"132":-1.5285016624214756,"133":1.110255952803044,"134":-0.22686654039139972,"135":-0.8058955578616162,"136":-0.3518871654120174,"137":1.1446330329437797,"138":-2.0006558478439675,"139":-0.2120321045205081,"140":-1.9039162387390776,"141":0.6335884727709667,"142":3.266958020104195,"143":5.479107269413814,"144":0.7472343967435805,"145":2.5498059310468,"146":-2.698100228666537,"147":0.024006581365202985,"148":0.8792353624309794,"149":-9.826835910204357,"150":-3.52444605562835,"151":-0.34453399864169815,"152":-0.15972293289477704,"153":2.4149261453817354,"154":-0.3485771755168852,"155":-1.6660078676683943,"156":5.659801623745871,"157":-1.8218804740963748,"158":-1.8688431461151918,"159":0.47927424184129847,"160":-0.7809553355478116,"161":-2.0421229002173895,"162":2.502263129274081,"163":0.7837106192635815,"164":2.122112014006985,"165":0.32275240778795605,"166":0.2218281786306944,"167":-2.428407661884283,"168":-1.4460809742089678,"169":-2.0624539005939817,"170":-3.1257370703162812,"171":0.7171087020519793,"172":-1.162246499935406,"173":-0.8063012763413931,"174":2.1508665120743102,"175":-0.9650009049362627,"176":-0.7414836213788031,"177":-0.11870414694017298,"178":0.9193082697545635,"179":1.3945780332765978,"180":4.67368744643025,"181":-1.047081910797694,"182":-0.685927011319677,"183":-2.941991954505487,"184":-2.2651156509052615,"185":-2.751587475035083,"186":2.655602407994261,"187":-0.03585974341577191,"188":1.6384384850428049,"189":0.7101664267481386,"190":1.189135084649938,"191":3.0844757323511316,"192":-2.1025731543235877,"193":2.564063012847589,"194":-1.866228441907242,"195":1.5045539965424364,"196":-0.33106392286695047,"197":-1.92219116847842,"198":3.649619069806295,"199":-1.9072160456576497,"200":0.33151603927733564,"201":1.2056917753563312,"202":1.5798043807834878,"203":0.7031109822024229,"204":1.8354621906468744,"205":2.0468792227240806,"206":1.3385157510380277,"207":0.05290424760144612,"208":-1.0302999140938611,"209":-0.7652089670676524,"210":2.3432347977675896,"211":0.3896065887769224,"212":0.9085522149960538,"213":1.77109067013607,"214":-4.720533719780521,"215":-2.659743405732641,"216":1.2521937542159993,"217":-3.7172125814095565,"218":-0.8296157966398945,"219":0.8479272228761251,"220":-0.46347730520274455,"221":0.22399104864724725,"222":3.6238032013713597,"223":-0.21990220976989155,"224":-0.7967357922150337,"225":-1.8044486905106065,"226":-0.9549532611168668,"227":-0.4154581526137466,"228":2.7386816960801545,"229":-1.8170636719288222,"230":-3.761232347398928,"231":4.22693010565818,"232":-1.8994401930758047,"233":1.0675580317711217,"234":-1.5591873821767503,"235":1.510119211107645,"236":0.611162617588885,"237":1.721782797306963,"238":-0.17786838731592497,"239":-0.48501905878726886,"240":1.7524199153973596,"241":1.9289428894657579,"242":-1.626130323596905,"243":0.20082815778019217,"244":0.30135630530768703,"245":0.5613682439443219,"246":-0.25614057536671575,"247":-3.9272816613920325,"248":-0.048206101194354034,"249":0.22316999845409502,"250":-0.1339444619959009,"251":-0.6014530264444117,"252":-1.996030796727694,"253":1.9302201055873873,"254":-1.2307300846876283,"255":2.376988393318311,"256":-2.1570614305434286,"257":-0.5479066126890062,"258":2.371248999147317,"259":3.7016468210063485,"260":-0.6951039368177622,"261":-2.202563542892,"262":-2.4726415106943693,"263":-0.15215863206994756,"264":0.19512444155462993,"265":0.5694647296757853,"266":-0.7384062097644007,"267":-0.29117250815949586,"268":-0.935296069724434,"269":-2.9888191767186956,"270":1.5693892339342226,"271":-0.37870295282988387,"272":1.589588342050776,"273":0.22201237113336997,"274":-1.2662656970044484,"275":1.0609368577414338,"276":5.00883413915529,"277":-0.810141792233221,"278":-1.7781548222297558,"279":-2.0055540253339297,"280":-2.8105824230567977,"281":-2.1395444795860388,"282":-1.775778397311186,"283":1.3262970641322265,"284":-0.900890569538368,"285":0.6585707894832563,"286":-2.4422961811478565,"287":-1.5041096209113032,"288":1.4215102349314552,"289":-1.3275934591759415,"290":-1.0154437512719,"291":-2.218674641195718,"292":-0.3021219479858491,"293":-1.579301218768093,"294":-0.18762799955140813,"295":2.378796127706574,"296":1.0922577475475852,"297":-3.877029285747953,"298":-3.0168835649347425,"299":2.0681829390287727,"300":-1.9594707041672406,"301":-0.7384301706429118,"302":1.957941225984877,"303":3.636815417742365,"304":-0.6506219909804528,"305":-1.428360136899338,"306":0.34165215499579366,"307":-0.615090728521523,"308":1.9699313469787973,"309":-1.4808997351894435,"310":1.9204036234747364,"311":-0.40094666339563007,"312":-1.9385547492403368,"313":-0.8025555937961285,"314":2.0375363090198455,"315":-2.681105527853841,"316":1.501233223421773,"317":0.1891199429525582,"318":-0.7708290494183725,"319":-0.03232330205267984,"320":1.4741261969565227,"321":3.1304531420824766,"322":0.6432750722928717,"323":1.0960442294597545,"324":-1.0921118481638443,"325":-1.0438460794736668,"326":-1.4238174736544227,"327":0.600106811622495,"328":-0.043263929821278094,"329":0.47295340467919633,"330":0.3390943972943291,"331":-0.2873765117412348,"332":-0.5885491802280512,"333":-0.41940073635064373,"334":-0.9243171239210008,"335":1.4733171394682305,"336":1.1353052409416988,"337":-1.5510029497713438,"338":0.35542632936395907,"339":-0.36786015545062617,"340":0.9602847731971632,"341":0.8230567972446128,"342":-5.248843627217546,"343":1.8453472865829086,"344":-1.3365136619996096,"345":-0.2904327681867447,"346":-0.7746807678437176,"347":-1.6455970576005476,"348":5.133411532562343,"349":0.3957495648778145,"350":-3.5726872875317888,"351":1.7339833602614945,"352":-1.2823792776262553,"353":1.2959326617100777,"354":-4.8800294429720825,"355":0.9649517664518044,"356":3.5849036394053266,"357":-0.19349655077524966,"358":-1.0614410780910584,"359":-0.5348460293341258,"360":-0.7492628814164652,"361":-2.2335844073123643,"362":-4.024088781215402,"363":-0.49481262138419535,"364":1.5604663494883708,"365":-0.15644483353149502,"366":-1.0718025550064292,"367":-0.48825032768801346,"368":1.1679650169389753,"369":1.986515375911907,"370":-2.359662485246777,"371":0.007034259946435163,"372":-0.8061667515688145,"373":-0.6464514839849971,"374":-3.069859837537692,"375":2.1092819607926683,"376":-1.2982052198201945,"377":0.8024660421518425,"378":-0.8402452489346195,"379":0.5999550961708242,"380":-2.1087749110123553,"381":0.9943243570725018,"382":-7.404556340504787,"383":0.09055000571575965,"384":-0.2843158634212386,"385":0.08763585843387157,"386":-1.1242495181091086,"387":-0.09502271784821137,"388":-1.231718390376189,"389":2.5948782455147206,"390":1.115511688183175,"391":-1.2895774149921648,"392":-0.47405367070360016,"393":0.8910402849987569,"394":0.16703959795032752,"395":1.0443577126638934,"396":-1.8006378921065327,"397":-0.45584617419940837,"398":-1.7510282088909679,"399":4.458782529188518}},"outputBias":{"rows":20,"columns":1,"weights":{"0":-1.9361556082713833,"1":-3.290792213477791,"2":0.14521071252615103,"3":-2.10013642924694,"4":-0.12365739160488329,"5":-0.12001240305744476,"6":0.03789830004551971,"7":-3.9126697300520896,"8":-1.3773359322993295,"9":-0.9591401700491209,"10":-2.4696362059867445,"11":1.3124223065155516,"12":-0.3314882574421145,"13":1.758875459997145,