{"type":"LSTM","options":{"inputSize":29,"inputRange":29,"hiddenSizes":[20,20],"outputSize":29,"learningRate":0.01,"decayRate":0.999,"smoothEps":1e-8,"regc":0.000001,"clipval":5,"json":null,"dataFormatter":{"values":["al diel shala","alar'annalas","ama noral'arkhana","anar'alah","anar'alah belore","anar'endal dracon","anaria shola","and","ann'da","anu belore dela'na","aranal","bal'a dash, malanore","ban'dinoriel","band'or shorel'aran","bash'a no falor talah","belono sil'aru, belore'dorei","belore","by the breath of the dragon","by the light","by the light of the sun","children of noble birth","children of the blood","death to all who oppose the children of the blood","doral ana'diel","elor bindel felallan morin'aminor","elu'meniel mal alann","farewell","father","felo'melorn","flamestrike","gatekeeper","greetings, traveler","he who walks the day","help me forget","high blade","high home","how fare you","justice for our people","keeper of secrets","kim'jael","light of the forest","little rat","may peace calm your heart","medivh","minn'da","mother","prepare to say farewell","quel'dorei","quel'serrar","quel'thalas","ranger lord","rea","rise","safe travels","saved by magic","selama ashal'anore","shindu fallah na","shorel'aran","shoulder your burdens well, child of the sun","sin'dorei","sinu a'manore","sleep forever in quiet serenity","speak your business","sunstrider","tal anu'men no sin'dorei","taste the chill of true death","thas'alah","thas'dorah","the sun","the sun guides us","they're breaking through","valor of the forest","vendel'o eranu","well met"],"indexTable":{"a":0,"l":1," ":2,"d":3,"i":4,"e":5,"s":6,"h":7,"r":8,"'":9,"n":10,"m":11,"o":12,"k":13,"b":14,"c":15,"u":16,",":17,"f":18,"t":19,"y":20,"g":21,"w":22,"p":23,"v":24,"j":25,"q":26,"stop-input":27,"start-output":28},"characterTable":{"0":"a","1":"l","2":" ","3":"d","4":"i","5":"e","6":"s","7":"h","8":"r","9":"'","10":"n","11":"m","12":"o","13":"k","14":"b","15":"c","16":"u","17":",","18":"f","19":"t","20":"y","21":"g","22":"w","23":"p","24":"v","25":"j","26":"q","27":"stop-input","28":"start-output"},"characters":["a","l"," ","d","i","e","s","h","r","'","n","m","o","k","b","c","u",",","f","t","y","g","w","p","v","j","q","stop-input","start-output"]}},"input":{"rows":30,"columns":29,"weights":{"0":-0.9874195931132731,"1":1.0174185236829654,"2":0.8186532971450472,"3":-1.3087639046294797,"4":-0.31114612030633454,"5":-1.6495655369891122,"6":0.21031344497114696,"7":-0.3776973491380019,"8":0.34253020259789807,"9":1.5420764438227568,"10":1.7332970799717655,"11":0.8878385548141577,"12":0.9981073410251629,"13":0.028635317801117124,"14":0.3884472287124845,"15":1.6742945198427877,"16":0.7321339480065279,"17":1.1939621473772197,"18":0.3578526946637159,"19":-0.32913139614788306,"20":-0.29693017641258285,"21":1.0208809405319417,"22":-0.869653594517798,"23":-0.23245197418210778,"24":1.261135531266706,"25":0.864313410355351,"26":0.18181185115017778,"27":0.5139144067546539,"28":0.5581257285211917,"29":2.0697747844450185,"30":0.5731493239549669,"31":-0.0249644914519679,"32":-0.3216818653029309,"33":0.9606662066019971,"34":0.6724832035604198,"35":-0.5265772364399007,"36":0.5694797753601286,"37":0.10445529917921131,"38":-0.8620643120367834,"39":1.1044332072060925,"40":-0.9121581055338857,"41":0.18021035266626997,"42":-0.17998335770709292,"43":0.04930820049398655,"44":-0.7262630537278049,"45":-0.3529265840776732,"46":-0.7283101534001982,"47":0.07848544361745201,"48":-0.7175177873082049,"49":0.24699017073246837,"50":0.24640151609336142,"51":0.6112993927512227,"52":0.4839911795349639,"53":-0.03226271761789999,"54":-0.9275968677460192,"55":-0.7223132266143594,"56":-0.429048526297977,"57":-1.9310324432438895,"58":0.29050375155125413,"59":1.340832766975514,"60":-0.3388189942157025,"61":0.6099830877483454,"62":-0.5301969748615597,"63":2.2310676955317987,"64":-3.3529099596738665,"65":-1.6236563001299409,"66":0.7451643320074981,"67":0.4245721564351017,"68":-0.22202764416219542,"69":2.0864378780323283,"70":-1.175425718072071,"71":-0.5308714263716253,"72":0.05789149949454821,"73":-1.828044160089691,"74":-0.2987205154160531,"75":-0.7176886173073161,"76":-0.028456553222118944,"77":-1.1798323595412523,"78":0.01972116169144336,"79":-1.1887379431524259,"80":-0.2355066395229353,"81":-0.2269824074199175,"82":0.4832209031894804,"83":-0.689391970172868,"84":0.24761793168092933,"85":-1.143130024820431,"86":-0.47514079207433324,"87":0.20198691724201112,"88":-1.1969000235147895,"89":-0.20612089100187683,"90":-0.33014592669902254,"91":-0.10742488986975084,"92":0.9114682848147974,"93":-1.380688212284709,"94":0.24431546428291506,"95":-0.552979877536664,"96":-0.8955653623671208,"97":0.4333320161302567,"98":-0.34786499541537885,"99":-0.14600456471327483,"100":0.147671156106799,"101":-0.7564414403805788,"102":0.4400208164649221,"103":0.06786429716427497,"104":-0.7371970883867823,"105":0.4623023818270922,"106":0.054472288949956406,"107":-0.10224666652027224,"108":-0.8121331371999585,"109":0.005216776534071291,"110":0.1525453216785569,"111":0.46567804111258,"112":-0.23943281048566295,"113":0.007183066250935351,"114":0.19663019213545932,"115":-1.0842543481139213,"116":-3.8140644201682474,"117":3.933415820071454,"118":-0.1988104270068749,"119":-1.8827237168906101,"120":-8.486658131854172,"121":-0.8128492006099296,"122":5.071053735345019,"123":-3.2602528581879713,"124":1.9661913449008819,"125":-0.03555681102834696,"126":-1.0227605559120434,"127":3.557526921443408,"128":-0.42437131644032255,"129":-2.2365207243327863,"130":0.9696153299229056,"131":-1.6165891307700715,"132":0.046497769433887844,"133":3.2843654439081784,"134":0.8645503759485013,"135":1.4043859442001698,"136":4.480007874372884,"137":-5.446882971252266,"138":-0.37598296078601606,"139":0.07598791399420483,"140":0.5464268604337061,"141":-0.6688720898275122,"142":-3.6510509210184097,"143":3.6539843503862204,"144":0.6932008480852679,"145":2.3534422866749534,"146":3.001353444734206,"147":-0.35169514966989796,"148":-0.5319613638308309,"149":0.823903622890439,"150":-2.093571887503943,"151":1.315350073477544,"152":0.22954226233227915,"153":-0.24354782589436821,"154":2.784010609240243,"155":1.7994159801674439,"156":-0.3466965126992238,"157":0.8224691345123116,"158":-0.4022170844301776,"159":2.243966536136359,"160":0.04153769629663679,"161":0.4901701787215692,"162":0.8563498561388082,"163":-3.2305177299393204,"164":-2.5928509440192316,"165":1.978767445001742,"166":1.316295253985439,"167":0.2308069852865953,"168":-0.17219278953340042,"169":-1.5193469635221266,"170":-1.0733394359968986,"171":-0.35931858879077105,"172":-0.1843345018866373,"173":-1.595716751438782,"174":0.2473554147323095,"175":-0.88629356377959,"176":-0.6959412772669176,"177":0.49424547116590395,"178":-0.060765088165491365,"179":-0.08022601340068058,"180":1.3786905657826727,"181":-2.7407894425599713,"182":-0.24178609111474622,"183":-2.807058310657637,"184":-1.434995905854818,"185":1.5919349238274998,"186":-0.39596007137089334,"187":0.3024846863838098,"188":0.1064891359805878,"189":-1.3261056418438373,"190":-1.0453373877256278,"191":0.3530975274764349,"192":-0.08453259297773028,"193":0.255525432263447,"194":1.1269751287467795,"195":-1.9812249617084157,"196":0.22218875798498913,"197":0.04821665476026902,"198":-0.10826222189332574,"199":-0.4301175448568486,"200":0.18512737499730034,"201":-0.7055901349570569,"202":-0.2602344516402156,"203":-0.294584440490452,"204":-1.9884743092386066,"205":-0.2959037314806723,"206":1.5311285777784318,"207":-1.3970093567275796,"208":0.3748600693022595,"209":-0.8577637458268638,"210":1.546851132087149,"211":-0.6088582337089024,"212":-0.2528437039492486,"213":0.10176654937513425,"214":-2.1699400709434307,"215":-0.02703990245009953,"216":-0.24389241936060338,"217":1.0003457900030621,"218":-0.6516673710319962,"219":0.34221625742247974,"220":1.5582801254492167,"221":0.33516084344359615,"222":0.31792647367450816,"223":-0.38363037752659607,"224":0.608156848242363,"225":-2.89993160382683,"226":-0.8844424984635009,"227":-0.3156553659386391,"228":-1.3100471380081657,"229":-0.14270642329825026,"230":-0.7823266081213792,"231":1.688912234783976,"232":-1.8401644955709027,"233":-2.342295000272908,"234":0.11258110080917756,"235":1.3060574016257973,"236":0.4723478971060412,"237":-0.5962275666586554,"238":-0.25470993993289365,"239":-0.03924154596115073,"240":1.9648022810428514,"241":-0.4392793865405172,"242":-1.1004876182835728,"243":2.0162835863577766,"244":0.08604432849324868,"245":1.4389495753198567,"246":-0.7977902033296446,"247":-0.8244110869834427,"248":-0.6775579008104935,"249":-0.4769357843323454,"250":0.23343614843081595,"251":-1.0353203418166015,"252":0.43272075185594944,"253":-0.46026277747237104,"254":0.5109960786225349,"255":-0.12201316270554723,"256":1.017194639913874,"257":0.05853511713887087,"258":-0.3897759038537249,"259":-0.4407662992584466,"260":0.10567344001091246,"261":-2.332366783041772,"262":-0.07193606792792089,"263":-0.7549767484282749,"264":0.6896703644718486,"265":-2.433024289079851,"266":0.3012454142207931,"267":3.267041879295188,"268":-1.0926195733196857,"269":1.1885959575298717,"270":-1.1334274194096392,"271":-1.1379896801731384,"272":4.245465027611658,"273":-0.561375276744541,"274":1.0593570905395324,"275":-0.3502035077436608,"276":-1.5603599260274863,"277":-1.3334941703605743,"278":-0.43490465560754143,"279":0.6461541711272729,"280":0.21103954323676757,"281":1.6217216587516468,"282":-1.7781201075617095,"283":-0.5897418091347598,"284":0.16604669936350985,"285":-0.30084749173246733,"286":-0.45921121287843014,"287":-1.44655711929579,"288":0.5627593151676799,"289":-1.1718722554922407,"290":-0.9708585980445097,"291":-1.4385884082403426,"292":0.3310357623287232,"293":1.8843959529176844,"294":0.4132989963975034,"295":-0.997563906044738,"296":-1.1591332593846033,"297":-0.8990661317570462,"298":-1.1124164306067799,"299":-0.9671272928538123,"300":-0.423973932684421,"301":0.5060301552300032,"302":0.8833800595047119,"303":0.28926983068407586,"304":-3.1506087145302537,"305":-1.0610818557351422,"306":0.3161872735697035,"307":-1.1802604238460803,"308":-0.05494138368195738,"309":-0.5461739759073887,"310":1.1135986352767753,"311":-0.5918941501171996,"312":1.228792559000698,"313":0.32443329589842557,"314":-0.3868656710802387,"315":0.3979176564962758,"316":0.19661093926873854,"317":-1.178748698372568,"318":-0.9440031376840254,"319":1.814776311623724,"320":1.39610548320639,"321":0.4010586803431026,"322":-0.16905893910793907,"323":-1.231171875540858,"324":0.6415210958012108,"325":-0.1766707338108478,"326":-0.05722751623374407,"327":1.316565549324098,"328":1.7790596955153095,"329":-0.31140510354639095,"330":2.293597868654549,"331":0.5970011300184248,"332":-0.2180646363595422,"333":0.09967394804187325,"334":-1.0710421695773986,"335":1.6191472753816052,"336":0.3628262344280489,"337":-0.41111881899854685,"338":-1.3973141755600014,"339":0.09823339211623033,"340":0.657632978617049,"341":0.009973384809303078,"342":-0.0031186493494632936,"343":-0.3745845241477184,"344":-0.27228025038517684,"345":-1.6004543058118421,"346":-0.5719261129423342,"347":-1.1606764037264607,"348":-7.037492517312793,"349":3.635032025632612,"350":0.023005722472832356,"351":-2.214414663463928,"352":-3.1361217521413396,"353":-1.961763049831302,"354":1.4141774029765233,"355":-4.5532407636167465,"356":4.2970882103367165,"357":3.3371740387225066,"358":-0.3950321117016635,"359":3.366992595529924,"360":-1.1716282213552822,"361":0.8437948579273913,"362":0.9155364764457831,"363":0.421159154521516,"364":-0.5391591791290579,"365":-2.189125278971731,"366":4.486106292135722,"367":0.4630919687487148,"368":-2.1634271845340964,"369":-0.5432188940379874,"370":-0.4089480948518555,"371":-5.343731787841149,"372":2.1382831110324103,"373":4.481821994790739,"374":1.7103197834250041,"375":-0.5468746136686407,"376":2.27921524856773,"377":2.066902883978108,"378":-0.8750002818285685,"379":1.2117138219352084,"380":0.5131047629797746,"381":-1.5321611768786039,"382":2.2721941288149248,"383":1.6009865517296495,"384":4.107167557735746,"385":-0.6996260900361868,"386":0.059303583866771946,"387":2.580338514165155,"388":0.7207397615300644,"389":1.8476317019682607,"390":-3.346440364353802,"391":-2.283487128054049,"392":-0.9003089523503031,"393":4.688462716001854,"394":-3.9326934510295084,"395":0.2962126972432086,"396":-1.2519708477987679,"397":1.7534144979449582,"398":1.6320298538027351,"399":-0.6234972794686673,"400":1.6271571498514636,"401":2.0660443966122113,"402":-1.7813924279342221,"403":-4.951959372744532,"404":4.934797225243462,"405":1.6546169746926251,"406":-0.14910521233874177,"407":-4.753438577025651,"408":-1.1023234892306761,"409":-1.0631478301182389,"410":-4.1484814411059645,"411":-0.5044525568760422,"412":-1.1506089214720692,"413":-0.49464583381767835,"414":1.005568794419898,"415":-1.4990176346812878,"416":-1.643564384577027,"417":-4.677300586757719,"418":-1.405564781005221,"419":2.997432842873895,"420":-0.593874266875742,"421":-0.7339175696720431,"422":-2.6484441923852042,"423":2.297822471049398,"424":3.3933771003484043,"425":0.0900020715458348,"426":-2.886811056819755,"427":2.7753985429166406,"428":-4.868801016020774,"429":-3.081033100783727,"430":-0.21349043537938764,"431":-4.06438725297073,"432":0.5575010341005211,"433":-0.9565515435743742,"434":1.7391748110280507,"435":-0.9862927221233095,"436":-1.4389235824644098,"437":1.1980021463138928,"438":-2.733903197753385,"439":-2.648939364125763,"440":-2.4009201622247796,"441":4.110185686356879,"442":1.2544979085463372,"443":-0.8970649973081044,"444":0.409925800211179,"445":3.380801613467868,"446":-0.9629203707995556,"447":1.8403277043843866,"448":-1.4350270554293627,"449":-1.897915722401465,"450":-1.664286609059958,"451":2.7676786592977978,"452":-3.0573574018659526,"453":-0.0954140844163386,"454":-0.47978187021517255,"455":2.5946351302727364,"456":0.6210524169402363,"457":0.5964219235016781,"458":-1.3860322441496287,"459":0.6548179397972815,"460":1.1619224361463762,"461":-4.620760277958159,"462":1.572022295508159,"463":1.370804748211521,"464":-1.1433198532651685,"465":-3.8065836935147894,"466":1.3334693251686034,"467":-5.3855790729999695,"468":3.461517234204117,"469":-3.385877053992088,"470":-4.133049586925706,"471":2.277615297086178,"472":-1.0697680251106556,"473":9.723268930908034,"474":2.562460293350951,"475":1.1629958345427407,"476":2.1853932561213334,"477":3.494739022996687,"478":-7.443448122172023,"479":3.784512455306745,"480":-0.7539665154442377,"481":3.175547630307241,"482":0.42576521755074576,"483":-3.30326987143438,"484":0.6579835273462709,"485":0.25677856845161545,"486":1.0442641071653405,"487":-1.3361074056448794,"488":1.830560993253918,"489":3.1088545824550113,"490":-3.7644056246120474,"491":5.8804827398179755,"492":1.6666688352126868,"493":0.24752942804846387,"494":4.5304222738299424,"495":-0.30302043600058787,"496":-4.238909358816359,"497":2.6338931318561087,"498":-0.6391695162113964,"499":1.7896074938719149,"500":0.12620012076819995,"501":1.1243100655345004,"502":0.3532156284278439,"503":1.545459336584278,"504":-1.1951292664525703,"505":-2.129046340634244,"506":-2.0527883383953975,"507":-0.21562382149341933,"508":-0.2541253218233301,"509":0.12184881853815371,"510":-2.3019285016407607,"511":-0.5854597724021852,"512":-0.8653697376013039,"513":0.7768654705683496,"514":-3.155434961821174,"515":2.305456226725844,"516":0.9199853583086055,"517":-2.9096625182382456,"518":2.187382935870318,"519":1.6697424977085098,"520":1.71028944322177,"521":-3.1130901945390437,"522":5.4457370481146965,"523":11.524484322369824,"524":3.2886816553003095,"525":-6.3706139739288625,"526":-0.4074083808566318,"527":-5.659356431189854,"528":2.4798782490341575,"529":3.9813662362055,"530":4.61165077029102,"531":-1.8486663348688115,"532":10.99408381757449,"533":-0.6060745247806919,"534":3.336725188961558,"535":-8.960700450978258,"536":-3.3695670268891273,"537":-3.4038048954030513,"538":1.8343729553751582,"539":-17.910258873775,"540":-5.895207772874799,"541":2.292512208580293,"542":3.476423079564996,"543":-7.069006643594271,"544":3.822127357527617,"545":3.2843611008329074,"546":-2.064721795448243,"547":2.7908735239876434,"548":7.583720310274411,"549":-3.3132535762652457,"550":-8.144650475653158,"551":1.7795546168460137,"552":4.954744459756795,"553":-0.20032051308366086,"554":-1.337686697210103,"555":1.5086156965754465,"556":0.7751403095606537,"557":0.919144873034156,"558":-4.915575294504276,"559":-0.3451273044084485,"560":0.0038384112677601777,"561":-1.429514423410737,"562":0.33799870186270403,"563":0.7795985814198569,"564":-0.6850451044429491,"565":2.4890070998282194,"566":1.760679462846698,"567":-0.2042153862596197,"568":2.591941549397302,"569":-1.5500199069476925,"570":-0.17175584599306234,"571":0.25830664127209724,"572":-4.37117088640968,"573":3.033338812095394,"574":1.2106039136356987,"575":-0.8383664397401559,"576":-0.4055420299938757,"577":0.6225371906788362,"578":-0.2647121253142232,"579":-0.5502219613853327,"580":-0.6283944062800145,"581":-0.5118688681355896,"582":0.2104538806408121,"583":-0.24329849233260223,"584":0.18674990200864222,"585":0.16869087671054855,"586":-1.3231763528318048,"587":-0.07185903891429041,"588":-0.39800791620341597,"589":-0.548790983348228,"590":0.6068848621336342,"591":1.8063434503978972,"592":-0.19525295847371874,"593":0.03550619309611296,"594":-0.5275280763714925,"595":0.4911578819728354,"596":0.3202278951968985,"597":0.3087126939611678,"598":0.45941591074393523,"599":0.001350127135841958,"600":-0.47460711493390884,"601":0.30986788058114073,"602":-0.2655418894826547,"603":-0.5656528235427069,"604":0.5699341120917041,"605":0.20204943096633934,"606":0.1252126720019277,"607":0.015374695608459308,"608":0.5727001432393377,"609":-0.829332640445387,"610":-2.5853843526702907,"611":-0.09842614909615324,"612":5.846833001790357,"613":1.0566623520864706,"614":1.3364912540458433,"615":1.9001558755073347,"616":0.44259524075383966,"617":-1.2197730533666205,"618":0.7285275583322044,"619":-3.5174691778214093,"620":1.6863190833933774,"621":2.272428573404601,"622":5.782213278324847,"623":1.4242110022711019,"624":1.4144559155463385,"625":-4.318305406054773,"626":1.5978121636289608,"627":-0.03807400808709111,"628":-1.1626331191502877,"629":-2.092938986718324,"630":1.9052333980128635,"631":-3.2733689759373474,"632":0.8365496110365919,"633":-2.218130446612442,"634":-1.4329402986846869,"635":-1.0591299203199285,"636":0.46120934775167755,"637":0.013771929599283495,"638":3.2268789892088656,"639":8.086138907474282,"640":0.401035451623421,"641":-5.648193069940702,"642":1.6766079940854173,"643":0.4191838522421029,"644":-0.310729579699415,"645":-5.898157000906293,"646":-2.290665740712937,"647":-4.300735405270364,"648":-1.4267500568474265,"649":-1.6822038563536554,"650":0.8287096159897664,"651":-1.3119243586108424,"652":-0.1803538800881349,"653":3.7606041082008335,"654":1.9265463260157383,"655":0.4808785127070174,"656":-2.241347156924522,"657":4.462566552091927,"658":-1.1671849240246561,"659":-3.613313186856044,"660":2.168790136045243,"661":0.7794555582222159,"662":0.12144805499683939,"663":-1.0719916406794505,"664":1.7359518322320768,"665":-2.8602389112563853,"666":1.4223522793897587,"667":1.2417235730247,"668":-1.5000399677592688,"669":1.8119153051319403,"670":2.589455197323585,"671":7.913504540951683,"672":0.5467522120570201,"673":-0.2274421097241647,"674":3.8005350647046336,"675":1.2645164250051923,"676":2.2676245449060475,"677":2.783782132199141,"678":3.9296091740388244,"679":1.1446074623365858,"680":-0.6775522077190945,"681":-2.6782362263295885,"682":4.220836100495303,"683":0.44905450138216063,"684":-0.2995780320591388,"685":-1.8005397983983018,"686":-1.9518582032564902,"687":1.6517470609519422,"688":1.0181041694587514,"689":-0.42094083214121275,"690":2.565252236144051,"691":1.6180841785658033,"692":2.0370934384701758,"693":-0.09468418211929,"694":2.0651600596223614,"695":-2.783375187894057,"696":-3.6052450228153714,"697":-3.6882777480217013,"698":-4.345989124792064,"699":1.140341939650179,"700":-2.4089368461091194,"701":2.6950068045777114,"702":-2.079567953545971,"703":-0.11837420147481363,"704":-1.662436318082802,"705":-1.3181610617188986,"706":-0.27265568262283013,"707":-3.47409861540204,"708":-2.053909799187049,"709":1.0634440864421535,"710":2.0030550429109946,"711":-0.27676370026634833,"712":1.2180651002029057,"713":2.651057084981499,"714":3.7950248566758495,"715":1.1185037159298645,"716":-3.046193865250381,"717":0.6730492841984221,"718":0.9119688312767221,"719":-5.73357006044419,"720":1.205277042862077,"721":-3.1142212905305517,"722":0.5938760809930157,"723":0.13140463019243576,"724":8.90031782764991,"725":-0.9103021034067493,"726":5.157498916015572,"727":1.9962250640810317,"728":-4.37023066885436,"729":0.22414582811484304,"730":-4.188293332037342,"731":5.606723120285206,"732":2.849382797661522,"733":0.4742867386734106,"734":3.0121695668080615,"735":5.309283246918861,"736":0.35026662944394754,"737":2.031542279768328,"738":-2.380479741473201,"739":1.9931455271183627,"740":-0.3022128878713043,"741":2.0826300194540495,"742":-0.8440526016342226,"743":2.168697910715706,"744":-6.520443063100968,"745":-0.292109116088135,"746":-0.13114113059837604,"747":-1.0807527308341713,"748":-2.4089064071368234,"749":3.1188840977352363,"750":1.2244250284370903,"751":-1.3245393535236996,"752":0.621846416996934,"753":4.261933426994462,"754":-1.5348454860046363,"755":4.035325429387657,"756":8.46572857971938,"757":-4.507135093688923,"758":-5.345362117665414,"759":-6.231921728911094,"760":5.1370578059523755,"761":-3.875552859527766,"762":9.521399215595876,"763":16.391148942440594,"764":2.389998119510921,"765":10.799933293377277,"766":-0.5594083297151518,"767":-3.724938821595688,"768":1.4463611774790388,"769":10.43231053557449,"770":15.302684916212483,"771":4.289450830745032,"772":5.928002214580816,"773":-2.2066613842844456,"774":-4.61164316876578,"775":-10.997759977463954,"776":2.015252134003401,"777":-5.492050617860832,"778":9.924678064812278,"779":9.717701512646453,"780":3.557220599199123,"781":11.72208869084864,"782":5.405199315901698,"783":-0.5084927190779125,"784":1.8555917927081644,"785":1.920368089191976,"786":-3.5909153307158155,"787":2.5648619819665375,"788":-0.002869654992499725,"789":-9.28100043801088,"790":-0.09374807096022189,"791":9.122671718445114,"792":11.9075197714604,"793":0.50218227886744,"794":6.004784123062327,"795":-1.462788558974309,"796":0.8944023864217582,"797":-7.307217951224478,"798":4.73407327791452,"799":8.662315330487838,"800":5.66709436152409,"801":1.1816355477169096,"802":-4.949106074698157,"803":-6.7308124934690445,"804":0.2989180598977221,"805":-4.648416831160381,"806":-1.2485067319352963,"807":10.916400472982565,"808":9.680758436848235,"809":-2.79275292558588,"810":4.899101949782735,"811":5.6578334706293925,"812":-1.6621321492664756,"813":-0.520713476024611,"814":-0.07855296082433338,"815":1.4220438932326558,"816":-1.7263858749859473,"817":2.7885528486042404,"818":-1.4345778208143112,"819":-0.8157467690056656,"820":-0.0004026921525116418,"821":0.6900199165403388,"822":0.030618813029323896,"823":-0.8917904594254799,"824":-0.3408529303830602,"825":-0.1653132955478954,"826":0.5458292717577459,"827":-0.841726859360193,"828":0.275219516600364,"829":-0.23387001912962452,"830":0.8161591640039376,"831":-0.01693381961392552,"832":-1.2363638270462451,"833":-0.48596838853932317,"834":-0.573142095113676,"835":-1.2747110193256532,"836":-0.9059320276869748,"837":0.021367300340047145,"838":1.5167799268467999,"839":-1.467372152718895,"840":-0.12802288205955273,"841":0.022275908719529697,"842":0.8169944217664591,"843":0.22673558903189656,"844":0.4995162010627979,"845":-0.19086234525126727,"846":0.2190443540990726,"847":-0.003109155798092978,"848":0.3022885790841942,"849":0.19671277533892034,"850":0.6409013249746484,"851":-0.4970440627223245,"852":-0.5355754312471753,"853":-0.25098401799651976,"854":0.3851366262161396,"855":0.695808546121133,"856":-0.8750938731130906,"857":-0.13655903684971277,"858":-0.021487489006477085,"859":0.15410666026496878,"860":0.32154633960876283,"861":0.16930370123361688,"862":0.5070804808048088,"863":-0.4242820417922643,"864":-0.0793605396789831,"865":-0.9390770488214207,"866":-1.4692788774761394,"867":-0.6175011315345328,"868":0.5672641725016521,"869":-0.7649565653292838}},"hiddenLayers":[{"inputMatrix":{"rows":20,"columns":29,"weights":{"0":0.48507582964927215,"1":-0.20849805430322868,"2":-0.2979894742851794,"3":-0.17162667518044597,"4":-0.23000241547904676,"5":0.16144032147991982,"6":0.0555318348360974,"7":-0.3283012634292484,"8":-0.9593789073133602,"9":-0.8493121083514974,"10":-0.5746872012598133,"11":-0.4833497803369736,"12":0.04276393568643596,"13":0.16225982432791985,"14":-0.45334085577131844,"15":-0.47420480047509406,"16":-0.1487863415316102,"17":-0.627699114254223,"18":0.02653794490465976,"19":0.8827756612934369,"20":0.09828018985071178,"21":0.1941537103197339,"22":0.0122642576102691,"23":0.016213753438038662,"24":0.4815138715515327,"25":-1.1512663177173612,"26":-0.8131491272507106,"27":0.22608841515814268,"28":0.4550029575381417,"29":-0.8677552434214667,"30":-0.5419446830301816,"31":-0.8009497035270843,"32":1.0400930657640304,"33":-1.9972824179699844,"34":0.45070754902074983,"35":-0.0730846651085925,"36":-0.8581261279554043,"37":-0.2949102636339214,"38":0.4120537275318871,"39":-1.0558158704852643,"40":0.09445754073241058,"41":-1.0467820247203192,"42":-0.5019821490810794,"43":0.9589750198438287,"44":-0.028985616124872545,"45":0.10140033134750527,"46":0.5639540530908654,"47":1.278683377890593,"48":0.23139103877570324,"49":-1.3733761916435676,"50":0.47987359758047027,"51":-1.7694849915110287,"52":-2.4221290065209673,"53":-0.21325344394281318,"54":0.046352851206544275,"55":0.6893617945232221,"56":-0.8810260067282871,"57":2.0687142499903786,"58":-0.000973366612835283,"59":-0.9576709396814983,"60":-0.5227952020351346,"61":0.17626628928446905,"62":2.073758955056507,"63":0.8721419301237914,"64":-0.8433890965762549,"65":1.391257606534579,"66":-2.141996099924339,"67":0.20068967034806268,"68":1.7871963447838575,"69":-1.2250756437056924,"70":0.6126163406889827,"71":2.0239458797824375,"72":0.6338012304478416,"73":1.35127577361631,"74":-0.1657631495461281,"75":1.761461667552171,"76":0.5519115530490025,"77":-0.9270732436583597,"78":-0.3626638661203712,"79":2.2508391158388057,"80":-2.074446863991902,"81":-0.9487347040194858,"82":-1.3831101380684454,"83":-0.23794777424815292,"84":0.46027011834549414,"85":1.9989174004385277,"86":0.5563792620705181,"87":-0.8507762719233181,"88":0.13758561507718647,"89":0.012713512775817132,"90":1.6287566084815936,"91":-0.6263989251999383,"92":-0.3934156437411433,"93":-0.4450767755920945,"94":0.8148328212700499,"95":-0.8102211606738999,"96":-0.18935613736878468,"97":-0.938227538096457,"98":-1.029823061402756,"99":-1.175372726082339,"100":0.9515724549690472,"101":1.6882017366590056,"102":0.24110482089461197,"103":-0.008119785063865214,"104":1.2357009888699668,"105":0.8228447405685083,"106":1.8672206702790322,"107":-2.6883638084122836,"108":2.3188417921457365,"109":-3.799005894808964,"110":-1.5440084393723608,"111":-2.729707675215474,"112":0.983109693351498,"113":2.471544291631167,"114":-0.35969827229972606,"115":0.9753717454998166,"116":0.3102639675965592,"117":-1.0467004569000715,"118":-0.19283172722509132,"119":1.0416497790280077,"120":-0.7487114232190587,"121":-0.6068892017513795,"122":-0.23750923618890024,"123":-0.314450074790684,"124":0.05054763359008255,"125":1.3250726591205355,"126":-0.08854040835533099,"127":-1.142372812391759,"128":1.0483773302203512,"129":0.4775689783059324,"130":0.47218700767554994,"131":-0.317880669259776,"132":0.25256072505783,"133":-0.09386557894829911,"134":-0.36156142950579123,"135":-0.805374916848795,"136":-0.5126879781218789,"137":0.7681958986403632,"138":-0.5645167646842898,"139":-0.35011640077192485,"140":0.4664219923991711,"141":-0.9830088868418662,"142":-0.13054330942323372,"143":-0.0711185747104205,"144":2.171440148354556,"145":0.1451349565826369,"146":-0.1134900773617895,"147":-0.19174272953011337,"148":0.767545284353963,"149":-1.1466807036782545,"150":2.0145906643279488,"151":0.11501010631834604,"152":-0.40549143760738565,"153":-0.34609699851841774,"154":-1.0455037649194399,"155":-1.6600114731936004,"156":-0.26349898211343853,"157":-0.9019546436191664,"158":-0.6051699780992497,"159":0.3680026635523336,"160":-0.9029949604800641,"161":0.16510554613348724,"162":0.197381611848949,"163":0.2977961964827195,"164":1.0387163414780785,"165":-0.5697003993736659,"166":0.012073790979829614,"167":-0.7742506653810441,"168":0.46329116015577876,"169":-0.7611828867744732,"170":-1.066272603248085,"171":-0.2160586968699543,"172":-0.23388153112054444,"173":0.44966757472297525,"174":1.3085350205162254,"175":-1.5499849512641675,"176":0.24842291616363707,"177":1.9260362942803175,"178":1.9263384581791014,"179":-0.5770799392518023,"180":-1.192202864564013,"181":1.0811425095749712,"182":-1.9840749524111903,"183":0.3179684165490013,"184":0.15961775800708594,"185":-2.098888624807087,"186":2.4860719571023986,"187":1.4951534179100432,"188":0.008003303686275215,"189":0.5042168644232188,"190":-0.2885588922870089,"191":0.6341983406079708,"192":-0.5244587536192243,"193":-0.04190702816113223,"194":0.2832748003238919,"195":1.2812375882270195,"196":-0.9168120369436674,"197":0.27341656499523476,"198":-2.309553538583903,"199":-0.4425078343223507,"200":0.5626748300871944,"201":0.043928502875714426,"202":-1.1152574757702969,"203":-1.2903920642156574,"204":1.5623067865628029,"205":0.3885197003923219,"206":-0.45365792179289877,"207":-0.7956119360839257,"208":-0.11593704755911162,"209":0.3576757434958467,"210":-0.06298160162652372,"211":0.7291474221660416,"212":0.1600517017519092,"213":-0.5383867652843584,"214":1.0609269593545338,"215":-0.7141860008361716,"216":-0.4486743946231047,"217":0.6846226695171017,"218":-0.1235641266568221,"219":0.417334143807155,"220":0.6378767936182432,"221":0.3006589404082363,"222":0.5558360180292534,"223":0.39777462755729437,"224":-0.12889315227009612,"225":-0.19925376817059293,"226":-0.5748494808014292,"227":-0.5553911524705503,"228":0.22809164199449988,"229":0.3461137641766178,"230":0.06736777295880807,"231":-0.4881409340312763,"232":-0.25773587018758415,"233":0.5064160228346917,"234":-0.2784863208706465,"235":1.3336655122523131,"236":-0.6513491874947777,"237":0.22994482679082476,"238":-0.22068488668597852,"239":0.2757425705624603,"240":-0.29121629092369594,"241":0.7038686621216731,"242":-1.5082254941623758,"243":-1.94620706444241,"244":0.2497212031546489,"245":0.6458484029316875,"246":2.57379353279565,"247":0.060227223230513285,"248":-0.5027618438467253,"249":0.0992929680754089,"250":0.24628987435659624,"251":0.9532142616489029,"252":-0.224205862682683,"253":0.6389587963372266,"254":-1.0901144686894344,"255":0.09307220821210195,"256":-1.1775557007642228,"257":-1.7371262308978983,"258":0.3292810237585329,"259":0.146890600295324,"260":0.6248039305966426,"261":-3.6461673629340776,"262":0.0944869246590345,"263":0.21388015259477616,"264":-0.7348821725011018,"265":-1.5657601396643048,"266":1.1045141189509255,"267":-1.3414210231564867,"268":-0.5297518873012919,"269":-3.4273732974286246,"270":0.23781751957824596,"271":1.573458135593941,"272":0.9812899093963655,"273":-2.330274947075786,"274":-2.03592741161806,"275":-1.770912570865399,"276":0.8175561910368542,"277":0.25013598332994724,"278":-1.1158776007022877,"279":0.4186345761167345,"280":0.7335025042968104,"281":1.4459048387046833,"282":-0.7276216988292221,"283":0.9933903350701114,"284":-1.4498540995379239,"285":0.921450620783411,"286":0.19862838224150803,"287":1.5806227404151663,"288":0.05623742754901054,"289":1.094394907634475,"290":2.9519092116619463,"291":-0.9945292384675345,"292":-0.096953877651647,"293":0.21862762395605861,"294":0.6301360608381982,"295":-0.2782943914403003,"296":-0.11045049170116036,"297":2.032703318280616,"298":1.4521382103445777,"299":-0.10278788276044733,"300":-0.9410014925506104,"301":-0.41925289561866713,"302":0.36169564138198834,"303":1.18624039729774,"304":-0.49098822406343884,"305":-0.20616062862409532,"306":0.3511370453142565,"307":0.4088080490833781,"308":-0.41493079102346314,"309":-0.36660873546697276,"310":-0.26938664246559213,"311":0.731225131982434,"312":-0.05105300552248574,"313":0.9675536700246644,"314":0.7333083940321783,"315":-0.4095933990445079,"316":-1.9286951372464538,"317":0.024295318970619467,"318":-0.6962617240325302,"319":-0.5382357331051423,"320":0.17893148501220096,"321":-0.8330989970167684,"322":-0.38871927667815775,"323":-1.5037861307121578,"324":0.37512663847909816,"325":-0.3762335040640943,"326":-0.12524014403687544,"327":-1.2858952423454997,"328":0.7518714101540658,"329":1.0267195631321968,"330":-0.14293190693777155,"331":-1.049206143647073,"332":-0.8144438205456589,"333":1.2717998904007812,"334":-0.2513543890407094,"335":0.5311251238593133,"336":1.640698999325922,"337":0.9015288699496575,"338":-0.07400765056161852,"339":-2.0026276496467648,"340":1.069597028179157,"341":-1.582404639927931,"342":-1.3593036663266787,"343":-0.34055835069921825,"344":0.15523825029471397,"345":1.6946373193632183,"346":-0.8043757261902112,"347":2.513893555656886,"348":0.9686112827564334,"349":0.19481233258443428,"350":0.13420960425133674,"351":0.4934580521367628,"352":0.06689941876228649,"353":0.863720137553455,"354":0.39131208529497197,"355":-0.13890953584113253,"356":-0.16654182438590004,"357":0.40078381756845816,"358":-0.2671081073333298,"359":-0.08517420684558999,"360":0.04541167775080257,"361":-0.2356006576795696,"362":0.40769377357388903,"363":-0.21595162525984604,"364":0.31779971037508326,"365":-0.6151891676340869,"366":-0.18004043736267505,"367":-0.6992237942912684,"368":-0.3980361234598328,"369":-0.3522791409020695,"370":0.17136215606334107,"371":0.6145967701327175,"372":-0.13137442077766898,"373":-0.33707822747193955,"374":-0.8544562848872423,"375":-0.07520924641451332,"376":0.2865122702270476,"377":0.3418708704903004,"378":-0.7087526214637909,"379":-0.09630186016863222,"380":1.8332399036194709,"381":-1.5369144478556422,"382":2.0764598728961503,"383":-0.5460549035417559,"384":0.627606280843236,"385":-0.17665342206463608,"386":-0.14641659361039414,"387":-0.8819329706241743,"388":-0.7275788380811906,"389":-0.4968876344054556,"390":-0.9345389841170515,"391":1.6402485680714958,"392":-1.7641725507800985,"393":0.7476298804857382,"394":-0.5757167721171248,"395":0.551457564544837,"396":-0.2850644098792864,"397":-0.6098063578967555,"398":1.1868708871495235,"399":-1.1066183848514577,"400":-0.30597712706593455,"401":-0.10060307888564247,"402":-1.4518963857602998,"403":-0.18378259797419508,"404":-0.2374952517922441,"405":1.9109936811132677,"406":-0.6119609925371127,"407":1.623160321091546,"408":0.2754957669372636,"409":-0.829593302074466,"410":-0.9443460571215326,"411":0.6588630645987156,"412":-0.2597080336736473,"413":-0.6144839455942628,"414":-1.115243590279879,"415":0.8035917621596621,"416":1.7247537918238307,"417":0.25064533503673014,"418":-1.2962485597895241,"419":-1.3598550919048422,"420":1.3082375222869587,"421":0.5415262122757918,"422":0.9617151485012725,"423":-0.7165419749943077,"424":-0.4487402882124112,"425":-0.2249279026564019,"426":-0.531064147346154,"427":0.06978081244609935,"428":-0.0842950718553867,"429":-1.7129457444567857,"430":-1.6734014706379667,"431":0.6022271885203697,"432":3.0769028104284284,"433":-0.18092516852402513,"434":1.222861559802006,"435":-0.10563610715745374,"436":1.3998156202218042,"437":0.2046172338977028,"438":-0.9709976961129213,"439":-0.21632646231315417,"440":-0.6493146531290309,"441":0.2776987244820975,"442":-0.57333948937017,"443":1.788242980120488,"444":0.5767709198344385,"445":-0.2968648910813687,"446":0.816169541536651,"447":-0.027680016366740154,"448":-0.8704630579587269,"449":0.22973349357897413,"450":-0.5301784477314457,"451":1.0539057371051903,"452":-0.8078821039353482,"453":-0.4115340070919925,"454":-0.5749635285050779,"455":0.667981299180086,"456":-1.0845144990635847,"457":0.23005297902522506,"458":0.5351657889949284,"459":1.0138622034002258,"460":1.0431382292468192,"461":-0.27783330667598855,"462":-0.22691989763062576,"463":-0.2727604978379494,"464":-0.8027063134882438,"465":-1.4855461957620775,"466":0.615966519091322,"467":0.42651967635029825,"468":1.614129756294638,"469":0.5014754042648993,"470":-0.686969637721588,"471":-0.06778042795767222,"472":-2.262510182908295,"473":0.24660284244621697,"474":0.5022017245462623,"475":0.36130145366330124,"476":0.5781725539083553,"477":0.9821567822636618,"478":-1.1885473500442527,"479":1.605304737097425,"480":-0.36637516690973404,"481":-0.05675254290126677,"482":0.18104968145027947,"483":0.217699117940378,"484":0.613507433389204,"485":0.9693728762625912,"486":0.6046993861965068,"487":-0.20601989658970635,"488":0.3750947603554845,"489":0.8941184324676633,"490":1.7441827914319856,"491":0.8086430949410478,"492":-1.411265206328385,"493":-0.5925840520812397,"494":-0.8784517407101751,"495":-0.08012507355272189,"496":-0.4344944089164484,"497":-0.08695570091530239,"498":-0.7886152465584806,"499":-0.37592970591380254,"500":-0.805969188366949,"501":0.4157922956690135,"502":-0.23112703748342647,"503":-0.6317502351719861,"504":-0.7482995160518614,"505":-0.5555097089540305,"506":0.29734637952951426,"507":0.042090387786028666,"508":-0.7508220482608707,"509":-0.3545023341491193,"510":0.1401028391717156,"511":0.1515650407775172,"512":0.6305429518131211,"513":-0.4638939839345547,"514":-0.9625124144786702,"515":0.24267939545876235,"516":-1.5353935525791704,"517":0.3386406495819591,"518":0.9504558663426259,"519":1.654240123651146,"520":-2.010423151956163,"521":0.22780364816078083,"522":0.36268117005055,"523":-1.8691849995464833,"524":-0.08723530864361163,"525":0.9385589451014539,"526":0.7214919202369912,"527":0.5658375455382868,"528":-0.7106514465857448,"529":0.08386392757633615,"530":-0.9818389637471224,"531":-0.22604527641296215,"532":0.31877152536040954,"533":-1.1030638136788748,"534":0.27062818114769677,"535":-0.45206170584364624,"536":-0.2998918529987692,"537":1.0315007125306437,"538":0.5062697269985277,"539":-0.14397105936677806,"540":0.21580899747787885,"541":-0.43154629074481593,"542":-0.8550533459029156,"543":0.24021750302201228,"544":-1.001130347845173,"545":0.12560861651591382,"546":0.1643886439906399,"547":-0.6981954813787823,"548":0.23208305784890096,"549":0.3248655459926193,"550":0.7379735248376477,"551":-0.7725471512324341,"552":-0.2938451052419753,"553":-0.33140392978865285,"554":0.9572785007057524,"555":-0.12063593567827482,"556":0.5501669210670073,"557":-0.5347624211351074,"558":0.07413502764450305,"559":1.4275191167840384,"560":0.8549440866701499,"561":-1.424471162837758,"562":-1.0290017080346407,"563":-0.7512672185129318,"564":0.28819393727822146,"565":0.4100123740099508,"566":-0.4918004165843999,"567":0.12754776754050776,"568":-0.1915513903015639,"569":1.075512290263647,"570":-0.006049693698869359,"571":-1.5396734720148804,"572":0.5750916234593214,"573":0.10425367043498679,"574":-0.7909919452699187,"575":0.44396128152971015,"576":0.3920241710052851,"577":-0.2976597718022505,"578":-1.3390806022578678,"579":0.5791338857179059}},"inputHidden":{"rows":20,"columns":20,"weights":{"0":-0.4447678981632214,"1":-1.7462042947734382,"2":-1.2692554610080538,"3":2.589030699605675,"4":1.9615256227562918,"5":-3.1752538983295473,"6":2.20440261070557,"7":-0.3187547214091428,"8":3.84971883599791,"9":0.3308801331037179,"10":-1.8745953906786124,"11":4.662107605547252,"12":-2.1642712809277325,"13":-1.683680638680012,"14":-1.2151464196180297,"15":-0.12265027124903519,"16":0.12300106662449194,"17":-4.97974349967785,"18":0.9309356974934698,"19":-2.879640049804416,"20":1.6585830003624573,"21":-0.6917846227817597,"22":-3.4428958222274155,"23":1.2151792890851598,"24":-1.2643740935204475,"25":-2.326745353151646,"26":-1.3216491618957886,"27":2.8847565447917565,"28":1.1431757922926336,"29":0.09557872601430524,"30":-0.19212169828092257,"31":-0.38150924427588684,"32":-1.8965578651775352,"33":-1.4944164962572009,"34":-1.8640653081589758,"35":0.3455419946649988,"36":-1.4953923211329132,"37":-1.3709380444136712,"38":5.216928967569113,"39":-0.21400503237496113,"40":-2.0141924121508574,"41":0.4963517822474743,"42":1.096073135906025,"43":4.7056301983751725,"44":1.8711785183016079,"45":0.5021502933030572,"46":0.5049423944245168,"47":0.8791671284125482,"48":-0.75234607383142,"49":-0.47952971740018446,"50":-0.8261566933001586,"51":0.5320252966555641,"52":1.3836190155718857,"53":1.1429517203190391,"54":3.1032142621417598,"55":-2.1130593486184925,"56":0.6592007373966735,"57":0.8018251110869329,"58":-0.5250969391610688,"59":0.9314435210810535,"60":-0.20635215044552907,"61":-1.8541666334993119,"62":0.8096330808950168,"63":-2.849925425417381,"64":1.182363647050357,"65":-3.010771170174177,"66":0.5339314409869083,"67":-3.046948488163374,"68":1.9163853017539385,"69":1.2696622514164129,"70":-2.883002689507088,"71":0.7867351724796889,"72":-4.124437889199094,"73":-1.8195998117633922,"74":4.709381594790116,"75":2.809103909821181,"76":-0.5796769613238565,"77":-1.5560224809487393,"78":3.3178312965461125,"79":0.8129825112968107,"80":-2.238807453756507,"81":-0.8612772948758399,"82":-1.6519153630239534,"83":2.1278251399546018,"84":-0.22113720820631783,"85":1.3081752323502096,"86":0.6984757315708207,"87":-5.639424616855295,"88":-2.3248298501844373,"89":3.5524492823884786,"90":-2.1110449892946352,"91":-6.339765611484717,"92":3.203697516009486,"93":1.9317979215996401,"94":-0.7420762007345284,"95":1.0549680122539669,"96":1.6329344658849227,"97":-1.4105381240604145,"98":3.5766583873304603,"99":-2.0659560730559265,"100":-0.8476544890889595,"101":-0.31501212076343765,"102":-2.2289389647353985,"103":-3.1920596978964952,"104":0.19572658568129186,"105":-0.7205966411634765,"106":1.5060409176602896,"107":0.04073772849351311,"108":1.7097268758855297,"109":-3.132828672761955,"110":-0.27072764751514306,"111":3.8579589412458324,"112":-1.7310048511349372,"113":-2.32720791826194,"114":4.867952063033221,"115":-0.21857186005036824,"116":-3.5156943880406057,"117":-1.270665356734742,"118":2.2553069121524554,"119":0.65531522651748,"120":-0.5218241146867868,"121":-1.9725616225871196,"122":-2.593411232911466,"123":-1.7892501394580231,"124":2.416144813817684,"125":-1.670041670035535,"126":-1.2194849801242444,"127":-1.2858802322890666,"128":1.2501260898971998,"129":-2.6619428270046686,"130":-1.5976044442448367,"131":-1.6043341976332521,"132":-2.0025333623436645,"133":-1.564695132476092,"134":0.6642781801405897,"135":0.20419585106282484,"136":-3.474180677554568,"137":-3.422993393791749,"138":0.8860444841008558,"139":-2.1218993968825606,"140":-6.573250272420332,"141":-1.08464313710794,"142":0.9272603444918833,"143":-0.6130872327225492,"144":-1.5120340415937727,"145":-0.8819942262924668,"146":1.088245576043912,"147":-1.480988012568268,"148":-3.504769898623438,"149":1.610073558987841,"150":2.463200424307803,"151":0.3414945388297062,"152":1.4279678854807936,"153":0.4688199540516083,"154":-2.5408223198785143,"155":0.7951071155237368,"156":-2.0916448715419027,"157":1.8075071515126206,"158":0.25121191557713063,"159":-0.9353375189234143,"160":-1.7783015992686306,"161":0.3835953010818132,"162":-0.6620126257469995,"163":0.9585446326630919,"164":1.3682896627101853,"165":-1.3773841879120245,"166":-2.430165249539183,"167":1.2300840969273268,"168":0.8976594445810983,"169":1.455133756863698,"170":-2.6585060346128158,"171":2.7017068739388486,"172":-0.8020322091354023,"173":-2.551282967465683,"174":1.56356914614016,"175":-0.1514179111751665,"176":1.4467877852684032,"177":0.1683443725524704,"178":-0.2590133332815606,"179":2.071188135021011,"180":-0.987139589666902,"181":-0.7807375278573694,"182":0.11911357681087717,"183":0.6526137704079141,"184":-2.026406566663668,"185":0.5524555452898797,"186":2.2919576209621413,"187":-1.5070000236527803,"188":0.9251034108170249,"189":-0.8076983871429736,"190":4.119259035306742,"191":-0.367768081057206,"192":2.519833178230911,"193":1.3898147232111353,"194":-2.992760167379292,"195":-4.8100836854627875,"196":0.005951446934947087,"197":-0.1926563634747469,"198":-0.8751250778371904,"199":-1.2022909169434164,"200":0.22096647185383583,"201":-1.0249942476740903,"202":-1.1678961475353464,"203":1.7719686778971813,"204":-2.14701330137663,"205":-1.023781326642782,"206":-1.1460320198062093,"207":-0.7579946868396832,"208":2.027919617536822,"209":2.417856928344069,"210":-0.7916087729677812,"211":1.259938190092376,"212":0.898167748939074,"213":-1.2756053519589015,"214":-0.524658579178669,"215":0.3328440624139291,"216":4.359752608105188,"217":1.6044091685179251,"218":-0.2314309028212809,"219":1.7447625153255442,"220":-2.6779271730620207,"221":0.2540476089577332,"222":1.2357199850315614,"223":-1.9760375034313373,"224":4.332627471911432,"225":0.2998594505367657,"226":0.5603900328540871,"227":-0.6808965690924051,"228":-0.6627370276517373,"229":-0.8969601435700338,"230":-3.834739389603806,"231":-1.5541099402149308,"232":1.4467736482543276,"233":0.9794571895554065,"234":-0.10755446066290614,"235":-1.0766287640867915,"236":2.13156942293211,"237":1.8553644506219107,"238":1.120620527752246,"239":0.972695495678139,"240":-3.4752967618692505,"241":-1.204936325462415,"242":2.058361460508193,"243":-3.4445967818139507,"244":2.0936392571105573,"245":-2.148620842217259,"246":-1.1153399366890988,"247":3.226926964099674,"248":2.338801507170265,"249":-5.208947599099254,"250":-2.3728873093747387,"251":5.096417348921627,"252":-1.0895346892401745,"253":-2.9266218655568523,"254":0.8176445869962581,"255":-3.2075338847189294,"256":-4.086562835527679,"257":-4.296126419325544,"258":-0.35152863697309045,"259":1.7968377268063622,"260":0.6715527014277396,"261":-1.5960180130422155,"262":-1.2578007285663626,"263":2.5479746496524007,"264":-2.1016458058072436,"265":-2.6045556358949833,"266":1.0955838292146975,"267":0.4011385614546786,"268":0.7463553094016583,"269":1.7479103581466466,"270":-2.3176505441270323,"271":1.76751619576417,"272":0.027769854834137436,"273":-2.016908678987587,"274":-1.24533287146218,"275":1.1794796890684154,"276":-1.178853761092056,"277":-0.7808991535223775,"278":1.3675437835375304,"279":-1.8322822349941388,"280":-0.04442778486523372,"281":-1.6876259761964987,"282":1.2477969075278614,"283":-3.708574161852781,"284":-1.9874180561164783,"285":0.6497020379376778,"286":-1.721267008190553,"287":-1.2896019285333276,"288":-0.06855765202243651,"289":-3.29514987234588,"290":0.5524776594035801,"291":0.8190304142372242,"292":1.3164979076083092,"293":0.34261590750321796,"294":-1.9340799885107842,"295":-0.32530615184859574,"296":-3.616646367540497,"297":-0.29060772052496336,"298":-4.457372565344531,"299":0.6903422613555915,"300":-1.3981208660363378,"301":-0.05980387367577406,"302":-0.3051601949616592,"303":0.5054672128748596,"304":1.789978067433526,"305":1.6356319299930278,"306":-0.199318185710425,"307":-1.307926155612218,"308":-1.8003398701552373,"309":-0.47601308090743805,"310":0.9040276563443228,"311":-2.1097046664661594,"312":-1.4113310535602293,"313":1.710763100426257,"314":1.6937241959297562,"315":2.3146794033745706,"316":-1.6705726855030631,"317":1.7925680234782668,"318":-2.0608385306900825,"319":0.3275666666583799,"320":-1.2378455005039064,"321":1.3086662572242727,"322":-3.498610083164915,"323":-3.3212898095660326,"324":-1.3091806889304982,"325":2.8187225252244215,"326":-2.2641041179694086,"327":1.0744100355818724,"328":-4.747888444600969,"329":0.8743952046922497,"330":0.9055968880760401,"331":-2.9049311293224314,"332":2.53455651877274,"333":2.805292336491535,"334":-0.8465938192051873,"335":2.226173367306671,"336":3.150457243165741,"337":2.813746162882442,"338":-3.3881280437351196,"339":4.244581600792183,"340":-2.734844161270957,"341":0.11045320995287472,"342":-0.8619303001892155,"343":1.3771346636710893,"344":-0.8281801127337869,"345":-0.4158679093934953,"346":-0.5763150279890833,"347":1.8054517469155908,"348":0.8178229371471898,"349":-3.1484052878284405,"350":-2.667488235054737,"351":0.3677227555299951,"352":-1.642716376180057,"353":0.2491467483080425,"354":0.7317233576825889,"355":-3.911343653673319,"356":-1.226627839925731,"357":-0.08602536755575194,"358":4.185698298753299,"359":-1.2726481403877563,"360":-1.0673214614921536,"361":1.5272960263240982,"362":0.7909151283927857,"363":-2.0163314370266563,"364":2.3873165834757457,"365":1.075911796053052,"366":0.16935597776765096,"367":2.324034404182927,"368":-2.598875025834255,"369":-3.902939468514566,"370":-0.3374183772049109,"371":-0.5364482610812341,"372":-1.9463080654007903,"373":-2.198914107723207,"374":3.0865857345225556,"375":-2.633531215861716,"376":-2.6444530589604036,"377":-2.4982350613530713,"378":4.915417047780353,"379":-1.0223060498240024,"380":-0.5925074437882558,"381":-2.163542671753538,"382":-2.92800451915976,"383":3.3077470291648017,"384":-1.33693382872417,"385":-0.783711475276197,"386":3.635504797454231,"387":-3.159344562656045,"388":-0.6175900414676291,"389":-0.24606030433595555,"390":-2.8680874064846402,"391":1.5423490597689418,"392":-2.116307589127616,"393":-2.3510574144173564,"394":0.4519684003928987,"395":1.660559980087202,"396":-1.012685759273546,"397":1.04913555813684,"398":2.931941433173765,"399":-0.6219104742069242}},"inputBias":{"rows":20,"columns":1,"weights":{"0":-3.315154637426912,"1":-1.682221239690845,"2":0.4735677657387229,"3":6.576661061933258,"4":1.7408512799457498,"5":-0.6652081037606038,"6":-0.7751485340985451,"7":-0.2591021199626655,"8":-3.089235941112294,"9":-3.420169899047306,"10":-1.9031479242128049,"11":-3.7349938258792097,"12":-1.3220241488149869,"13":-1.136935055355172,"14":-0.19978684724843607,"15":2.144939350630288,"16":-2.159350882325122,"17":-1.1335932029486722,"18":-0.9280560622508381,"19":-1.0355676309669095}},"forgetMatrix":{"rows":20,"columns":29,"weights":{"0":-1.0061549290988312,"1":-0.36422268334599495,"2":1.1696567470922095,"3":-1.226939680251179,"4":0.5070691000640835,"5":0.06049880132637973,"6":-0.28827686163027694,"7":1.9652502329425017,"8":0.35271488547682806,"9":2.70282690286725,"10":2.8747148562844647,"11":-0.3260737838356793,"12":0.3085301587007119,"13":-0.1340534676720019,"14":-0.22105745494396178,"15":1.0006086838802037,"16":1.8658535742758848,"17":0.2170369819415396,"18":0.6137762616818293,"19":-1.926716690027974,"20":0.06084440143459148,"21":0.6675012202797953,"22":-0.009489241435711058,"23":-0.46405373448879494,"24":-0.41799983081296704,"25":1.5129407007129865,"26":0.7451234059927991,"27":2.2370691494085415,"28":-0.398062321696589,"29":1.75157170956073,"30":-0.20470641296298792,"31":0.590645041559041,"32":-0.20047077359906185,"33":3.057794282975923,"34":-0.7489100442568983,"35":0.24898051356347453,"36":1.2343087151226833,"37":-1.8087567408084622,"38":-0.6381314779540723,"39":0.766045663866422,"40":-1.3203028494585352,"41":1.0865557651376598,"42":1.8896067990474057,"43":-0.026271902076403505,"44":0.6883313746182094,"45":-0.7928371652111392,"46":-0.6199406514916339,"47":-1.1612593293861804,"48":-0.20792092234209622,"49":1.6039750543185942,"50":1.325228011649769,"51":0.2534550693023117,"52":3.0067599812759704,"53":0.28892783024715984,"54":-1.6448892361450214,"55":-0.8355558483945545,"56":1.456221182012245,"57":-2.186293223325906,"58":-0.22177565149880477,"59":-0.9041433090397636,"60":-0.17138099509062296,"61":0.9517389486593598,"62":-0.40086366000828266,"63":-0.7786024026414463,"64":0.3539430677138892,"65":1.4786511848808874,"66":-0.15261337516459683,"67":0.10833103143500591,"68":-2.396673743134508,"69":3.368988477538842,"70":-0.432901570597654,"71":1.2520262155336626,"72":-1.3739882345294876,"73":-0.10430709758204676,"74":-0.20182353553980306,"75":0.4188554177784247,"76":0.33467644797089247,"77":0.02313097387867903,"78":-0.8552818574430816,"79":0.4934542114880116,"80":-0.05958521036900507,"81":0.5218614261891478,"82":0.8995669274414765,"83":-0.05830400230991814,"84":-2.3619351106530493,"85":0.6329072780076904,"86":1.8587006036685447,"87":1.445359551458871,"88":-1.176582481651942,"89":-1.2667962241613702,"90":-0.6924345093243883,"91":0.4675353968539038,"92":-1.0257552705512984,"93":-0.23380798384380785,"94":0.5116719841314638,"95":0.5394165655630394,"96":-0.7874845533356135,"97":-0.06665010262792588,"98":1.0507173212392895,"99":0.6394670573707952,"100":-1.1378797216028693,"101":0.058886993955327614,"102":-0.15831321340630447,"103":-0.37524347423494586,"104":-0.5121574426361509,"105":-1.3379564575995895,"106":-1.2391587984404273,"107":0.6991943321144646,"108":-1.6144802737070507,"109":1.764065230402402,"110":1.6613509081531426,"111":0.1901058471027461,"112":0.2704748681429618,"113":-0.26410228154732585,"114":1.00161958429513,"115":1.3856059820424143,"116":-1.4100334603574851,"117":-0.24318734814310794,"118":0.11902711803004176,"119":0.10834728457061804,"120":-2.1291135194013004,"121":-0.3710930895299163,"122":1.0483415336833624,"123":1.3380746658626774,"124":-0.8324467046172668,"125":0.8057977542451321,"126":2.5526027537787224,"127":2.5355053316206067,"128":-1.207685094523382,"129":-2.2678332082330033,"130":-0.2811380882525151,"131":-0.40503612306084097,"132":-0.1653368298441897,"133":-1.8755692357173397,"134":-0.40884104416648637,"135":-0.30285797931787056,"136":2.7440806159102045,"137":-0.741584783341122,"138":0.4371878541907824,"139":-0.9189597922691227,"140":0.29282979248219143,"141":1.7429121371081893,"142":1.0426037525747223,"143":1.1465553299751052,"144":-0.5646193387795696,"145":1.2067062771314943,"146":0.018593044032129195,"147":-1.0831803633473716,"148":0.6932630200339829,"149":-0.6767951147891381,"150":1.1440370319650146,"151":-0.5905928031559619,"152":-0.8756415496188741,"153":-0.641498149239272,"154":-0.08187991590134569,"155":-0.7241294672185827,"156":-2.4327376754152694,"157":0.3365892692538482,"158":0.6019733674028039,"159":1.3993069286903352,"160":-0.746873052764238,"161":-0.5325025952351574,"162":0.28655751873332636,"163":-0.6503782497232669,"164":-0.7243524171294244,"165":0.3777899942098817,"166":-0.492210891774122,"167":0.6726761855885897,"168":0.6465003070514694,"169":-0.2016624305047813,"170":-2.049142344999865,"171":-0.37676458644023636,"172":-0.6716534416653309,"173":-0.9344041130759592,"174":1.0101913024918394,"175":1.473972939113031,"176":-0.38086911451327365,"177":-0.5020368535382714,"178":2.132166612190642,"179":-1.1426823965053143,"180":0.32428869389950193,"181":0.15330784194416078,"182":0.6002587074466388,"183":0.6627425158506941,"184":-0.045705974395257795,"185":-1.8736056986932526,"186":0.5487914574748675,"187":0.30235349466167466,"188":0.7967893534387086,"189":-0.0725296957873262,"190":-0.48650564780267963,"191":0.5325364131622204,"192":-0.5950946761401193,"193":-0.6204761071418886,"194":0.49089233509889424,"195":0.9257577921010617,"196":0.8172891700974422,"197":1.023755228208117,"198":0.2732098752639842,"199":-0.8834387889957251,"200":-0.3890040766832157,"201":-0.4290505800698896,"202":-1.3777383862954573,"203":1.6975192168120745,"204":0.26701383656990507,"205":-0.3044701890838855,"206":0.39110566597269364,"207":-0.40867785478182167,"208":0.3481933915629525,"209":0.3948495739116985,"210":-1.366165987249722,"211":-2.955226778452362,"212":-1.9520237372469953,"213":-0.7393360060950471,"214":0.037103216730917155,"215":0.2843138171248524,"216":0.7629248329973118,"217":-0.2551743555119696,"218":-0.17364318218395125,"219":-0.9516881210337033,"220":0.9465873509591171,"221":-1.0370547646957962,"222":1.4803132877793996,"223":0.22899726965270856,"224":1.1736791331497258,"225":0.7681366670098991,"226":0.008779785183266928,"227":-0.9707152047539765,"228":-1.500691044023481,"229":0.3009119169621995,"230":-0.06254706891242558,"231":-1.6820026317505266,"232":0.17652762755981102,"233":-2.406462302059549,"234":-0.4134071738845703,"235":0.5365536866514239,"236":0.12695609435273938,"237":-0.6215859969625489,"238":0.2821910786511893,"239":-0.05614093294799904,"240":-1.1263097863836045,"241":-1.5918007183316654,"242":-0.7676618314540639,"243":0.4522205513631013,"244":-1.0185022816680855,"245":0.6839511327390705,"246":-1.0347292005754696,"247":-0.912080126733766,"248":-0.39932274760711123,"249":2.4342384233988095,"250":0.28127989796571007,"251":-0.49782421988147213,"252":-0.8107901187404634,"253":-0.8548940882514622,"254":1.0167816134785257,"255":-0.4031599055924809,"256":0.26072873948632286,"257":-0.14635953608982527,"258":-0.8159582282336316,"259":-0.8217758630679248,"260":0.6360053621567308,"261":-1.1029474174657241,"262":1.11874726371794,"263":-0.6129490345412496,"264":0.2783527687744966,"265":0.17747085490327077,"266":-0.10915698891974839,"267":0.08159023428179762,"268":-0.8467700528263011,"269":0.24972055728097042,"270":0.6124107054214373,"271":-1.0783657750680171,"272":0.02227900843767584,"273":-0.8679614911732696,"274":0.02070097541500664,"275":1.1202190930708804,"276":0.30051693511096667,"277":0.3733247193056571,"278":0.4044091069116182,"279":0.5599479036174927,"280":-0.1112921214301614,"281":-1.1307860191217654,"282":-0.9774609784595889,"283":-0.4751038140862467,"284":-1.9639046764385415,"285":0.9737190562463991,"286":-0.2257765220722201,"287":0.7333719733858364,"288":-1.2823290559957181,"289":2.0082244558472455,"290":-0.3920762698747241,"291":0.5241562434782577,"292":1.0724518825510698,"293":-1.4057632313865613,"294":0.21975589620547462,"295":-0.7599944133762309,"296":0.6022831216369082,"297":-1.4279445342129253,"298":1.2824203823876084,"299":1.0199903661721776,"300":0.29196908506657365,"301":0.7252260231222561,"302":0.6352762055992691,"303":0.3419459951904668,"304":-0.4903252720747711,"305":0.1578333309755904,"306":-0.4297101325830952,"307":-1.1021952268782484,"308":-0.3853472012987174,"309":-0.37549350597691794,"310":1.1370420365937932,"311":-2.3393800308611024,"312":1.6477989734033427,"313":-0.020977670639375282,"314":0.8925951473156459,"315":1.7395119681149451,"316":0.8661114117845442,"317":-0.32840334586143527,"318":-0.6293171166279833,"319":0.09591169666491775,"320":-0.6646239675930884,"321":-1.3913809800528285,"322":0.36574430718585255,"323":1.6417602613217337,"324":-0.529283731805343,"325":0.7449616458672617,"326":0.776742186886569,"327":-0.4427453624207078,"328":0.4872162067926795,"329":-0.775644494063057,"330":-0.6659018557287409,"331":0.8929473486318353,"332":1.3874533589753275,"333":1.3593199348639102,"334":0.19785157433367934,"335":-1.4496890368500865,"336":1.3979730775808934,"337":0.3813475322274696,"338":0.724366539016809,"339":-0.5936885773686001,"340":2.281917917945338,"341":-1.3607624373351588,"342":-0.38026503048268856,"343":-1.4460489999536938,"344":-1.1583146963446218,"345":-0.2715247927389614,"346":0.35388870237227654,"347":0.7505941539875863,"348":0.34262227762773645,"349":-0.5017459553184199,"350":-0.5088722722099209,"351":-0.32286960677538507,"352":0.569516583825305,"353":-0.3027354911928274,"354":-0.471866706677953,"355":-0.2360455099928386,"356":-0.18519705793592534,"357":0.8071020561545885,"358":-0.1979126435118176,"359":-1.0138349023928679,"360":0.2780944285281025,"361":1.3754836104942452,"362":0.11567530302420692,"363":1.04313591052739,"364":-0.3772507138188709,"365":1.0355826490437654,"366":0.019822349298538194,"367":-0.4175138912295234,"368":-0.0718045466104702,"369":1.4999736268727561,"370":-0.6708210930456867,"371":-0.48600459722932343,"372":-0.2543880329013186,"373":-1.26143600737274,"374":-0.1065744815375535,"375":-0.4007243768208671,"376":-0.6435730027777273,"377":-0.90105951845191,"378":-1.861822758529255,"379":-0.2922347507408847,"380":0.31764077931498547,"381":-0.001240078518859102,"382":0.12412512774466809,"383":-1.2726306235090037,"384":-0.9267475489973356,"385":0.4641561674933054,"386":-0.920234811633117,"387":-1.215122042570878,"388":-0.7298313667955808,"389":-0.6429638252420913,"390":0.20791421676516114,"391":0.19048870425438408,"392":-0.10278757791834468,"393":-1.4115551048691273,"394":1.2408448064476074,"395":0.051710277506186675,"396":1.3142752921821002,"397":-1.556868056419319,"398":-0.5196201422944807,"399":0.1354127091941102,"400":-1.5452501499877498,"401":0.3790222619383377,"402":-0.06547359710768388,"403":0.9450468540136207,"404":-1.4653034578452135,"405":1.0073141219868527,"406":3.675630055123568,"407":-0.19118942855580776,"408":-1.2014871444470456,"409":1.4064343803648245,"410":1.423874229664239,"411":1.1954935291008109,"412":0.68627605567956,"413":1.3474821874686937,"414":1.921913417445669,"415":1.728489444873542,"416":0.8982654414958405,"417":0.4201589700893244,"418":0.803876430912979,"419":0.1983860572998946,"420":0.6168106059863044,"421":0.999200483799758,"422":-0.45946449255852945,"423":1.0228331231445023,"424":-1.1593235541624074,"425":-2.453620021294423,"426":-0.3515404730398507,"427":2.0848374500109355,"428":0.019825294592011156,"429":2.9104536444200333,"430":0.8098181563253813,"431":-2.486876221487768,"432":-1.3818383539314412,"433":0.46990869251934714,"434":-0.23375436810282674,"435":-1.0474309405941582,"436":0.7051453630193697,"437":0.44866323023266574,"438":-0.21833875122641636,"439":-2.148983016478417,"440":-0.011677565486392065,"441":-0.45539891762108714,"442":-0.8996945808888068,"443":0.7066620905296936,"444":0.02684399598377624,"445":0.2772594816076565,"446":0.8208220332857566,"447":-1.2868484241854128,"448":-2.322356811238283,"449":-0.5950267298121534,"450":-0.7466980536953974,"451":2.1288927496784162,"452":-0.48321813639700345,"453":0.7178250911784699,"454":-0.6902235789521356,"455":0.4268772321682759,"456":-2.4826347450791397,"457":0.9883784475160392,"458":-0.9567949229887398,"459":1.6254280666383545,"460":1.453261291883156,"461":1.341760465440226,"462":-1.3372862682218392,"463":0.055691133074574184,"464":0.7062372614585762,"465":-0.49642172747874297,"466":-0.3159787292785643,"467":-0.4008995130464589,"468":-2.7624738112003473,"469":-1.606463117665637,"470":1.5460131039826603,"471":0.7650896012634093,"472":3.075594558983949,"473":0.734010661698806,"474":-1.1263243884740994,"475":-0.06787676921775891,"476":0.37096376157887206,"477":-0.13679059905803817,"478":-0.6765018686195383,"479":-1.8144561355220648,"480":0.9745820939236515,"481":-1.461733870695782,"482":0.24343516373301946,"483":-0.7525525926635901,"484":0.251951249054274,"485":-0.26189371307941894,"486":0.6879126824630973,"487":0.005031582282886077,"488":1.7459053345496611,"489":-0.7667915735717687,"490":-3.2525021394038682,"491":-0.8732870234824489,"492":0.7705389926672213,"493":1.4727638184745027,"494":0.4903519061873468,"495":0.22288057957824178,"496":-0.9502410574367812,"497":1.2521265217952955,"498":-0.10938862025075934,"499":-1.7371054240778316,"500":-2.5208073696445243,"501":1.0607388388881263,"502":-0.49299473414760725,"503":0.9672540869156712,"504":-1.4620300776590058,"505":-0.42693839973589964,"506":-0.3116434639179018,"507":-0.10416077139699609,"508":-1.2295943106999294,"509":-0.641008635787706,"510":-1.7782186181040829,"511":-0.0734149394667974,"512":-0.08478827851433661,"513":-0.5404818099944424,"514":-2.3381351866848483,"515":0.7002361138018494,"516":-0.3131600271846911,"517":-0.06581292861568021,"518":-0.05677932159239486,"519":2.6698575946717233,"520":-2.7890694268226333,"521":-1.1799531243389996,"522":-1.4963812778806003,"523":-0.49439104530162375,"524":0.22110682627303824,"525":1.399970562257411,"526":0.6412344098922832,"527":-2.4397604437225957,"528":-0.9812895162407119,"529":-0.4148451178555796,"530":1.9622668185875667,"531":1.390551417048921,"532":-0.3803917118878118,"533":-1.606230669386639,"534":0.46494187355926114,"535":1.2370760991326724,"536":-0.02438155313591648,"537":-1.4370385612324768,"538":-0.07009267636550355,"539":0.11053591063440979,"540":-0.1531846929718378,"541":-0.32987576028626636,"542":-0.8270081651907074,"543":0.6730185261233327,"544":-0.7899218676779727,"545":-1.3397713072478796,"546":0.37871687576642044,"547":0.8066326619748033,"548":1.897630659671048,"549":-2.210073848806721,"550":1.272065236487144,"551":-1.8243213899884654,"552":0.5269308283284033,"553":0.402252710214539,"554":1.3764415486053598,"555":3.593809820747177,"556":-2.19363621245028,"557":-0.19368244976858118,"558":-0.26556734765267026,"559":0.30598250321032616,"560":0.6943465501044529,"561":0.17095807810817343,"562":-0.9035033325700861,"563":1.0319228777581475,"564":1.2305890018850418,"565":0.6171379745401707,"566":-1.0092964652049266,"567":0.05610465700805606,"568":-0.8446451076863807,"569":-1.5267779134018,"570":-1.3221821193022134,"571":1.4138920900829242,"572":1.0992267965113856,"573":0.05590522010699626,"574":0.8738298193200771,"575":-1.3518387084120456,"576":0.2790704127042151,"577":0.2855160098299757,"578":-0.3384095993002643,"579":-0.8539161840896032}},"forgetHidden":{"rows":20,"columns":20,"weights":{"0":2.761255472433452,"1":0.43688026769840743,"2":-0.6918226341914367,"3":0.21826394953290004,"4":1.5369443438293768,"5":0.17519216557481787,"6":1.3998635307817828,"7":-0.22837513307024224,"8":0.8675822307543763,"9":-3.0379524844084305,"10":0.8253477407711395,"11":-0.06574580618609022,"12":-1.432661125309558,"13":-1.218758039317368,"14":2.6601374920256307,"15":2.4537586939287293,"16":-2.4250621948747173,"17":-1.6146939224210621,"18":-1.0166002109572139,"19":-0.8758223174607667,"20":-0.882614681093491,"21":-0.5128062377288515,"22":1.1384448648838963,"23":-2.8302003334613097,"24":1.3889557770708765,"25":-1.456906108426229,"26":0.9683798343132337,"27":0.04103675505550679,"28":0.8786318922677613,"29":-1.2501621038645827,"30":-0.3255339204284441,"31":1.496667152927115,"32":-1.5276424225905219,"33":-1.4341944387065146,"34":1.4337766881025538,"35":-0.15725651513546315,"36":0.3563314372293115,"37":-1.1317596627297064,"38":-0.1344911522167162,"39":-0.3032637918691411,"40":-0.727798275376886,"41":-0.6576485249817814,"42":-2.718239122188629,"43":2.2101989416116323,"44":-1.6244307813288208,"45":-0.3782773227098108,"46":-1.008753979925845,"47":-0.8719497931807266,"48":-0.6786238423042309,"49":-2.2805367179438063,"50":-2.9445557168791825,"51":1.4897853165044617,"52":-1.9912748764686858,"53":-0.14408931448597545,"54":1.494848399259014,"55":-1.3604007438750034,"56":-1.331513423964857,"57":-1.2196878360226908,"58":-2.6431947707468835,"59":1.6461885600697566,"60":0.9991231782665182,"61":0.7147681882605987,"62":-3.7436710724614137,"63":1.8048312541117748,"64":-4.556168079522291,"65":2.3536730783660023,"66":0.43812177746548814,"67":2.4828623793483713,"68":-2.2983053370389075,"69":-3.8732179560088236,"70":7.189760091783278,"71":-1.8932278353498015,"72":2.2936981039239344,"73":3.5019615723016044,"74":-3.462373658117103,"75":-3.373928462347191,"76":-2.9689859080301866,"77":1.914128909087879,"78":-0.800417637837993,"79":1.3724522359737852,"80":-0.7280077805687418,"81":-0.2325678993660188,"82":1.8897074698509113,"83":-1.1303053856343657,"84":-4.032639358370618,"85":0.3062842984120445,"86":-1.2528077253473204,"87":-0.8176555910041032,"88":4.919050187903271,"89":-0.846595077964654,"90":1.8273383592636951,"91":-0.862489962467167,"92":2.7102358334541554,"93":-0.9172493413088835,"94":-4.489042443627944,"95":-2.200752731210103,"96":0.5455030036614841,"97":4.507887129309918,"98":-2.487110401567429,"99":-4.037319505239271,"100":-1.4117001139678347,"101":-1.2674928232671356,"102":-0.38125282701983254,"103":-0.20673459764343838,"104":-0.002711823216048912,"105":-1.3155680268071397,"106":-0.19625661078766654,"107":0.2056240966513156,"108":0.3053947260483071,"109":-1.195148755973573,"110":1.305755660573232,"111":0.24041176017342644,"112":-0.8775059676239696,"113":-0.2873180048747731,"114":-0.11772426476387217,"115":-0.7823218143244796,"116":0.22436067670902185,"117":-0.1985564801325585,"118":-1.1216903224445045,"119":-0.3098318589754524,"120":-0.2735521401668683,"121":-1.156173373202743,"122":2.7211102547346186,"123":0.0121942409315335,"124":-0.8767578448282334,"125":-1.1091176644252752,"126":0.8513416070764509,"127":-0.703499988004878,"128":1.0762549502562695,"129":1.798176719365575,"130":-2.0446716873460726,"131":1.578479933051944,"132":-0.6510975480507962,"133":-1.3159737522648538,"134":0.6679104153984404,"135":1.5268889141942925,"136":0.8453343724186427,"137":-0.4996883694081466,"138":1.2572180775680528,"139":-1.690053574469746,"140":1.7755122351345343,"141":-1.1540473552396306,"142":4.266110677032381,"143":0.3128846566350484,"144":-1.7966785958582496,"145":-0.03761914418702304,"146":0.7428808667367339,"147":3.8390431822121207,"148":1.4167733925049613,"149":-2.802011842596128,"150":2.119748287234062,"151":-0.26646608081201806,"152":-3.2392828246692487,"153":-1.5527011956275805,"154":4.491813230502496,"155":-1.6952079195080207,"156":-0.5851448245560583,"157":0.7894430152719862,"158":1.2182330395752263,"159":-0.7419904552159884,"160":0.004409949909469538,"161":1.0639113042476838,"162":-2.310173112234057,"163":2.564917655194786,"164":-3.228378739447622,"165":0.8950096784884551,"166":-2.429157275824962,"167":-0.6803500320217759,"168":-0.6293692304589418,"169":0.18855554373421587,"170":-0.36511399256918875,"171":-1.2272016380979314,"172":0.644961191218635,"173":1.380305366531092,"174":2.009773696131,"175":1.0173156286569924,"176":-0.4588551090368974,"177":1.5605049929352313,"178":-1.9078998815361021,"179":1.2280046996209533,"180":1.0952480561364977,"181":3.8472224984263996,"182":-0.15620083388096917,"183":2.4267151954841704,"184":1.6932650441580102,"185":1.298568846168665,"186":-0.27756377230147994,"187":-1.9711333224579453,"188":-0.29764856789403066,"189":4.107546510385783,"190":-0.7311445960415008,"191":-2.2773386574337957,"192":1.687868931421185,"193":2.0931192958360945,"194":-0.914594217220399,"195":3.90221409871147,"196":-0.2838034416843874,"197":0.37854894528311683,"198":0.7744673321259097,"199":5.032894013005269,"200":0.39699837822717976,"201":0.3847466084353234,"202":0.3753518872254231,"203":-0.6588319755827332,"204":-4.227967356040953,"205":-0.38154688189358166,"206":-1.477326017943493,"207":-0.7191513018713319,"208":4.849316109373441,"209":-2.0781043486476154,"210":2.656448026798325,"211":-0.1198966943186317,"212":0.3128846805834747,"213":-1.97368364001393,"214":-4.652796337898974,"215":-2.5382398303365914,"216":-1.4820620060369591,"217":2.0939571116523887,"218":4.093897807739656,"219":-4.114281042668697,"220":-1.276583991992362,"221":-1.1537979117353752,"222":2.9713845062816593,"223":-3.3118849721900663,"224":1.207745087877895,"225":-1.6260133712388247,"226":1.1874550003866151,"227":-0.25736209492036477,"228":1.796576627198604,"229":1.1210126382771892,"230":1.1849544770955285,"231":2.18013418548495,"232":-1.078486439516365,"233":-1.7000258847778447,"234":-2.2145454700655365,"235":0.4028851951640141,"236":1.434986883439918,"237":-0.5117371709802769,"238":-0.7108620137440491,"239":-0.12747793088630704,"240":-2.706065489819708,"241":0.6887890313001201,"242":-1.106891786082541,"243":-1.3981359924562096,"244":1.1568792445612675,"245":0.7104587442871388,"246":-1.7591744511601515,"247":-2.051357789476307,"248":-0.9812608694502492,"249":0.5436771637452585,"250":-0.6178259628723823,"251":-1.1965452799096485,"252":0.5639895400689425,"253":0.7871519711044335,"254":0.44087140504126043,"255":1.9113243497059742,"256":0.9727613390832165,"257":1.3998591911100404,"258":-1.8462238150379888,"259":0.23388001607320807,"260":1.18723260263346,"261":0.25926332059345936,"262":-0.5619733730737352,"263":0.06852041176833398,"264":-0.2574557803623055,"265":0.07863523203656998,"266":0.13287916045516,"267":-1.4118229763573529,"268":0.9368942738195419,"269":-0.9688807675613643,"270":-3.0373445429124613,"271":-0.5821781549356857,"272":-0.08303069656833585,"273":-0.054043583263726276,"274":-1.230141002630965,"275":1.1217160027683424,"276":1.3325302257684428,"277":0.4639785208788668,"278":-1.7902333601434317,"279":-2.5679452581384417,"280":-2.1259219003287084,"281":-1.7092885989105433,"282":0.20102449721402593,"283":-0.403418177280933,"284":-1.615542808336434,"285":-1.6978076343080757,"286":2.105726737210387,"287":3.4395355501840847,"288":1.5914126416145036,"289":1.5655363303348988,"290":0.6144017233057285,"291":2.142553211217891,"292":-1.948946262248413,"293":-2.445496908471156,"294":-2.383495224413375,"295":1.3214165349321063,"296":-2.116843071701785,"297":-4.043895498876566,"298":0.799380327312653,"299":-2.528360888019582,"300":0.49344076048300467,"301":2.234413110264395,"302":-0.2418727289681601,"303":1.180383512549301,"304":-1.3339371486759297,"305":-1.9494393266082637,"306":0.054601156950634236,"307":0.6181294485002571,"308":3.385276690957348,"309":-2.578553582478652,"310":1.4109327304791235,"311":1.2184227536641565,"312":-1.7518720345119778,"313":3.713395742355471,"314":-2.8260540362717523,"315":0.35783050891088797,"316":-1.7759310386963307,"317":-1.8574498419664505,"318":0.14822536555687663,"319":-0.9883593194604748,"320":-0.22963659579208492,"321":-0.7071324229177748,"322":-0.040775188420588616,"323":-0.8067051146405116,"324":-0.7335942693148799,"325":-1.7529969519172568,"326":2.1707787480957674,"327":0.8582962520394819,"328":1.8716047307157928,"329":1.1457155348521484,"330":2.292888929252875,"331":1.4722914413591313,"332":-1.445216402976221,"333":-1.4634210169753648,"334":-3.783072510331963,"335":-1.256089618449401,"336":-4.364651325507689,"337":-2.2987398324181845,"338":0.16374236840077147,"339":0.6023392045927556,"340":-0.13173795039324335,"341":-0.22338212895643433,"342":-0.005204983762901541,"343":1.0063298015287818,"344":1.5587399230819743,"345":0.8296667124820076,"346":0.16300710859364162,"347":-2.329762459731802,"348":-0.15406866318030116,"349":0.6185463541800954,"350":-2.623624970713051,"351":0.13133456255878662,"352":-0.9051182997779442,"353":1.225319992409106,"354":3.8712683090893445,"355":2.453583097241334,"356":0.2782750890282605,"357":1.1133728255463502,"358":-1.3660188817357841,"359":-1.7519547944254772,"360":-3.459057996366854,"361":1.4889982996535143,"362":-0.7641759409828663,"363":0.9257174137590711,"364":-1.295010559195313,"365":-1.815823773954668,"366":-0.6154162720217714,"367":1.0072273854116511,"368":2.7018178684660525,"369":0.1649728783967459,"370":-0.9521840766844012,"371":-0.4130773055561433,"372":-1.7963376658698709,"373":0.15860378840094655,"374":5.545440366052111,"375":1.9097412085150767,"376":6.701244079323476,"377":1.5300105080116584,"378":-0.0468974885075227,"379":-2.4768186020907845,"380":0.18956890095780932,"381":-1.3497022342545177,"382":1.0879431341704364,"383":0.3727131320385177,"384":3.1975060672038604,"385":-1.426429202560487,"386":-0.1387537504211153,"387":2.875213204784554,"388":-0.04024115549602378,"389":2.1999160717561637,"390":-1.849351570710248,"391":0.9604962911552015,"392":0.13134824313012433,"393":-1.319744949844584,"394":0.25863240412695054,"395":-2.5421707403808322,"396":1.562529092783472,"397":-0.07724901327909789,"398":2.1461242731620938,"399":0.2980576614243821}},"forgetBias":{"rows":20,"columns":1,"weights":{"0":0,"1":0,"2":0,"3":0,"4":0,"5":0,"6":0,"7":0,"8":0,"9":0,"10":0,"11":0,"12":0,"13":0,"14":0,"15":0,"16":0,"17":0,"18":0,"19":0}},"outputMatrix":{"rows":20,"columns":29,"weights":{"0":-0.36272474304124613,"1":-0.49735841860479374,"2":0.024737336033035767,"3":0.27320498811663246,"4":-0.1341192627878668,"5":-0.3801942172273192,"6":0.17338895946786084,"7":1.5195050667876437,"8":-0.14787578722562128,"9":0.3540901801170451,"10":1.5325426377942089,"11":-0.7336555781270968,"12":-0.3084425647792682,"13":-0.4613424416588019,"14":-0.11203176386074075,"15":-0.3620990217319461,"16":0.28016328934145035,"17":-0.5055625730871107,"18":0.22866816535495843,"19":-1.0280370929464508,"20":0.6907919860669276,"21":0.10787632590402324,"22":0.013240478390566926,"23":0.08406762083462475,"24":-0.7909429675138336,"25":0.14289130619921925,"26":0.19260044066274343,"27":0.3313849160766043,"28":-1.2300873681127946,"29":0.2437960777746073,"30":-1.1821431342600688,"31":-0.944646685301068,"32":1.388217572315509,"33":-0.8923065236076424,"34":0.6093429136351609,"35":-0.5787544985915886,"36":-0.17690194870854328,"37":-1.5442428391515066,"38":0.3487179303333782,"39":0.17800590170462682,"40":-1.5929872956068039,"41":-0.6451112074153874,"42":-0.2234775223807982,"43":1.2648185620018455,"44":-0.5253246151608507,"45":-0.05255194803040879,"46":0.3085987098752357,"47":0.052626755755303574,"48":-0.9728618179987152,"49":-1.244950233916799,"50":0.4489338542556656,"51":-1.8106008221819283,"52":-0.640619911929969,"53":-1.3960766069735338,"54":-1.110159076947813,"55":0.7512154224634838,"56":-0.3948896433814676,"57":0.8191476416615867,"58":-1.1142580613092403,"59":-2.098927516744452,"60":0.3437236086822414,"61":0.9059600745861768,"62":0.2391909058310881,"63":0.40376576024747435,"64":-1.447515015057945,"65":-0.6492563855305871,"66":-0.6061602891632979,"67":1.044566338785167,"68":0.44892892646228266,"69":0.1408955099501816,"70":-0.45993885695623354,"71":-0.38900730447979326,"72":0.19399232097690605,"73":1.4413229605295776,"74":1.1084316281225486,"75":0.8165907428892455,"76":0.25753353528885947,"77":-0.11206871812143701,"78":-1.6285202592016723,"79":0.7336083276970307,"80":-0.8944821067133336,"81":-0.11341616998201688,"82":-0.536894687911648,"83":0.8890297485594816,"84":2.599764257821576,"85":0.2101176586852845,"86":0.9306911240247377,"87":1.523329177207889,"88":0.27504167097222965,"89":0.23064431116617498,"90":-1.1644277025299474,"91":0.04581289376704641,"92":-0.37979954663525317,"93":0.23479885856828667,"94":0.43799030330782274,"95":0.3851061673944857,"96":-1.027328790762061,"97":0.34830637549126364,"98":0.43047047136521804,"99":0.13646314573356927,"100":-0.3654425206447218,"101":-0.6364993826324096,"102":-0.137810757843863,"103":0.035085603304276756,"104":0.21376442802751003,"105":-0.7084651600982721,"106":0.018158682633430723,"107":0.4770150388412437,"108":-0.4845846875947933,"109":0.6998731305072116,"110":1.7103943528334111,"111":1.0566387951528085,"112":0.6112334565001628,"113":-0.4054706758857407,"114":0.14804835323694757,"115":-0.17934572741371085,"116":2.0561198647441756,"117":1.7685141791022865,"118":0.47615877670263884,"119":-1.4925018504358292,"120":0.6216036650879225,"121":-0.38560394159107153,"122":0.33007187556632106,"123":-0.0804922861359651,"124":-0.46859840116247303,"125":0.6008004903819713,"126":-0.25915623988355985,"127":-0.5225012227793115,"128":1.078720157420498,"129":-1.1660979442022972,"130":-0.9234996928113792,"131":1.3046265132890393,"132":0.33773013758750065,"133":-0.20190714447529268,"134":-1.1073428697368508,"135":0.5054720132406088,"136":1.2232895731034916,"137":-0.8751032830658557,"138":0.45569103069443684,"139":0.10912367600706069,"140":1.2517975315779915,"141":1.0443530874579343,"142":-0.37321708773273116,"143":0.6172608640768142,"144":-0.9159635574494265,"145":0.3606717633313072,"146":-0.9146133600517197,"147":-0.5498097191865351,"148":0.6194343845095787,"149":0.4088892376322984,"150":0.2637079484337885,"151":-0.8125394356798817,"152":0.5177829505526458,"153":-0.3950530678222976,"154":0.4021186904749485,"155":-0.5493487587633785,"156":-1.1630325663500176,"157":-0.5751381458143208,"158":1.0249147236661988,"159":0.4795473287636235,"160":-0.069187423943929,"161":-0.8181333405765868,"162":1.1104511325238051,"163":0.003947415164030512,"164":-0.34364425653952596,"165":-0.6576435089310645,"166":1.4766412130495605,"167":-1.224929499650479,"168":0.1732535567493562,"169":-0.7991014130777535,"170":-0.3017946686527419,"171":-0.037890666946578985,"172":0.4483292955573043,"173":0.3751834447974889,"174":-0.40710555120346065,"175":-1.0993058436391483,"176":-0.020885203107218194,"177":0.07009115208827603,"178":-0.3297589843588723,"179":-0.5606556341968216,"180":0.0469248793234832,"181":-0.4922824264281954,"182":-1.1315841341744386,"183":-0.950955425022839,"184":-0.4936373393195869,"185":-0.33029596412908474,"186":-0.8325681268973145,"187":-0.40370742346676003,"188":-0.18747958062911282,"189":-1.474979795151444,"190":0.4476503034403087,"191":0.01880953019845225,"192":0.18000885711422612,"193":0.4996991538344043,"194":-0.5632170346697141,"195":0.2559165928157488,"196":0.26681361172575413,"197":-1.0670368114699174,"198":0.37257331870129534,"199":0.8422356778053529,"200":0.9501186658845686,"201":-1.3762734767595055,"202":0.8720929258117851,"203":1.7711866626219206,"204":-0.8754203931197362,"205":0.38341392184824524,"206":0.8012720076751771,"207":0.9236003598250981,"208":0.1524865596744242,"209":-0.4122168358440803,"210":0.4070817352437244,"211":-0.20312416981783002,"212":0.47900061171697383,"213":-1.1571737002740345,"214":0.25786837972117865,"215":0.4444795659974052,"216":0.3810867855975774,"217":-0.6702090797393004,"218":-0.37293910063188007,"219":-0.11252450977796827,"220":0.16096251638764486,"221":-0.143700779326921,"222":-0.031038758998911235,"223":-0.3609611182163539,"224":0.4254895229547275,"225":-0.2745117060674932,"226":-0.009871630402164785,"227":-0.12751546012307888,"228":0.4442696211909057,"229":-0.5335629867287601,"230":-0.3357563170132962,"231":-0.3113035152130279,"232":-0.10825472702942877,"233":-1.2343256482720282,"234":0.711661447632031,"235":0.5398166445741871,"236":0.5892588212979122,"237":-1.0857721921942314,"238":-0.8621383151241028,"239":1.3200631825000408,"240":1.507711950024885,"241":1.1389300246412821,"242":-2.416081361495385,"243":0.13004144786118563,"244":-0.6264246039030663,"245":2.0239970910862444,"246":0.9400720111359523,"247":-0.8507127703231142,"248":0.16510421304795928,"249":0.019883214304588608,"250":0.34303764563524747,"251":0.5906634021170937,"252":-1.0835810959384324,"253":1.7049016612918972,"254":-1.3249160661654948,"255":-0.4318133959748057,"256":-0.44754898077264826,"257":-0.17456710860722224,"258":-0.5458432047049787,"259":0.3611802685859918,"260":2.618367578612283,"261":2.416154267648492,"262":-0.7219380954148983,"263":0.4135247187472035,"264":0.7720640592285821,"265":1.1075000370252537,"266":0.8444869999544666,"267":-1.5523716027572678,"268":-1.4849057771342662,"269":-0.6860828423892591,"270":-0.19568925175453883,"271":-1.5753340009138377,"272":1.6955422954003934,"273":1.323137612000114,"274":-1.0099561845899874,"275":-2.5209512583257667,"276":1.3847470857841533,"277":1.0070034897425582,"278":-0.25873005954033257,"279":-1.7872924829216694,"280":0.5598870519075184,"281":0.18903189916658766,"282":-1.5687609527258108,"283":1.5013805301510026,"284":0.9674942624707819,"285":3.6528291470408196,"286":0.22390384796949248,"287":0.25624915539539384,"288":-0.5965999419522687,"289":0.32317161810608147,"290":0.06669695870242989,"291":1.5138419933700606,"292":0.2759266719258287,"293":-1.5501913999138597,"294":0.6115275992924647,"295":-0.7341328418780617,"296":1.0544593828330746,"297":-0.4456368983761692,"298":1.117638920079274,"299":-0.1290883965329824,"300":0.6144778000788605,"301":0.9264953702109437,"302":1.5464331602882524,"303":-0.1347450347513248,"304":-1.1431309667927119,"305":0.8062389576648391,"306":0.1751263707010176,"307":-0.5966676126372226,"308":-0.6306634874806059,"309":-0.35839539236974244,"310":1.6814178709351268,"311":-0.5604849658018569,"312":1.7456273782708107,"313":0.6632694665620997,"314":1.593407226245351,"315":1.5636969686013154,"316":-0.6491415504721663,"317":0.24894507670196392,"318":-0.9428249796737967,"319":-2.339961906272422,"320":-1.219656165010005,"321":-0.4450343835161458,"322":1.3199407001897139,"323":-1.0548823442222064,"324":0.8200426377243649,"325":-0.44651997357830303,"326":0.9629653076207203,"327":-0.2185026754268942,"328":-0.7573588332193062,"329":1.080819466391805,"330":-0.1069183770590996,"331":-1.0356495384299949,"332":1.038398371722155,"333":-0.02568879389826799,"334":-0.49488471500376835,"335":-1.0639321385997997,"336":-0.1031112662407929,"337":1.1334377517819973,"338":0.30954084862754566,"339":-1.3427314132584731,"340":1.4711360862668075,"341":-1.0768766658971978,"342":-1.4118187041308448,"343":-1.0413455417775284,"344":-0.0618435322706193,"345":1.2709434613680946,"346":-0.6918904405743256,"347":1.8528132215153705,"348":-0.34163522478110525,"349":-1.240577450060474,"350":-1.4682971323052774,"351":0.013825981759306497,"352":0.8634938718064018,"353":-2.1327977700413405,"354":0.5212800605317964,"355":0.9229816153781911,"356":-1.190723811423987,"357":0.4590086800277648,"358":-0.6078787663283963,"359":-1.0930227067173963,"360":0.25139394599804227,"361":2.4572905281089437,"362":1.619520105086991,"363":0.6167106811569117,"364":-2.299670544458557,"365":2.744011497082732,"366":-0.41216051893715017,"367":0.06598176251997404,"368":-0.03174374107676833,"369":2.4346198481110197,"370":-0.9686889354231425,"371":-0.4005557478154404,"372":-2.477550853157006,"373":-1.374419305120036,"374":-1.1079584031873941,"375":1.4402393116421222,"376":2.3416541494037726,"377":-0.9224398763720575,"378":-1.8974053309121972,"379":-1.1908463125507296,"380":2.075819698142758,"381":-0.7575030731043406,"382":0.8867421859570507,"383":-0.06076161714365438,"384":1.2242472911572277,"385":-1.6859057207072088,"386":0.7982967444514265,"387":0.22801535892986932,"388":-2.099077744151009,"389":0.02045963763429323,"390":0.8714174059990296,"391":2.095282459687728,"392":1.2047270277677613,"393":-0.7464577920912586,"394":1.0549076332906813,"395":0.8066367979953648,"396":0.5684306178225209,"397":-0.5919421719218793,"398":1.1327906862171497,"399":-1.5555247148529925,"400":-0.9982100236740125,"401":-2.383882333821348,"402":-0.8215121035982854,"403":0.461488876318027,"404":0.1822731819363023,"405":0.5538867356343359,"406":1.6995211449026544,"407":0.5055552391192474,"408":0.2626704938210698,"409":0.2358046826861962,"410":1.1955596115233347,"411":-0.5105797010224965,"412":0.6534818803167014,"413":0.042996156865610986,"414":-0.5382106226813342,"415":0.16044614352836628,"416":-0.27791406194908147,"417":-0.3144334209695465,"418":-0.27285310448477246,"419":0.2301362237572962,"420":0.04746855029781595,"421":0.6709653591464192,"422":0.2835209038312437,"423":-0.3020666769656509,"424":-0.5460216714483507,"425":-0.06114765508137596,"426":-0.2224554474125165,"427":0.22577026212622317,"428":-0.19849255379330802,"429":0.8709693260745941,"430":-1.7046144937942342,"431":-0.31721553702380834,"432":0.7520711940443303,"433":0.46303813821834794,"434":-1.4868617815486633,"435":-2.369988130336717,"436":2.148458553651397,"437":-0.5265725758866863,"438":-1.2251960558706856,"439":-2.1298332647096014,"440":-0.5677307074095264,"441":1.0512331610155647,"442":0.025306805696341018,"443":0.7939258543628844,"444":0.526582953487944,"445":-0.9259604064567685,"446":1.1513056573872675,"447":-2.127941621598943,"448":-0.8422817698344917,"449":1.1190252503289073,"450":-1.6632323927917834,"451":0.16124678500313902,"452":0.43607856955431273,"453":1.123242145945699,"454":-0.6283765759347302,"455":-2.20559233602796,"456":-1.7736179885586534,"457":1.290753719136301,"458":-1.8556906390410863,"459":0.12126499731544645,"460":2.471441191961566,"461":-0.4393631838796035,"462":-0.952526244029493,"463":2.5134427979400833,"464":1.2694806374598078,"465":-1.6098662213633856,"466":-0.10624614950249396,"467":1.4732757354146204,"468":0.7431000359595671,"469":0.49497672858808134,"470":-0.14629309632604898,"471":-0.017507605326258956,"472":-1.6334363460034638,"473":-1.0420146382789999,"474":0.5312846315326692,"475":-0.9934445181790403,"476":1.3125373610832716,"477":-0.06458049818419935,"478":0.16726842053390378,"479":0.7430654067736076,"480":-0.7517914227698614,"481":-0.42514631945521447,"482":-0.9172956513272303,"483":1.3898054686442027,"484":1.4707393478918709,"485":1.0995015985962282,"486":-0.7825956803037769,"487":0.502626858712988,"488":0.34274948430816904,"489":-1.8337096823115318,"490":0.48402042402028694,"491":-0.27015013880028205,"492":-0.7508171351133689,"493":-1.7572842997981135,"494":-2.6438859554597274,"495":0.22591276963895227,"496":2.2968541570074805,"497":-0.6067907886774316,"498":0.8264619704686735,"499":0.17833695138542893,"500":1.3137773715343943,"501":-2.6240097078500395,"502":-0.034209631650993146,"503":0.8063611784381489,"504":-1.8486973883610132,"505":0.37325749031844646,"506":0.24402239173302356,"507":-0.013613200347143223,"508":0.996384414426406,"509":0.20947948131062125,"510":0.782550678431777,"511":0.049197318913828156,"512":1.537825074146994,"513":-0.2655980949846875,"514":1.7421868703030157,"515":-0.9371907102849987,"516":-1.29707697966049,"517":-2.0577309769158476,"518":0.13959234733464207,"519":2.2967142591637537,"520":0.8548294598308209,"521":0.2722962503833587,"522":0.1818056567820623,"523":0.13118093715986084,"524":0.35458289237706736,"525":-0.3478460924925615,"526":-1.112856255945898,"527":0.5337229867172286,"528":0.8842544154715325,"529":-1.1269439035104125,"530":1.5454238964992988,"531":-0.07677747080022067,"532":-1.052329690323622,"533":-0.008197856172460704,"534":0.06836045739935723,"535":0.8883651088801068,"536":0.24589858706645715,"537":-0.11769488770837777,"538":-1.317047304880121,"539":-0.5795922105997823,"540":0.4926256922078341,"541":0.0844924313626213,"542":-0.5981572921018986,"543":-0.4716120000167154,"544":-0.13146306556785878,"545":0.3318785077316541,"546":0.07904205053253249,"547":-0.8946066134442976,"548":-0.51995479987104,"549":-0.9106062168133697,"550":-1.1695272822792333,"551":-0.19604513541706015,"552":-1.2683129516697942,"553":-0.23031946501559142,"554":1.0120636395698384,"555":0.20485479223759936,"556":-0.4730747521898034,"557":0.16121102644494867,"558":-0.03256583698259459,"559":-0.9211112166969653,"560":-0.6927124166599711,"561":-0.7809194872492202,"562":-1.3193492529386626,"563":0.2167386797898664,"564":0.03446426310626765,"565":-0.45732509299315965,"566":-0.7919349539531065,"567":0.3022939256791123,"568":0.41294240224784445,"569":-0.3187624143892301,"570":-0.033536297750695054,"571":-0.15288008570176057,"572":0.6663926238965838,"573":0.32389692805885195,"574":-0.4553027711736351,"575":-0.8294986520808031,"576":-0.3778642038249482,"577":-0.16350543684831814,"578":-1.0399193032456318,"579":0.5772606921984188}},"outputHidden":{"rows":20,"columns":20,"weights":{"0":1.3864774775841164,"1":-0.4305397567765958,"2":0.9873784108030389,"3":-1.1869482319905738,"4":3.0822325716601315,"5":0.3401644953945647,"6":3.0358116003271496,"7":0.10170140633903756,"8":3.6299363649317957,"9":-1.3745074971531945,"10":-1.6642983677332497,"11":5.256352924229829,"12":-0.5032075050626605,"13":-2.47040814766453,"14":0.5660588148946312,"15":1.567175447193402,"16":-3.2786374501656246,"17":-3.8881128727562024,"18":-1.7783081617647456,"19":-0.4021952948664817,"20":-0.05462081411756622,"21":-0.15536725632038342,"22":-0.5024851136682961,"23":2.5654815026464495,"24":-4.178178321865067,"25":-3.0386916684469645,"26":-0.6039830100694945,"27":0.025373707609373294,"28":0.9026596986079536,"29":-2.539065292300353,"30":0.4199120688528536,"31":-0.8946714793278581,"32":-3.142510825476775,"33":-1.2394923116582348,"34":-0.2300438009241216,"35":2.4569900547726116,"36":-0.407503255397331,"37":-3.967344258532857,"38":1.7714435321164586,"39":-1.8122742513370838,"40":-1.4275310468141251,"41":1.5759738184053051,"42":-0.01616625223030663,"43":3.0753762694707727,"44":4.207541402631585,"45":1.0502674705946333,"46":-0.4214037401295469,"47":-0.3670296578057193,"48":-0.14688091958338506,"49":-2.6993651769300437,"50":0.6186352418009301,"51":-1.7653290209561094,"52":0.9784901730899821,"53":0.8765393926299153,"54":0.7609058641730684,"55":-2.9619340785609056,"56":0.882308418770082,"57":-0.31111389864796474,"58":-1.088850897170189,"59":1.1350782826462313,"60":-2.92486452434232,"61":-1.1386774283839403,"62":-1.9860304445116568,"63":5.574428185918376,"64":-3.423723273704863,"65":-1.0948145845106478,"66":1.5688324161088931,"67":0.09993307756673435,"68":2.2576393712451917,"69":-0.10139607757917811,"70":0.9902170513306197,"71":0.5213262742468514,"72":-1.1695251437777219,"73":-0.8518287976974117,"74":0.6889720130045882,"75":-1.5312894134908899,"76":2.5237153265450956,"77":-1.5057500309322112,"78":0.9154131121602646,"79":0.1141224877944309,"80":-1.3460486801559113,"81":1.9435314398025705,"82":-0.6857638277046688,"83":0.6766599443655924,"84":-1.4538339689688067,"85":2.6976347427040572,"86":-2.521212444557655,"87":-1.2908071734602615,"88":-0.7186277759881732,"89":2.3684642904667528,"90":2.4852968984975328,"91":-0.14037880570867772,"92":0.0883052835600259,"93":0.45607118851194006,"94":-0.07779969068255556,"95":-2.8956712831370854,"96":1.6471941478995893,"97":3.5866007957779633,"98":-1.2702378025819252,"99":2.3045326908682733,"100":-1.9624788432381641,"101":-1.0488285937410582,"102":-3.6378187003348925,"103":-0.7791477206238254,"104":0.5045420637384384,"105":-3.3279417432253537,"106":0.4550193695893214,"107":-0.7340151398984359,"108":1.9283094099729179,"109":-1.7082308797803911,"110":-1.1914029573776055,"111":3.8967998293347077,"112":-0.5418509563329388,"113":-2.851683632611852,"114":3.1442457334343867,"115":2.653592866067712,"116":-1.7886067118380822,"117":-2.543526042839449,"118":1.6991744235862096,"119":0.15516304533814781,"120":-0.10908904431698124,"121":0.23396718402017422,"122":-2.5353611539511896,"123":0.6439807900615457,"124":-0.8843317094565357,"125":-0.5407503807909884,"126":-0.7320824519903605,"127":-6.159559110827863,"128":4.187364267426158,"129":-1.9811015423551457,"130":1.2135646448196993,"131":-0.3329232113058526,"132":-2.466006090338384,"133":-0.8011377969298284,"134":-2.0436527495292527,"135":-0.770646954410618,"136":-0.05572732855806002,"137":-0.4575749347536098,"138":0.843887090931409,"139":-0.7070953888297169,"140":-2.17272179238111,"141":-1.004930314692681,"142":3.476839190101101,"143":-1.5835071091455073,"144":-0.16680218000796546,"145":-3.7769077907487034,"146":3.279303272743048,"147":-2.485089628003107,"148":1.068551833087801,"149":0.2639812536220429,"150":4.283016024910879,"151":-1.6300605057573105,"152":-1.5378139558166546,"153":-1.953992889249768,"154":-2.6173663365829034,"155":-3.52230141903636,"156":2.0512339685497296,"157":-2.4194868600252115,"158":1.1274150979819,"159":-1.6138860808324935,"160":-1.4342604307449986,"161":-0.8235625694933669,"162":-0.7612638365543886,"163":3.6171285246789537,"164":3.016560042810104,"165":0.25629179777755273,"166":-0.8085861928017923,"167":1.1056367773014473,"168":-1.2241730284778012,"169":1.7299961035609883,"170":-3.5011448910663727,"171":-0.12607336744122588,"172":1.5677882866173136,"173":1.2155960681694746,"174":3.7118530663430036,"175":0.8493011491390052,"176":-1.9032267282437771,"177":-0.884478580036454,"178":2.489981029135148,"179":1.600153372114186,"180":0.33167666418536224,"181":-0.017773938245423494,"182":0.3592982999525905,"183":-0.04934905445593741,"184":0.7382416718354838,"185":0.9882314360032469,"186":-0.48673739265658433,"187":2.537050180670039,"188":-0.17846066059056806,"189":0.23088028418566056,"190":3.733789355778116,"191":-0.42210813277212716,"192":1.3629283894863549,"193":0.11794249743651895,"194":-2.10131992148699,"195":-3.139240704201128,"196":-1.582834283255637,"197":-0.44408253058487845,"198":-0.6795435585014526,"199":-0.7853707968370013,"200":0.37460224597737807,"201":-0.17309313304796956,"202":-0.3414801784629762,"203":3.1881843333871522,"204":-4.244328534347344,"205":0.7609863904176493,"206":1.1596012588707396,"207":-1.8549714210823185,"208":0.5210406709112955,"209":-3.872756814690602,"210":1.8928447228115275,"211":0.04671681684802224,"212":1.8385649827840351,"213":0.7567132302962687,"214":0.3382233841178333,"215":-4.6010001033919,"216":-3.799166251232393,"217":1.004327940180243,"218":0.9876077213107383,"219":-0.43031415783377236,"220":-1.0430221224025717,"221":0.046252299263351206,"222":0.6590740336884793,"223":-1.1731304008133512,"224":4.472210434485698,"225":0.5642181178446517,"226":-0.686302226161104,"227":-1.344737987233231,"228":-1.4505479340006708,"229":-0.9605962301793083,"230":-4.923442435382165,"231":-2.1258078318531055,"232":1.3560092604077287,"233":-0.5377335816438031,"234":-0.9207463593041515,"235":0.7654768936419101,"236":1.1611098401087883,"237":1.8902407996888662,"238":-0.9581387906096623,"239":0.36216004430278037,"240":-1.4989867265040688,"241":-2.765316584995999,"242":1.2831685275620481,"243":-0.5501921415913343,"244":1.164054470688355,"245":-1.137008144489249,"246":0.4281851327671039,"247":-0.6649149833011732,"248":0.7289656728980289,"249":0.4988003940184728,"250":-1.1372564806484156,"251":1.2851682393343933,"252":-0.19340645041732626,"253":-1.9837436503019907,"254":0.07970864523352535,"255":0.26772383191963606,"256":1.8589125727125115,"257":-1.3020728088464666,"258":1.3764289224011839,"259":-2.2508038086767357,"260":-0.3708726890444717,"261":-1.2299609976186023,"262":-0.6609304188738059,"263":0.7465654354573784,"264":-0.9875163729073309,"265":-2.0505331460495175,"266":0.17956064095921878,"267":-2.1194173639018663,"268":1.6481776355465931,"269":2.2517551579416666,"270":-2.8750348644426675,"271":2.0594879085527276,"272":0.03104835338960695,"273":-1.552734547098039,"274":-0.08705020937532935,"275":1.8698890960542067,"276":1.0821176437221387,"277":0.8705409222201547,"278":-0.3239552079539918,"279":-0.254964075885347,"280":-0.5395932912624637,"281":1.0443661506255808,"282":-3.036927992581516,"283":-7.7691823684401315,"284":0.22905424449340572,"285":2.4390079410193355,"286":-2.2674646905902502,"287":1.4061819339226593,"288":-3.8169427783908976,"289":-1.654781856124068,"290":0.333821616939067,"291":-1.5371785675946654,"292":6.73565345905004,"293":1.904082546007466,"294":0.782779606377464,"295":1.3969354488615446,"296":-1.9890261717560542,"297":0.951886730529281,"298":-3.4328491454324506,"299":-0.844089830650444,"300":0.8705804838380427,"301":0.73499580390795,"302":-0.9098214539792795,"303":2.778359302006232,"304":1.3462843728917728,"305":0.6889524853134661,"306":0.08894234279893455,"307":-0.4901700807569885,"308":1.0643445054446192,"309":0.8947996034178504,"310":1.9814951992000236,"311":-0.8432713199205115,"312":-0.3723009895960481,"313":0.31916404344407184,"314":-2.003273390207769,"315":0.5254052563096547,"316":-1.3783052737538304,"317":-0.12816424831646286,"318":0.3790939194453354,"319":-1.8161870796284956,"320":-2.0651148099660466,"321":4.396075772109646,"322":-2.5122134969004115,"323":-0.04174483144165406,"324":0.274642077321427,"325":2.912689883892968,"326":-1.564042159960004,"327":-0.8051528373543743,"328":-3.0346591953377926,"329":-1.250355791076438,"330":1.7558179334027504,"331":-3.114664660150827,"332":3.923055902148375,"333":3.5939120919214425,"334":-3.1252195745436113,"335":-0.4804043735577109,"336":2.633412405637132,"337":3.373635777244767,"338":-2.777468385704165,"339":5.534612719452071,"340":-2.2986190280465455,"341":0.06619126068870644,"342":-0.29908960413215724,"343":-0.917087329050954,"344":-0.5311226978015154,"345":-1.3620534410968788,"346":0.7462494696779555,"347":1.2042853633382677,"348":2.0242770157447834,"349":-1.2191664790151284,"350":-0.4880652905330227,"351":0.3546579667762824,"352":-0.9496515772491807,"353":-1.866582858172081,"354":0.5055886497884854,"355":-3.3447940647813277,"356":-1.0018151511047482,"357":-0.21715670623342412,"358":-0.02936597175798359,"359":-1.9676083523053745,"360":-0.7399918294812432,"361":-1.1147487962441387,"362":0.5898268450017077,"363":-1.7184805484611028,"364":2.0550948241440303,"365":0.6271943217080689,"366":-0.21844872044463043,"367":2.6633908519529057,"368":1.0881675826366568,"369":-2.8077525545564437,"370":-2.106375244170417,"371":2.4673383268504048,"372":-1.431709005354204,"373":-0.937687178048948,"374":4.830405183786777,"375":-1.6136746456724271,"376":-0.5187453048654138,"377":-0.6784395230371411,"378":1.7867107080601985,"379":-1.2958125486283294,"380":-0.1931329000969459,"381":-3.7168409139499845,"382":-2.3819982490597478,"383":4.166136084008219,"384":1.2939033374234643,"385":-0.6158621179806233,"386":2.1046881684478724,"387":0.9305783742611968,"388":0.4007821474831153,"389":1.0505939313118053,"390":1.3838509646999158,"391":1.2477411221177452,"392":0.13755451117774628,"393":-1.5206918965060838,"394":0.7830647927223452,"395":-1.4964060331728386,"396":6.184092426509967,"397":-0.1285899078721468,"398":2.392288502930845,"399":-3.5429536460183604}},"outputBias":{"rows":20,"columns":1,"weights":{"0":-3.0962590045925085,"1":-1.8809406771319925,"2":0.8438355763255172,"3":5.850298926141639,"4":-0.06830176113595209,"5":-0.5574315399986858,"6":-0.7477014492309667,