{"type":"LSTM","options":{"inputSize":28,"inputRange":28,"hiddenSizes":[20,20],"outputSize":28,"learningRate":0.01,"decayRate":0.999,"smoothEps":1e-8,"regc":0.000001,"clipval":5,"json":null,"dataFormatter":{"values":["al diel shala","alar'annalas","ama noral'arkhana","anar","anar'alah","anar'alah belore","anar'endal dracon","anaria shola","and","ann'da","anu belore dela'na","aranal","arkhana","bal'a dash","ban'dinoriel","band'or shorel'aran","bash'a no falor talah","belono sil'aru","belore","belore'dorei","blade","by the","by the breath of the dragon","by the light","by the light of the sun","child of the sun","children of the blood","death to all who oppose the children of the blood","doral ana'diel","elor bindel","elu'meniel mal alann","farewell","father","felallan morin'aminor","felo'melorn","flamestrike","forest","gatekeeper","greetings","help me forget","high","high blade","high home","highborn","home","how dare you","in quiet serenity","justice","justice for our people","keeper of secrets","kim'jael","light of the forest","little rat","magic","malanore","may peace calm your heart","medivh","minn'da","mother","prepare to say farewell","quel","quel'dorei","quel'serrar","quel'thalas","ranger lord","rea","rise","safe travels","saved by magic","selama","selama ashal'anore","serrar","shindu fallah na","shorel'aran","shoulder your burdens well","sin'dorei","sinu a'manore","sleep forever","speak your business","tal anu'men no sin'dorei","taste the chill of true death","thalas","thas","thas'alah","thas'dorah","the sun","the sun guides us","they're breaking through","traveler","valor of the forest","vendel'o eranu","well met"],"indexTable":{"a":0,"l":1," ":2,"d":3,"i":4,"e":5,"s":6,"h":7,"r":8,"'":9,"n":10,"m":11,"o":12,"k":13,"b":14,"c":15,"u":16,"f":17,"t":18,"y":19,"g":20,"w":21,"p":22,"q":23,"j":24,"v":25,"stop-input":26,"start-output":27},"characterTable":{"0":"a","1":"l","2":" ","3":"d","4":"i","5":"e","6":"s","7":"h","8":"r","9":"'","10":"n","11":"m","12":"o","13":"k","14":"b","15":"c","16":"u","17":"f","18":"t","19":"y","20":"g","21":"w","22":"p","23":"q","24":"j","25":"v","26":"stop-input","27":"start-output"},"characters":["a","l"," ","d","i","e","s","h","r","'","n","m","o","k","b","c","u","f","t","y","g","w","p","q","j","v","stop-input","start-output"]}},"input":{"rows":29,"columns":28,"weights":{"0":-0.8660283395743347,"1":1.0040152208224626,"2":1.4238587918833805,"3":-3.4340912745875913,"4":-3.463200561543529,"5":-2.1131648417456863,"6":1.8562710959047344,"7":-0.5412641222705608,"8":2.1045479997566714,"9":0.649098954516135,"10":1.4072588403075215,"11":-0.8406614819000056,"12":0.46836917837862174,"13":-0.8113581342151011,"14":0.6074194087513501,"15":0.21045793792797757,"16":0.6125234996460547,"17":2.023889796885161,"18":0.12005746894329623,"19":1.8575215346794876,"20":0.36344175848797317,"21":1.1912782901752845,"22":4.794002096382513,"23":-2.7731736488406837,"24":1.4569776499551939,"25":0.6139903143253205,"26":-0.2172127902774285,"27":1.4030276904893209,"28":0.3025497866059127,"29":-0.2197539642567366,"30":2.422991901416552,"31":-2.04672944873013,"32":-1.576082176745212,"33":-1.0775916895797446,"34":-3.5150569119219215,"35":-2.43144082681773,"36":-0.6646107907780741,"37":-2.3431194445790435,"38":-0.14860276704026465,"39":-1.0466996260378483,"40":1.1517835416479845,"41":-0.6373115570799034,"42":-0.18641805459761718,"43":-1.2428417769423077,"44":-0.7623227423040021,"45":0.405372465051664,"46":0.8731425532183156,"47":1.5442471060357357,"48":-5.042946087022147,"49":-0.7009289583668432,"50":0.6721112388697554,"51":0.1822611161446073,"52":-0.08186513020925314,"53":-1.983374524384856,"54":-1.0165049914006588,"55":4.4588239979201125,"56":0.4471367194340042,"57":-2.832622702318861,"58":0.01485592521421198,"59":-1.2695012080035841,"60":0.0660303552497306,"61":0.08577566221870583,"62":0.35447584883012845,"63":-0.9168960711697802,"64":-0.14401138794341467,"65":-0.0027913770798785056,"66":1.7363407838004463,"67":-0.25454614268898484,"68":0.5283814758219699,"69":1.614639798129974,"70":-0.34157146553161205,"71":1.8591036918692974,"72":-1.4480922365313675,"73":-0.8373405273558983,"74":0.1608098278011952,"75":-0.3381609813595756,"76":-0.2521582892663909,"77":-0.14790661049449458,"78":-3.602998620801042,"79":1.6513921917830132,"80":-0.4948677543039855,"81":3.280170036609539,"82":-1.9776231409999412,"83":2.6087963027585537,"84":4.101352714949896,"85":0.8050439736999151,"86":-3.9005047953243905,"87":-0.27955638760531154,"88":0.15159843920544103,"89":0.7183482850161818,"90":3.938107771989072,"91":0.28110111195611515,"92":-3.803219311653382,"93":-0.15517634311865114,"94":-0.6144286918685681,"95":-3.413072739228335,"96":3.591608376938969,"97":3.392824414416146,"98":-5.340204454017205,"99":3.640516937020248,"100":3.994501131485309,"101":2.9128820818962655,"102":1.588805730736136,"103":2.3829934185345247,"104":3.219387202306332,"105":-0.34514081605126745,"106":-4.674741920089335,"107":-0.5444069838299173,"108":1.7637400864643782,"109":-0.8684289370474693,"110":-5.018692308143856,"111":1.3599880194372678,"112":12.305565122389943,"113":-11.155450191420753,"114":4.611035665638941,"115":2.088038345064028,"116":7.519330877646793,"117":-1.120540380534463,"118":2.774290911304686,"119":4.277879073433148,"120":-1.8294249487417957,"121":-0.43327779655682996,"122":-3.2405522580172463,"123":-1.586978675527426,"124":0.5923375534695388,"125":-1.9496010250415265,"126":-3.56810930108855,"127":-1.590068017069279,"128":6.881508399021966,"129":1.4428305097688292,"130":3.24053547162818,"131":-6.878451622302012,"132":-0.7591141015250781,"133":0.3204511150527926,"134":-2.9380848649762625,"135":4.535183206413849,"136":-1.7774537110563922,"137":-2.4025381884006602,"138":-2.212456915006099,"139":-3.2830253068955875,"140":0.6576979887642023,"141":-0.8492012442181289,"142":-0.23382979121388844,"143":-0.1203362607318827,"144":1.2972433839738235,"145":1.1254694125062605,"146":1.801279563278384,"147":-2.5368997105783966,"148":-0.16731469821442754,"149":2.5278306740003798,"150":-0.6626074800049503,"151":1.2193011009463504,"152":0.24963245400166623,"153":0.45976259179343737,"154":0.14807020835908435,"155":2.456363294639605,"156":-0.023549877902685527,"157":2.8737167330304065,"158":1.4905967289247493,"159":-0.5439260863790606,"160":2.9874298659969973,"161":0.35471042214900245,"162":-3.726791931433378,"163":-0.4144040755291194,"164":1.6536304862125146,"165":1.1218551437914446,"166":-0.0932915297798573,"167":-0.6151448323189407,"168":-1.0020435269793546,"169":-0.357745298960046,"170":0.20526827717756202,"171":0.6812585481183663,"172":-0.5902255645595355,"173":1.0310124407177952,"174":-2.19594626551797,"175":-1.9503346515178757,"176":0.2630853528343141,"177":1.4869525434545714,"178":-0.3367088956946686,"179":-0.16310134315489613,"180":-2.093248207956669,"181":-1.3855473850465472,"182":0.06133818921936174,"183":-0.5009305346837142,"184":0.11246201549149573,"185":-2.7803588972308932,"186":-0.06187476569135034,"187":-0.05129856892324177,"188":-0.1771289314841005,"189":0.39064903933272604,"190":1.4115037351692825,"191":0.14038803612271575,"192":2.380736244055157,"193":0.04538456130222927,"194":-0.63269339012593,"195":0.8217420699061093,"196":-2.719568075836564,"197":4.783369377667683,"198":-1.6592367091329567,"199":2.281618825953387,"200":-1.069819552127618,"201":-0.4442029595522171,"202":0.9711298879749827,"203":1.0800713135659021,"204":0.952113337060017,"205":-0.0951301979779351,"206":-0.06220020393072569,"207":3.070191838869709,"208":0.5145417285955657,"209":-4.002381770732028,"210":0.9521474966184141,"211":-3.463891711655089,"212":-2.995576998068014,"213":-0.9058037115563682,"214":-4.099573942400342,"215":-1.9250410301016232,"216":-0.6324684552661806,"217":0.18862106770503637,"218":6.393446716207734,"219":0.2630538914961346,"220":-1.0486970315666841,"221":4.521633244430744,"222":1.5620922284648338,"223":-4.048767536391612,"224":-0.07184077903939988,"225":0.1241979541819563,"226":-1.0847672999827176,"227":-0.41676510354738555,"228":1.0025998712043218,"229":1.5458527066536856,"230":1.3928204836884748,"231":0.17325315563324364,"232":-1.279669207498027,"233":0.0972717042148821,"234":-0.42126723714716824,"235":-1.1931047907674868,"236":-1.549832065127793,"237":0.391912539683946,"238":-1.1442469912502857,"239":1.9535737372381934,"240":0.7372418242353234,"241":-0.007232448903537191,"242":0.30358978372503115,"243":0.24670135191562279,"244":2.110911438274555,"245":0.46934021147987093,"246":0.5749111424645312,"247":-2.3766341040667496,"248":0.9779533379179282,"249":-0.380857781499488,"250":-1.4170868333064917,"251":0.2328917792059888,"252":-0.0681830750625437,"253":-1.7466064916219648,"254":-0.506541870948488,"255":0.7039337547499869,"256":-1.2812960454292166,"257":-2.187686871554759,"258":-0.19130916325756378,"259":0.45758177291694013,"260":-0.7053116577412896,"261":-3.338883151659315,"262":0.5821702019870271,"263":0.03030650709810447,"264":0.19858935157902396,"265":-0.8055009670651165,"266":0.5945589344913689,"267":-0.34995161306598077,"268":-0.1782158793144875,"269":0.4545192453704755,"270":-0.5161351913086847,"271":0.15424363193002705,"272":-3.7220512816735534,"273":0.6267293501472604,"274":0.15542014640724675,"275":2.5673964602509463,"276":0.1470678712546457,"277":0.09363859014852667,"278":-0.4616655748211829,"279":0.6106915847848127,"280":0.005653761077881062,"281":0.11871094943041546,"282":-1.0818952032460005,"283":-3.7620379971299562,"284":0.09242315828418424,"285":2.037783995242493,"286":-1.1887707247207402,"287":-0.7957039057242592,"288":-0.5422349337828174,"289":-2.1923792873021197,"290":2.867397728458748,"291":2.385203778452723,"292":-0.6621519178946536,"293":1.6345470699585347,"294":-0.6479758203266988,"295":-1.1584048755469631,"296":-3.168068082931084,"297":2.091380054514427,"298":-0.2120603119854546,"299":1.2342451982127702,"300":0.752223921586644,"301":-1.2460936849425432,"302":1.764369296043847,"303":1.3882063318080797,"304":-2.352309917023952,"305":1.1583815402039697,"306":-1.7124310171766177,"307":2.2076386745838827,"308":-1.3613863697089332,"309":-4.938247533812035,"310":0.6593000019535498,"311":-0.7898553418961632,"312":0.5512452219763344,"313":-3.9256373228103816,"314":-0.580703482489384,"315":0.14730680059330786,"316":3.1835467592183657,"317":-0.5566515356389845,"318":4.292680302064885,"319":-1.9601721326750303,"320":-1.2465574630286373,"321":-1.1803734173438463,"322":3.4581546320003778,"323":-1.9657027517188999,"324":-5.39104377226812,"325":-2.9974207749496267,"326":-1.571496803171864,"327":-1.611458604763722,"328":-2.713525574220065,"329":1.0481486054974625,"330":-3.0840816482493514,"331":4.602794033038618,"332":1.133266985833159,"333":0.8734903583746392,"334":-3.489660072546777,"335":-2.9162581433231556,"336":3.540133238490604,"337":-9.444644726718924,"338":-2.0992506878429853,"339":-6.289293354193347,"340":4.553336716132196,"341":3.3361048167985494,"342":12.820208141024938,"343":1.7904638442133132,"344":-3.910931039688845,"345":7.589194552677239,"346":1.7434472787881512,"347":-1.8385668672317872,"348":2.9348807442348916,"349":2.9715834685508753,"350":-2.4551664442809713,"351":3.8890521014116457,"352":3.2194184489114037,"353":-0.20558375470957335,"354":5.3797494790464295,"355":-1.6074701060815946,"356":-0.24860061713791215,"357":0.23262872133022805,"358":-1.7461866333732765,"359":10.214061839907961,"360":1.1423808721659165,"361":-3.822496059688121,"362":-2.6064525447519635,"363":6.544202210432974,"364":1.291948702645565,"365":-1.683649917031516,"366":1.0366482588463817,"367":-0.5858910317411598,"368":1.948817217971298,"369":-0.4564292055951791,"370":-2.0920975535118953,"371":-2.2994028254344463,"372":-0.20629270320005336,"373":0.14817983833253984,"374":1.2964397241224364,"375":1.2049326150959523,"376":1.361694865306715,"377":-0.17782237518207775,"378":0.40845778031852586,"379":-0.8557082233603968,"380":-0.0159752701346473,"381":0.8722320541205522,"382":0.7348532948338737,"383":-0.22706439547515425,"384":1.22976217150717,"385":-0.7124885007715868,"386":1.2530574516070265,"387":-0.9527041964016147,"388":-0.13915895693679467,"389":-0.46099222195873335,"390":0.6439558523199187,"391":0.7410760459852074,"392":-6.534325209770818,"393":-2.90386873311699,"394":-2.5913820527505385,"395":5.674261683396132,"396":-0.3571173459014653,"397":1.9460464676467344,"398":-1.2408631568257722,"399":2.5119230342566308,"400":-7.91020327050157,"401":2.696994882498899,"402":-6.641729152780229,"403":7.182577173159457,"404":6.925552364536301,"405":9.081513126738496,"406":0.934790615548152,"407":1.3896703736583687,"408":7.585525531787984,"409":2.1363163331831605,"410":-0.9308714375124678,"411":6.867500564687942,"412":11.061794292105459,"413":-2.197645945571989,"414":-7.8733443398215055,"415":-6.107973676983732,"416":5.000807203677251,"417":-0.05848233115061986,"418":-4.049080319728891,"419":-7.896931997685081,"420":7.8821702579948765,"421":-4.27802012556475,"422":-2.4416876862076182,"423":1.9192320754979917,"424":2.238662819700335,"425":1.842854876686797,"426":3.1058163597895954,"427":4.3980297208162975,"428":0.11707080781858614,"429":2.740488618537998,"430":1.966439201016597,"431":3.0372975673784484,"432":-1.528127996624094,"433":4.259327401716255,"434":1.0139237944274144,"435":2.393777602762561,"436":-4.249074416926053,"437":-4.543041545383002,"438":1.7510303590173968,"439":-0.5785587204721157,"440":6.231459218603538,"441":0.5765824856324137,"442":-3.7919798732982155,"443":1.2338537097156244,"444":-3.66085534280911,"445":0.5347604189906409,"446":-2.4987535838721193,"447":-1.1657788369616344,"448":1.445875217624474,"449":4.586496093804356,"450":0.5745705034765516,"451":3.912100284794473,"452":-1.8303053378272793,"453":3.322597331987311,"454":2.9432007081271943,"455":-6.919540844767306,"456":-2.7116089924983986,"457":6.703983694879109,"458":2.0779238339559707,"459":11.305426085887534,"460":10.224637962319335,"461":4.463604128156348,"462":-3.5654769065662406,"463":9.011114184094557,"464":-0.5514952606563065,"465":-5.301598989602081,"466":2.904321901301202,"467":3.723975951023445,"468":4.149848817358398,"469":3.29291015220919,"470":0.2278230318112202,"471":-7.6513721814951365,"472":1.5878187781240893,"473":0.3955319562920806,"474":-5.009921373567707,"475":0.9105690583820331,"476":0.18765252939556637,"477":2.0227090091068276,"478":-2.0128488304230054,"479":0.938610867547439,"480":-2.8751362767996684,"481":5.1659028618346525,"482":-3.2776155381894645,"483":-4.763806892334675,"484":0.014416002615946501,"485":6.36772288175343,"486":-4.762853054176192,"487":0.16842296906916598,"488":-7.599867149140417,"489":-1.3557904435070913,"490":-1.780234678008061,"491":-0.2702800774385544,"492":-0.992798076817518,"493":-5.767272909051925,"494":1.3863439180704917,"495":2.201853908837297,"496":9.369519674827856,"497":1.4386320662415784,"498":4.779989498696975,"499":2.2103942570162705,"500":-2.3210358026458384,"501":0.40564119185932745,"502":-1.1838874920147253,"503":1.446327947917163,"504":1.6197081822954775,"505":0.5227189660347095,"506":4.555715732325503,"507":2.9007858520230796,"508":-4.360175467724616,"509":2.2282608742195493,"510":-1.080148647172898,"511":-4.353673095111456,"512":1.0130516900851783,"513":2.287090783029169,"514":-3.051761033172183,"515":2.529683348600688,"516":2.013723272417076,"517":2.381435097351505,"518":2.3764653063393926,"519":-0.4941184898675347,"520":3.2116581184727044,"521":-2.3786396041551403,"522":0.7027107176848437,"523":3.121520181374704,"524":-4.402312703611963,"525":1.4475724989852072,"526":2.971816098330314,"527":-3.508849219253347,"528":-0.06951721781760507,"529":-2.4748367400240743,"530":3.5626493918234385,"531":-5.772329800392619,"532":0.8096679181677425,"533":-0.09379937458496361,"534":-0.5723773078847035,"535":-1.1562343381811542,"536":-0.9472422210573329,"537":-1.400696066980899,"538":-2.6262809715358237,"539":-2.6038109791465303,"540":0.13017797785917112,"541":0.09619735440251416,"542":-0.8548789547709184,"543":0.23777619189565563,"544":-0.9967118419824704,"545":-0.4329838514510029,"546":-0.37043633952375493,"547":-1.2198278565309588,"548":-0.5527237915288861,"549":2.7126079411045536,"550":-0.2525768943034399,"551":-0.49942360602492747,"552":0.8255109791968374,"553":-0.4931490670342238,"554":2.6425810354050716,"555":0.6760639788647114,"556":0.1795850468324559,"557":-0.2032109878697755,"558":-0.059745494883961164,"559":1.0460105068635888,"560":-4.649822773460311,"561":4.776952646102715,"562":-2.7829772073708265,"563":3.747275405020894,"564":-3.805619145332365,"565":-1.4460633049665017,"566":-5.908616344217898,"567":-0.9858716829000551,"568":-1.461402526004337,"569":-12.308833370430754,"570":-12.225847755237078,"571":0.3991434176520957,"572":-9.010210723652847,"573":6.699595022467359,"574":5.496976890420436,"575":-7.653479230159472,"576":-0.41011220645771357,"577":4.833000323030152,"578":-2.5972666090987317,"579":-4.871219066978837,"580":1.6707188834064632,"581":0.1793514801599308,"582":1.2233211818170415,"583":-0.47160050020457284,"584":3.036406907417162,"585":1.9502714566160475,"586":1.9472485213600064,"587":-4.252281053014925,"588":-3.113123169326,"589":-0.6888849264387383,"590":-0.7044975656105085,"591":6.743374977465492,"592":-1.1646143121615284,"593":-1.8776849802641482,"594":-0.7879713969210196,"595":-2.025284212802031,"596":2.22959194525747,"597":1.1533567654080186,"598":-4.657556110144038,"599":5.120310696143109,"600":-2.094549969118015,"601":-0.6551432257046418,"602":2.9612880494917584,"603":-7.842826410683127,"604":1.8092367332359456,"605":3.1401693883504036,"606":-4.068922650725731,"607":-1.7109667371894157,"608":-0.5953760129489875,"609":-2.688997074924266,"610":2.3887949506012363,"611":0.7410638377918348,"612":-2.648125811730444,"613":-1.1247677714836686,"614":4.78699266547905,"615":-11.451965961345644,"616":3.2984553849773697,"617":3.1322997598560534,"618":-6.466811756202189,"619":8.408861530680223,"620":4.408473840348464,"621":1.7500643098755087,"622":-0.7632290526247243,"623":-3.5752833626731557,"624":-5.1770341757043115,"625":4.01755018020856,"626":-9.342156068179053,"627":-2.3804553620933646,"628":-3.5488831858275933,"629":-6.604885620108434,"630":-5.277939313507809,"631":7.05868774742849,"632":6.62173837738431,"633":13.299338651581252,"634":1.8461492477030899,"635":-2.3047459708598663,"636":9.889092555187416,"637":-4.7616011368667355,"638":2.5262199861429835,"639":-2.9381782263146268,"640":-11.024033703043102,"641":2.0060204028573025,"642":-8.55188286556191,"643":4.674545022018766,"644":4.8450090499777,"645":-1.8926094149538089,"646":-0.9945861197056068,"647":-4.509144574349975,"648":-1.1615853260455133,"649":-6.214177191130405,"650":5.564441028006668,"651":9.260042581843077,"652":-1.8683674785781683,"653":-5.89525185328255,"654":10.920074524911898,"655":-0.8147472740378889,"656":3.8437239336575337,"657":6.990642504171135,"658":-3.2406903269877887,"659":7.337709600003741,"660":-5.476970551515252,"661":9.706572669784006,"662":1.741737983451614,"663":5.4155438604143775,"664":1.4788459489902162,"665":5.515883670143538,"666":-6.711454427931015,"667":4.412475425623986,"668":-1.3453897386448594,"669":3.7257544696378093,"670":-10.23620139493084,"671":0.46832535338781245,"672":-0.12729089811897587,"673":2.36869626549254,"674":0.6526240747255825,"675":4.650643319399877,"676":6.643347576924062,"677":10.408224398166523,"678":-1.981995770884966,"679":-0.29858482343951603,"680":-10.951622868537195,"681":-5.790266802361718,"682":1.8697233966896125,"683":1.6057026786642616,"684":4.53977782057399,"685":8.25113365984111,"686":-3.791913221577882,"687":6.637228144727406,"688":3.0342284513900863,"689":-0.6144225226941696,"690":-2.2105622725821927,"691":-8.362661922490137,"692":3.8458767627208896,"693":-2.0920581067123964,"694":-9.409463937434026,"695":7.433607061695706,"696":2.233813146917115,"697":5.7236306564494726,"698":5.644835388865838,"699":-0.8405140551373331,"700":7.747151352862018,"701":8.360268140623097,"702":-4.474192507809409,"703":-8.246847656988775,"704":7.468089066915017,"705":17.240076308429437,"706":6.4693097185665085,"707":7.135647250795667,"708":2.422281182923447,"709":-20.313605699866052,"710":-0.9225698668906215,"711":-13.146932463725536,"712":-5.9130754818724975,"713":8.903068652784935,"714":-15.165283068947172,"715":13.49372751863604,"716":1.5596580262480033,"717":-0.5797059398429326,"718":1.453681576384807,"719":-0.9964056039796608,"720":-11.244825404699474,"721":-5.026120784284286,"722":-14.278206936930266,"723":-0.6842474660322108,"724":2.8338830246928928,"725":-1.5469887751613076,"726":13.986294036092758,"727":2.1424523721153554,"728":-5.28108535986514,"729":-0.03441734654305703,"730":2.052038131866164,"731":-8.311028185114004,"732":1.726608201886414,"733":-4.987135836994776,"734":-5.016451027762997,"735":4.290593360483171,"736":3.3656105456306267,"737":1.2027129756543555,"738":9.294852328361381,"739":-8.484478972015378,"740":-2.5864433583530073,"741":-4.400771202657852,"742":3.2943216686709955,"743":-5.8830850833354225,"744":10.056279723822799,"745":5.480912792238985,"746":-4.775274704950149,"747":0.6289926294758608,"748":-11.43393870562959,"749":-5.821646132311636,"750":4.735177678844471,"751":-4.464431023784713,"752":5.022116362783656,"753":-4.708318803163467,"754":9.730737109113448,"755":-4.739533831857428,"756":-0.19063721814792628,"757":0.009825913814667152,"758":-0.31119398860039327,"759":-0.8255976844923545,"760":0.9972012231773416,"761":1.1667396611639802,"762":0.36443508074235376,"763":1.0880424522873908,"764":0.3066663103665411,"765":-0.13263987423828924,"766":1.2416901697320528,"767":-1.01087094869246,"768":0.9989639122835928,"769":0.00895634016780479,"770":-0.47512755127433187,"771":0.06687939857954783,"772":3.7526874712546485,"773":-3.18763982324693,"774":0.18855764780524675,"775":-0.0528580798085385,"776":-2.359559937312648,"777":1.119109635003483,"778":-0.6506701407606316,"779":1.7785077820452713,"780":0.5705768087713902,"781":-2.1386635061037724,"782":-0.13462325115046864,"783":-0.5801601399331843,"784":-0.025186440414021002,"785":-0.07927151957334176,"786":-1.2031532070247601,"787":-0.5168943948687005,"788":-0.07391040395423341,"789":0.88297796998431,"790":1.0764427195641013,"791":-0.49131414291753644,"792":-0.2293985507722357,"793":-0.686321750177214,"794":0.2525074353571617,"795":-0.40503141635002016,"796":-0.06907157644769127,"797":-0.9953444264235536,"798":-0.007231122431372169,"799":0.3723702373044078,"800":0.09823092723649084,"801":1.5929538956494709,"802":0.19666376739458896,"803":0.2528387054896658,"804":-1.4119649842458972,"805":0.5334004484357218,"806":-0.23655149021889532,"807":-0.02596888980248395,"808":0.890305467698715,"809":-1.1207626866968907,"810":0.5965286171718276,"811":0.1692005634972101}},"hiddenLayers":[{"inputMatrix":{"rows":20,"columns":28,"weights":{"0":0.6253723650710485,"1":-4.532865103013317,"2":3.9150449680056427,"3":-0.01828224505469611,"4":1.5097413063954357,"5":-1.6891117903832444,"6":0.3660957429478979,"7":-1.4068594831578467,"8":0.11162302209791977,"9":-0.14424560726686297,"10":-3.2713665862932158,"11":-1.8946681269081094,"12":0.3782735567610948,"13":-2.031676969880915,"14":-0.04242382287947337,"15":-0.2735446043028927,"16":0.9617956680252215,"17":1.5892090154781922,"18":2.4851201297386605,"19":-1.4900300508666884,"20":-0.7697717890905262,"21":-1.04858239518277,"22":-0.9722447354594207,"23":0.8680163792464709,"24":0.562299335421335,"25":-0.6825461362953078,"26":-2.1909465686092786,"27":4.226558725303714,"28":0.6912532933146829,"29":0.11066087476529182,"30":-0.8587804422026986,"31":-2.064526059415958,"32":0.41629101768951937,"33":0.044261656755682464,"34":0.9120237834594598,"35":1.78879581984341,"36":-0.8602230495031044,"37":-3.253738672500928,"38":1.153279888913884,"39":-3.057970577435012,"40":-0.14324124284087567,"41":-1.2141076495354721,"42":-0.3977079150439107,"43":-0.0590431253840033,"44":-1.3195209577854987,"45":0.15078503470555416,"46":2.007835067241409,"47":-0.2187315599695177,"48":-3.894414380971113,"49":-1.0546786274424231,"50":-1.9992388408181136,"51":4.349219715176896,"52":-0.10393719094970612,"53":-0.07430145208783016,"54":0.6203483430868569,"55":0.3250551772701941,"56":0.9726969977172051,"57":-1.1205472581049787,"58":0.7905085998469197,"59":1.1674061023757571,"60":-0.37617604100553054,"61":-2.360592825092651,"62":1.0899972147050283,"63":0.6673509432988445,"64":0.942830075071658,"65":1.6621246334453215,"66":1.3482202390647613,"67":0.8549082617983198,"68":0.6053109842498794,"69":-1.1562617856904553,"70":0.5775566821769179,"71":0.2321472805494445,"72":1.2244908477493741,"73":1.7506078603037174,"74":-0.23375601309746438,"75":0.2946647208007714,"76":-0.9926622040247592,"77":0.18294177123593838,"78":1.0884569429713002,"79":2.000151122761494,"80":-1.0727171547303906,"81":0.9100253875426759,"82":0.9513745907532459,"83":-0.6880336896793393,"84":0.11514732649648386,"85":1.5441741871822778,"86":-0.2082460699077714,"87":-0.6822499968965575,"88":-0.9829660797443664,"89":-3.010472055118265,"90":1.6785925362535248,"91":-1.113634238591314,"92":1.4394181133781527,"93":-2.7173427123767,"94":0.14398530044733202,"95":-1.6189579218833117,"96":-1.9921766331663124,"97":-2.3705148258443245,"98":1.4233929021102363,"99":-1.2919993400614072,"100":-0.5147255650679221,"101":2.0371820757340786,"102":-1.6355841167773724,"103":1.1495367294382044,"104":-2.994377028174123,"105":-2.2481835895784323,"106":-1.2043911757131902,"107":-0.8545741073370116,"108":-0.7483208629718706,"109":0.09155692868743893,"110":2.872131927736033,"111":0.45430299441883,"112":-0.33471076711303926,"113":-1.8102904988912623,"114":2.4256313867042114,"115":-0.42952021905740156,"116":0.010009792738816357,"117":-1.8559079736587385,"118":2.6051985306120837,"119":1.202249235586271,"120":-1.277695801363596,"121":-0.46324585020025466,"122":-1.129253042717244,"123":0.4834324982954979,"124":-2.683527317588996,"125":0.5832232326553186,"126":1.0862372937694216,"127":1.83642999660196,"128":-0.604346566312228,"129":0.6383385098918387,"130":1.8319873045447779,"131":-1.7148973704750818,"132":0.06998212573421664,"133":-2.200479013096422,"134":-0.045534263346045906,"135":-0.5808403869523971,"136":1.6257787660850591,"137":2.499495052144143,"138":-1.0674320620409954,"139":1.7281613731805654,"140":0.2520570830887056,"141":-0.6099175386587986,"142":1.1832948370549699,"143":0.7197485391472191,"144":1.6233292949607807,"145":0.6851325548092156,"146":0.00478144086181191,"147":-0.3372623553315416,"148":-0.8635216318034821,"149":0.7003082521543154,"150":-0.4515917080882033,"151":0.8019408385391577,"152":0.3829643414177808,"153":-0.8098489058444435,"154":-0.18370124432873566,"155":0.9983042440995068,"156":2.5504895494694777,"157":1.0052184707655998,"158":1.9388717736138137,"159":-0.33792864954944707,"160":0.597211165102634,"161":-0.7387133773744352,"162":0.36227859925665945,"163":-1.0200243105999314,"164":1.3010036607433209,"165":1.441597340587633,"166":-1.2186507876506294,"167":0.7656157955311997,"168":-0.5777776376307647,"169":1.6160280130093687,"170":-0.3863321928545101,"171":-1.216418959398647,"172":-0.9245745415039182,"173":-1.5410206893890543,"174":-1.3106829693318884,"175":0.04058018245441134,"176":0.9078999693994595,"177":-0.6567257057220928,"178":0.15308665138444094,"179":-1.4150917705862596,"180":-1.3702577190993357,"181":0.027353105788177727,"182":0.3715820594973444,"183":-1.6206099860991903,"184":-2.2858772560935607,"185":-1.4214022870327836,"186":-0.7803000329068962,"187":1.4549314585685635,"188":-0.8055201558604341,"189":-0.10398704030974519,"190":0.4653409150997018,"191":-0.6680272812244514,"192":-1.6117273716721356,"193":0.420286077328936,"194":0.739278274094457,"195":-0.19506223731290537,"196":0.40860209606172476,"197":-1.0628250664920815,"198":0.8789798927110484,"199":-0.5712224699961584,"200":0.8030916391313476,"201":-0.26439766241579565,"202":-0.44967516201836255,"203":-0.3037851822494346,"204":-0.6540902228115875,"205":-0.5207105477239724,"206":-0.4994883090126413,"207":-1.0150774534435838,"208":0.2921354966234535,"209":0.6713422645054627,"210":0.033937133596027666,"211":-0.10276903643168023,"212":1.8805598775180685,"213":-0.05416262846778273,"214":-0.7504183983711473,"215":-0.6140189260911713,"216":0.49403865647868084,"217":-0.020972838143097226,"218":0.043727879426132404,"219":0.4927318750513022,"220":0.17890034852439435,"221":-0.7663167734390358,"222":0.5929833954175492,"223":-0.780751573154043,"224":0.3210442362005632,"225":0.06952086705532637,"226":0.23840067836263906,"227":-0.4413688339160803,"228":1.9574075463832383,"229":1.142318960877288,"230":0.4514607607318982,"231":-0.13563250976109134,"232":-0.21898421558150255,"233":0.6010317820453444,"234":-1.1954351420330975,"235":0.03268509262366458,"236":1.9905115319600204,"237":-0.7372087201213583,"238":-0.4900214846648222,"239":0.13084171621050877,"240":2.783142511428937,"241":0.7862451954485354,"242":2.256799534274031,"243":0.0953365933641134,"244":-0.3844106517869311,"245":0.9642633898430453,"246":0.1070017526483735,"247":-0.39922131583120796,"248":1.017925184988199,"249":-0.3324095948097893,"250":0.6338547149246232,"251":-1.5401963646757444,"252":1.8715537550529393,"253":-1.859801098896886,"254":1.1077719653282698,"255":-0.23505569625772624,"256":-0.6194205093557944,"257":-2.315960485352921,"258":-1.4709712613925705,"259":-0.2510718958244372,"260":0.4634273976083029,"261":0.5840853319829971,"262":-0.38240465572045057,"263":-1.360455250282664,"264":0.43804903546088036,"265":-1.647210585766877,"266":-0.14032528050782142,"267":-1.3112237830255788,"268":-0.9927364139846714,"269":0.35569484400691465,"270":0.15127060167268516,"271":1.0649403975324585,"272":0.5192640024459154,"273":-1.2492020016516212,"274":-0.7958051820219191,"275":1.3040406572201544,"276":-1.1867094260130477,"277":1.2031436437914738,"278":-3.322218896281694,"279":2.948289475224228,"280":-1.0064505597509439,"281":0.37630936371271745,"282":0.6248420733577954,"283":0.05131322483506146,"284":-0.2101641517040308,"285":-0.10722799825309519,"286":-0.27255336827117466,"287":0.5387575320334078,"288":0.3168639239771984,"289":-0.7402294529229384,"290":1.2940194063997466,"291":-1.6375616613045125,"292":-0.4399939302046584,"293":0.09348170473205496,"294":0.191180851772458,"295":-0.39695352820396873,"296":-2.3685195118417695,"297":-0.22757376875421162,"298":-0.0276447818244753,"299":0.2103843512838572,"300":-1.492851961790541,"301":0.8303651878420961,"302":0.7350525265161345,"303":0.9104155715034321,"304":-0.7292139438060106,"305":0.29047173548605026,"306":0.48856321032800193,"307":0.8077121822320776,"308":0.06441108412358847,"309":1.5421169169926718,"310":0.5425961379409024,"311":-0.640565335517358,"312":1.3760547252150803,"313":-2.149978669541767,"314":2.0066291480294196,"315":1.218747040959424,"316":1.60674584326622,"317":-1.0287707248700082,"318":0.4119538468797955,"319":-1.1583818525943872,"320":1.3438354982680845,"321":-0.9600889525777684,"322":-0.5485472382843865,"323":-0.7458473095177621,"324":0.039434979429034525,"325":-0.3675482368491892,"326":-0.45685765924692034,"327":0.6876281083530673,"328":-1.7180752893918327,"329":0.4348253299203746,"330":-1.0628040740989497,"331":-0.08085912760681488,"332":-1.0306979536612535,"333":-0.9941159909960103,"334":1.4879078365083758,"335":-1.2008740571466816,"336":-0.4134782086020485,"337":-0.6544313829141198,"338":0.6257576682836247,"339":0.4260219302409734,"340":-1.4130980134056828,"341":-0.38954139359426815,"342":-1.0120408762373927,"343":-2.181729213339262,"344":-0.7121446490571353,"345":-1.0943048341286508,"346":-0.0368157356300197,"347":0.6688342832841063,"348":-1.020243638099934,"349":-0.8016481245159318,"350":0.29264425850979,"351":-0.9607044092335111,"352":-1.1201088738824716,"353":-0.2774618265702111,"354":-0.9630144890103371,"355":0.48016201766444205,"356":1.681701768271145,"357":-0.7890617617629065,"358":1.1787409022318993,"359":-0.7360755932102149,"360":-0.7988620701294212,"361":0.6175662469683666,"362":-0.3068736835492075,"363":0.8680276046780231,"364":-0.7184223909609975,"365":-1.4927305085649762,"366":0.12389557389620245,"367":-1.7587867473822436,"368":-1.0215818048447143,"369":-0.7796527344157023,"370":1.8571065115594545,"371":0.43501675667945294,"372":1.5516982107263901,"373":-0.2977503419306611,"374":1.5115627090702313,"375":-2.5676110145005757,"376":0.988207650391722,"377":-1.5592613672573894,"378":0.7134944979696639,"379":-0.05976677515147864,"380":-0.8799536923436306,"381":0.3599917393667057,"382":0.523103238140456,"383":-0.12725669548572366,"384":-5.218419964658103,"385":0.146952533365527,"386":-0.96142868389443,"387":0.6087132576155607,"388":1.052277329883039,"389":-0.43975286338144104,"390":0.9093660006885156,"391":-0.6578783493329317,"392":1.8098403593794117,"393":-2.6475414991571378,"394":-0.30823943097682915,"395":1.481052151111701,"396":-0.30698729395021923,"397":1.7884858746526087,"398":2.755591173591936,"399":1.7198828526864336,"400":-1.1144345839554215,"401":0.4370313153178692,"402":1.8468298222604234,"403":0.5663299640856667,"404":-0.1260911380753913,"405":-0.37893228727238465,"406":1.4582044260608074,"407":2.79050765063077,"408":3.577454639654084,"409":0.3711010687884545,"410":0.7020039879494963,"411":-0.07321940835056821,"412":0.10063760607411575,"413":-0.5829574726205876,"414":1.0437956121146885,"415":0.42186468815417066,"416":0.5791468983950341,"417":0.9558053730685435,"418":-0.22412608269946888,"419":2.0104407755809106,"420":-0.1268908134198244,"421":2.8139657291274984,"422":-1.7685952647807401,"423":1.058501438185937,"424":0.08219694474424104,"425":0.7996011921689865,"426":0.24865574025694856,"427":0.3424628580849616,"428":-0.4679788434904626,"429":0.8652162485991176,"430":-1.5717671661388832,"431":0.2766541027283622,"432":-0.6779207565296719,"433":2.2222154507926035,"434":0.010820765558745737,"435":1.0276923377692315,"436":0.13116896940168982,"437":-0.1142864473826681,"438":0.8315389578085562,"439":0.15111731237730286,"440":1.2196752202563534,"441":0.014634451450146017,"442":-0.9876429304036496,"443":-3.372889926311687,"444":-0.08509116982192476,"445":1.4346964458806832,"446":1.5373175020000374,"447":-1.0078157355200994,"448":1.9452425810613716,"449":1.4903525206425037,"450":-1.5179674056572727,"451":-1.8236597804256558,"452":0.5326555306803167,"453":-0.43289207713213906,"454":1.2830587154236797,"455":0.7406893286045418,"456":-0.3338582899488147,"457":-0.6986733383655475,"458":-0.4347343685650256,"459":-1.945421938312431,"460":0.922379188758402,"461":-0.5964901765504276,"462":-1.324719091610748,"463":-1.735882892339932,"464":-2.809741346130147,"465":0.341048598638755,"466":0.7707854090027663,"467":0.1927782206272334,"468":0.004922025877799585,"469":-0.19463210634102066,"470":0.13995770403240204,"471":2.3664536403920255,"472":-2.009618003998143,"473":-0.8462445178051539,"474":-1.3306722707368974,"475":-1.5081997967174683,"476":0.39348080000132307,"477":-0.35596624018296164,"478":-0.7601148412950992,"479":-1.6957775952576732,"480":-0.2735740222088563,"481":0.3793766180742822,"482":1.8013927730922263,"483":1.6948291836970346,"484":-0.20009172225559438,"485":-0.2787650294720122,"486":1.2947211635126012,"487":-0.30499595691762815,"488":-1.0634411134049346,"489":0.1599817080841886,"490":0.1577962604336211,"491":0.5275280119606812,"492":4.017001669596507,"493":1.9564440625920054,"494":0.3533688780176233,"495":-0.45508868829240573,"496":-0.3342087098102458,"497":-0.11375462993254307,"498":0.21700434724451848,"499":1.2964702096393836,"500":1.5567184769662425,"501":-0.046771657382031,"502":1.16219847263352,"503":1.1351972341640406,"504":-0.3624894328702859,"505":0.0072643313704406345,"506":-0.906286103833374,"507":0.03642530385246461,"508":0.7148952990446149,"509":0.9942907571344953,"510":-0.5239659157370778,"511":0.4203813963253217,"512":-0.4281744618727262,"513":1.0248480797648738,"514":1.3372969453671106,"515":-0.037894795456804214,"516":-0.14294056564942423,"517":1.5271754660071597,"518":0.0321540321303987,"519":0.7318749462925273,"520":-0.1545549074341605,"521":-1.6891760211684879,"522":-1.2551014383292851,"523":-0.055045959863999946,"524":1.7266293864052185,"525":-0.13746016615818638,"526":0.02195771392347111,"527":0.25972038108392753,"528":1.2023198465884006,"529":-0.25580576537303484,"530":-0.1842901905040573,"531":-0.07133422079029281,"532":1.1496000765157477,"533":-1.3210663847621822,"534":-0.16451417684356448,"535":1.4870505393682236,"536":-0.6768771397410537,"537":0.5082642212401507,"538":-0.912189618780841,"539":-1.2401733769621508,"540":0.03596825256273824,"541":1.5955953964952272,"542":-0.43540729937543216,"543":3.3064170393784043,"544":0.684673393721297,"545":0.24541269863793735,"546":-0.598202210215859,"547":-0.16277679810168286,"548":2.7236452362198014,"549":1.5369910322349598,"550":-1.4206166881652795,"551":0.029222067622916705,"552":1.7975258376614902,"553":-0.9689222907356098,"554":-1.5571083149769698,"555":-0.19724932884438676,"556":-0.09744506708043581,"557":-0.868163133060516,"558":0.0696909393327622,"559":0.574718153778091}},"inputHidden":{"rows":20,"columns":20,"weights":{"0":-0.29446738300369135,"1":-1.0113359864936204,"2":1.026582698792086,"3":-1.4416219384069333,"4":0.5351364391410885,"5":3.6357376759505766,"6":-3.8132451490454904,"7":4.918761091997602,"8":-3.7719919589712543,"9":-1.0149850474853417,"10":-0.24883591206059688,"11":-3.254218054652261,"12":3.0793452297345407,"13":3.3108200480798073,"14":1.3939846589974614,"15":-1.5239136173576981,"16":1.4635889621098037,"17":-0.3670910034678766,"18":-3.165372302021768,"19":-1.1619027570046685,"20":-1.2269968747163489,"21":-4.121562712508941,"22":0.06486867292134002,"23":-1.789001730089022,"24":-1.16756964766376,"25":-0.5658459018981407,"26":-2.130106830902204,"27":-0.6007706058420068,"28":-1.027477142200479,"29":-2.5110124943616023,"30":1.9294946907991084,"31":-0.8046611802229253,"32":-0.034868458907317094,"33":-2.7608037164836605,"34":1.0358553567209439,"35":1.1106811373686838,"36":0.18798748592861747,"37":-2.818335320690722,"38":1.5557123434629312,"39":-1.6330833057014644,"40":0.4561980028200879,"41":0.44893017849792316,"42":0.3268521715414614,"43":0.6039336292467867,"44":2.1492072798085755,"45":-4.2271197834894165,"46":-0.9431015403077244,"47":7.310348372142782,"48":-0.9290754873694383,"49":4.039092465226627,"50":-0.9631725235258718,"51":-1.2116647558878622,"52":1.7657994181728967,"53":3.546165269721032,"54":2.8311375904119807,"55":-1.5163237298851995,"56":5.918500220202584,"57":-1.5113960562406208,"58":1.0863225873060207,"59":3.9519883219409015,"60":1.9895033330112595,"61":-1.4762067414569475,"62":1.7705917762654402,"63":-0.9390316762408609,"64":-3.132988750099822,"65":0.7932859622865994,"66":0.21066828344902735,"67":2.427077729681725,"68":0.7864223114563725,"69":0.3612667556378366,"70":3.4200695726819617,"71":-0.6461660161309456,"72":3.5243206501156306,"73":0.9385126643158289,"74":2.6320334077797147,"75":-0.9152740634978814,"76":-2.7226008292219444,"77":-2.9521692804866304,"78":-1.858717170903485,"79":-1.1111351095753585,"80":-0.0901380198191175,"81":-2.196763431095362,"82":-2.2379618336261573,"83":-0.4207730313096096,"84":-0.03268539418426343,"85":-2.1300980994931233,"86":-4.330617325081877,"87":-4.0017905105513085,"88":0.2317020734773478,"89":2.779127393596804,"90":-0.6917547826377194,"91":2.3539930378696043,"92":3.448873943826374,"93":-1.9132142844875628,"94":-3.2616824416545174,"95":-1.9818064954338395,"96":-3.4767635851517533,"97":-1.5684388227544674,"98":-0.5426480181191753,"99":6.578119772863976,"100":2.8719548693434653,"101":6.208920676745824,"102":4.79899620486612,"103":-0.8723216786612356,"104":0.040647278911817804,"105":-3.6823373895434117,"106":1.115269713066722,"107":2.285199685408609,"108":-2.6833340498993987,"109":2.3053561080675693,"110":-11.764134637394475,"111":-0.18998115565613008,"112":-1.8229933838814025,"113":3.706762368422731,"114":-5.648354583286913,"115":2.029487081476971,"116":4.118934816215611,"117":-0.9315355958160283,"118":-2.9709697861171445,"119":4.611988300132406,"120":1.8797212568666297,"121":1.5779122192457131,"122":-5.4191692242378835,"123":-5.489325064458206,"124":-4.918614604961171,"125":2.166534388630065,"126":5.162841254261227,"127":-0.86737666794125,"128":-0.9116145327643338,"129":-2.1054520887388692,"130":0.07089027611934545,"131":12.230016393498632,"132":-3.1102021092657806,"133":2.507327941243886,"134":1.2236730716192843,"135":-3.1766393423599832,"136":2.63793757768814,"137":-2.2835374054134157,"138":-5.582432269917176,"139":-3.211563217653594,"140":-2.8677314614108558,"141":-5.549077593078668,"142":-1.6077713317958435,"143":-3.381003905949389,"144":8.46200122028681,"145":-3.1277293562516673,"146":-5.36057224524189,"147":-3.295870316916643,"148":-1.729481645411468,"149":4.679675520424777,"150":0.88144416598435,"151":-4.239420867125488,"152":1.9254246654805285,"153":6.113883316600055,"154":3.061254673625388,"155":0.35578735699375436,"156":-2.6354822771133835,"157":-1.4897616723066336,"158":2.922587796701906,"159":1.99483777406784,"160":-0.8842325723927922,"161":1.4691964413660772,"162":3.8551677845979886,"163":0.25046588796818703,"164":-3.077350930129885,"165":-2.2091255171018274,"166":-0.9139902017595158,"167":2.7226070834906495,"168":-6.1244411885409376,"169":0.785528353103912,"170":-7.677927171521152,"171":-0.01966113013975611,"172":3.5746002873530514,"173":-5.215346875236658,"174":-1.6703399041004858,"175":1.4246368869759407,"176":3.571618709044782,"177":-0.9981730558799738,"178":-4.960840948726318,"179":4.282719288876678,"180":-0.15206162940574286,"181":2.051558695244072,"182":2.0954104199875587,"183":3.155837614439876,"184":1.3778605569241391,"185":0.9885499998127082,"186":2.1180387202149857,"187":-3.8042641726269544,"188":-4.537854696948622,"189":-4.34810612347195,"190":0.4579898684869796,"191":-1.174853229083787,"192":-3.7979972298571316,"193":4.8749187537706185,"194":-0.15439200555055832,"195":4.886311767514953,"196":1.1239504620080856,"197":-0.08106552540800202,"198":-0.10989267477718895,"199":2.2499469070597486,"200":3.1519104046068644,"201":0.13572850280874538,"202":2.0889802402068987,"203":-1.806716123164454,"204":-5.274523260825145,"205":-0.8829573688364023,"206":-0.28884251146972867,"207":-1.5723926273438464,"208":2.765272617094504,"209":2.920449394713159,"210":2.301754824432043,"211":0.5812865594315003,"212":1.8368554590698178,"213":-1.1354386690051652,"214":-1.2818291758777758,"215":-2.4149345244200884,"216":3.679554059528521,"217":-0.8161467024338582,"218":-2.4937572763735183,"219":-10.031609195379874,"220":-3.1858602306471937,"221":-3.816825251441538,"222":-1.9015730433076103,"223":0.13422344380914666,"224":0.11970771926634861,"225":-2.167989738580072,"226":2.137912191191278,"227":-2.010529241537643,"228":-2.992414760760694,"229":0.7782265578184637,"230":5.352259487049598,"231":-0.10763181463031152,"232":-0.6115341389360489,"233":2.5205092119950248,"234":4.086237819598572,"235":0.7472554368150548,"236":-4.07862110097932,"237":-1.8250566360280793,"238":4.7050622894488,"239":2.66242346523871,"240":1.8539332233599812,"241":-5.155700669420572,"242":4.939092982298143,"243":-6.409342155100367,"244":-0.3819566317791357,"245":0.5187778377104104,"246":-7.311164244081382,"247":-0.20253299200092553,"248":1.8933922740342226,"249":2.5755058564325446,"250":10.747619799287202,"251":-1.7715800884461013,"252":5.7980582224346096,"253":-1.6265058211327188,"254":2.5796495700706727,"255":1.9883076126534633,"256":-0.12427712547249987,"257":-1.845610490664064,"258":5.949840237960455,"259":2.9998498635237225,"260":-0.8715375603377272,"261":-1.4492007289012097,"262":0.5112711427859408,"263":-2.471903185840023,"264":-3.0577131984002013,"265":0.5932585689434198,"266":0.9844377640918586,"267":2.817666531175215,"268":-0.5556674429175565,"269":1.6683658125965364,"270":1.3250901453250523,"271":2.091604764069339,"272":-1.7925216962213038,"273":0.458249653644661,"274":0.475556400342535,"275":0.3230024428134549,"276":-3.772343077993867,"277":0.1771772879409334,"278":3.418899135418876,"279":7.369811811206455,"280":-1.7406436788446207,"281":-3.591125532475866,"282":-2.0174921750458625,"283":0.8458923049425129,"284":-0.40094551285801355,"285":0.3108090206404148,"286":-2.4941143188091703,"287":-0.08985528320963868,"288":-3.3782141078255705,"289":0.33097959654761755,"290":-0.4362753265590356,"291":-2.646616960203222,"292":-0.09442715712557628,"293":-2.47922038694017,"294":-1.34499127336592,"295":-1.1532606510108465,"296":0.9602196218897284,"297":2.902988354357496,"298":1.7486580728196883,"299":-0.7005472729563055,"300":2.766906138551808,"301":-3.2682923573652776,"302":-1.3443477027011026,"303":0.4455095388054614,"304":2.031487301796523,"305":1.9407422780054304,"306":-4.527306573375674,"307":-0.08302377180227972,"308":-1.292403667668055,"309":7.808744228766428,"310":0.3703230435799179,"311":-1.4586573869354116,"312":1.4152145286911768,"313":0.7131755802038614,"314":-1.3139486875101833,"315":-0.03665778245702721,"316":-4.393675562013068,"317":-0.7550513895744381,"318":1.5449672714769838,"319":1.1643571727842599,"320":-2.4758136227208505,"321":-3.9876617637953484,"322":-1.5201245934522023,"323":-3.4925676332685627,"324":0.6811447302456799,"325":-3.5918326515661683,"326":-5.778696546033911,"327":-4.98738538854549,"328":1.6059136173327315,"329":1.8108252695223532,"330":1.0065481334171442,"331":-1.14609983415004,"332":2.76215181933309,"333":-0.23794668981509162,"334":-5.785305910624881,"335":-0.07784655798058286,"336":-0.7266779674253583,"337":0.7517477371686572,"338":-0.24547160546041025,"339":8.764713014261602,"340":4.350524750801894,"341":-2.404364462867509,"342":-0.02632281622158129,"343":-3.0873385790300873,"344":2.796355442774627,"345":1.6122702970613612,"346":-3.3448770365206513,"347":1.8531616281133139,"348":1.6132316576758876,"349":1.3606713233572383,"350":3.8237359523231076,"351":2.3010174235490832,"352":0.3318386526333038,"353":-2.64293008907186,"354":1.2507715602800107,"355":-2.1591705254754245,"356":-7.4830275921224025,"357":3.8257253117248444,"358":-0.7853092424300446,"359":-0.8391441131208033,"360":1.3222061447700362,"361":-2.259937388312032,"362":-0.10022747020004702,"363":-4.7421637968574135,"364":2.0309367704945323,"365":-5.214140741130927,"366":-1.8003352272592688,"367":-5.78739524050368,"368":2.2386660594558903,"369":7.210104108342977,"370":-1.485677340270027,"371":5.959987855684506,"372":1.3213372980591467,"373":-1.7696645852847,"374":-3.6927320389907914,"375":1.0012387605304949,"376":3.57690484234262,"377":5.225007354727861,"378":-2.75504632496092,"379":3.8820499053375706,"380":-4.002157022504189,"381":-2.680361998678803,"382":-0.874962028933108,"383":-3.398003852088822,"384":1.7828347413114853,"385":-1.6830241429506236,"386":-1.192594352397348,"387":-9.51460252800236,"388":-2.0473946290742404,"389":5.239047255978792,"390":-1.9426222578320362,"391":-0.18357074008620983,"392":1.5396094709139447,"393":-2.8498436008062127,"394":-0.2595061383037001,"395":6.255177715004325,"396":-1.0502293016491602,"397":2.9158423653337358,"398":0.9038796666248774,"399":2.23424879791246}},"inputBias":{"rows":20,"columns":1,"weights":{"0":-0.4883730859527104,"1":-2.903131193501834,"2":0.8218707316420936,"3":0.00781390453781629,"4":-0.30242193084239344,"5":-0.46021593135245425,"6":2.145928798873575,"7":-1.6299012811198144,"8":-2.4970679778699547,"9":6.086770124900052,"10":1.110189364158106,"11":-0.028970206823561544,"12":1.975603950698531,"13":0.37729422218093467,"14":0.5623525276567691,"15":-4.2814734467239335,"16":-1.1766362695660801,"17":1.1322947179153657,"18":-0.18110393578543982,"19":-3.986103086561064}},"forgetMatrix":{"rows":20,"columns":28,"weights":{"0":-3.2679464035113703,"1":0.3407796896470367,"2":1.2309051889789748,"3":-1.4074602784473533,"4":-0.09974089807065072,"5":1.5676206538874708,"6":0.7972036478518574,"7":0.7958418183493138,"8":0.925887560608529,"9":-1.81862725786133,"10":2.471534629429257,"11":-0.8992763298289648,"12":-0.36916234932740466,"13":0.6112712382201606,"14":-0.7981564897703814,"15":0.4908948487907871,"16":-1.8111544656939826,"17":-0.8239370335043664,"18":-0.5972953427064043,"19":-2.019987060259991,"20":-1.712087022952468,"21":1.1530302161115729,"22":0.04729169552596989,"23":2.235818516840945,"24":1.6497652018056381,"25":1.102363044234232,"26":-0.3065581624798203,"27":0.6329062165371141,"28":-1.101640869218814,"29":0.7687492936512589,"30":-3.1699306700159298,"31":-3.485950779569985,"32":0.18366429370417767,"33":-1.7601538715741254,"34":0.6007329733282959,"35":2.4427583482120965,"36":-2.843272423349176,"37":-1.1111100399551166,"38":2.0673273237786987,"39":-2.4199971314186435,"40":-1.2551380937194185,"41":-2.5538297226383997,"42":-2.499142898940231,"43":2.244806732995877,"44":-1.3210363232099087,"45":0.6447700411282377,"46":2.3492313052304525,"47":3.2133905897235455,"48":-2.192701196905327,"49":0.8459064008544256,"50":-1.163111568104818,"51":-0.16500089988568453,"52":0.7465339551939268,"53":-1.3095914719131536,"54":0.5482991052320123,"55":1.4322059996990366,"56":1.27049329722104,"57":2.7501660030837733,"58":-1.3786732507257649,"59":-0.3085591139520177,"60":1.5397789989425663,"61":0.6020006163084882,"62":1.918911515242752,"63":1.1062422206816662,"64":0.726718888585453,"65":1.4212785626859386,"66":0.17334902676973027,"67":-1.1242504552763255,"68":1.346944740360169,"69":-1.1071437422126031,"70":-0.6685680288668837,"71":-0.05539554380037531,"72":2.4149127913526423,"73":-1.0920688260478106,"74":0.5823037469304917,"75":0.0021599166486942502,"76":-2.3192657872819713,"77":1.3619114858261407,"78":0.42860254053202074,"79":0.2344798897123647,"80":1.320538104845509,"81":-0.7191321690798391,"82":5.54375703716888,"83":-2.2831807871612013,"84":-0.6314058234282803,"85":1.9339866252122688,"86":2.3528172140208543,"87":1.1179935107070573,"88":1.2145397584907114,"89":-3.205129227933261,"90":1.5659710432766512,"91":0.9982958010227639,"92":1.822878073852656,"93":3.6972655452800898,"94":-2.11604785415335,"95":0.3196844664680714,"96":1.0487964609477531,"97":-2.3602158258526464,"98":-1.3138495778949315,"99":-3.033572787848657,"100":-1.7672214838559148,"101":-0.6464125328430714,"102":-0.9818204561704114,"103":0.33862671274674033,"104":-1.2517146470344829,"105":0.8971534848735436,"106":-0.8351135365090937,"107":-0.2283215866599728,"108":0.18114456493120062,"109":-1.3296632864981348,"110":1.5474424041660106,"111":-5.305699041676888,"112":0.5217736740197133,"113":2.088039699054549,"114":0.1061649193925562,"115":-0.499433694679741,"116":-0.19353128130183017,"117":-2.971665740941374,"118":-0.1363269320336028,"119":-0.16919060862344903,"120":-0.5896862143725191,"121":-1.7775380979185775,"122":-1.1679570551998322,"123":-0.5902674524332371,"124":-0.6364461420331186,"125":-2.854168779822114,"126":0.17495524431528658,"127":-3.0163635481292843,"128":-0.5620294325511737,"129":1.6973330113229346,"130":-0.7251840599664133,"131":2.8429783046012576,"132":-1.3862415503502472,"133":-1.6886310796784152,"134":1.2377981559857207,"135":-2.349755037152616,"136":-1.8250367084979564,"137":-0.17600907603274382,"138":2.101372264853992,"139":-0.7440074390549666,"140":-0.4324817784839859,"141":5.104947440220442,"142":-2.808034715915416,"143":-1.8554997309037615,"144":1.3534028961589175,"145":-0.3898518554701102,"146":-1.2540831078982244,"147":3.839595283716992,"148":-1.281844514561854,"149":-3.1195256398768945,"150":0.31867586278287546,"151":-1.3573583825515676,"152":-1.8047370745507842,"153":0.08430156111251104,"154":-1.1008569111452826,"155":0.677917026147252,"156":2.224498739339957,"157":1.084273222680177,"158":-4.394551681378666,"159":0.17469193781641185,"160":-2.2698898189979593,"161":-0.6196144788871267,"162":1.9415131970626902,"163":1.003418540602189,"164":0.6691226405140487,"165":-1.7913476655218497,"166":4.232395121130965,"167":-2.1143953856801536,"168":2.562087888026175,"169":-2.102789341317664,"170":0.9693935115426267,"171":0.4380249482416485,"172":0.528261402427974,"173":0.9644618575437301,"174":1.2483719253919197,"175":0.8561714996268455,"176":1.3747222292415406,"177":0.05960935905432316,"178":0.9257229427732296,"179":-1.4477539085912465,"180":2.686732374199774,"181":-2.2815767742462194,"182":-0.8952463654535424,"183":0.3456317707304697,"184":3.1314585262012535,"185":1.6757008926974863,"186":1.9499856955895296,"187":1.103666061124716,"188":-3.275810525973566,"189":0.7778649013162703,"190":-2.036336136243671,"191":-1.847761289409961,"192":-1.2338118527930761,"193":-0.5313379820532959,"194":1.4027215806789188,"195":-1.2766486200266678,"196":-1.752770124819255,"197":0.2246946562729408,"198":0.516882531038653,"199":-2.139200207554311,"200":1.6405428988767652,"201":-0.8678206115076282,"202":-1.7657444845646875,"203":1.07041408510764,"204":1.6563792831304982,"205":1.2092648931114118,"206":2.3988893385730234,"207":-1.6819816860182337,"208":1.4942130203276265,"209":0.15843334045594432,"210":0.7659394218709619,"211":-1.0890179400289735,"212":-0.7086681010319648,"213":-2.8537572591550266,"214":-0.9072791989835488,"215":-2.353178800794773,"216":-2.337444288926431,"217":-1.4030354541770482,"218":1.6330470608861059,"219":-0.9988229160423318,"220":1.2464471201626548,"221":-2.103844263757448,"222":2.70272041019314,"223":-2.3236075568888084,"224":0.8807298781988386,"225":1.63109297702035,"226":-0.9999046497017356,"227":1.0306467550460108,"228":0.5399437095315794,"229":0.02382690203636297,"230":-1.9859799900216637,"231":1.0897758905371828,"232":-1.3162350464306192,"233":-3.080854342327912,"234":0.6509157270653031,"235":-0.2806080477639239,"236":-0.8765497938068446,"237":-1.0810428056237835,"238":-1.0671779060175601,"239":-1.3338378221830736,"240":4.334163311626378,"241":4.11919455734473,"242":-1.9942106967188777,"243":-0.03763510409436893,"244":0.9195924246019639,"245":-0.19943146754483673,"246":0.5351825377528001,"247":-0.1727502649443023,"248":0.023667692399895565,"249":-0.8098965578805052,"250":1.0831839972545996,"251":-0.5744255613853496,"252":-1.7233441673011947,"253":3.0481845391779547,"254":-0.20571174932104075,"255":-0.2468260318185743,"256":-2.4704177416339768,"257":-2.4013763111213398,"258":-0.3051374161674715,"259":0.6316632258046498,"260":2.2836327455770866,"261":-2.6804811532972717,"262":0.3785492984814445,"263":-0.4325803091431966,"264":-0.8707669900033077,"265":0.17133184077764005,"266":0.6000905769414995,"267":-0.5580581059994119,"268":-0.886499781490214,"269":1.3839426807076005,"270":-1.8418300871113762,"271":3.087628645180857,"272":-1.474533777184947,"273":-0.6563941945684278,"274":2.204896619218641,"275":-1.090795416367531,"276":-1.4051669373871978,"277":-0.5030204127722392,"278":1.3664578219132317,"279":0.571130935008763,"280":0.5545233270495078,"281":-1.105747340224266,"282":-2.2091364262581084,"283":-0.6873974735923871,"284":-1.1219423288370354,"285":-2.5110763371498908,"286":-1.157616817989095,"287":0.14030292577115974,"288":-0.23563955378926862,"289":2.3309431813335126,"290":2.625249187068679,"291":-0.45867903406892124,"292":-0.03816390311324362,"293":-2.717188142006981,"294":-0.13667346192666247,"295":-1.9023958480468064,"296":-0.6496680453843158,"297":0.20862922678790732,"298":-2.412998374947481,"299":-0.08979696180675135,"300":-0.6215377161303555,"301":-1.0931215862662413,"302":2.6236755049154104,"303":0.18350726343832985,"304":1.8350441228892036,"305":0.4309703839460936,"306":0.38835037602283123,"307":-1.44993377550472,"308":-0.9682772020390539,"309":1.8076620804230281,"310":-2.1532946888962763,"311":1.933219189445132,"312":0.3987848507061974,"313":0.12611943543577156,"314":1.057937189605709,"315":-0.5307372052931284,"316":-0.1648978469447065,"317":0.48726228971513413,"318":-1.7611388959735939,"319":0.35133650749540785,"320":-1.1875231021574815,"321":-0.4746696329929042,"322":0.3616015921833037,"323":-0.7429970578842185,"324":-0.5871462230815645,"325":0.9911421144346055,"326":-1.3612135578648992,"327":-0.9086398419073178,"328":0.7062444881159404,"329":0.14821573692428863,"330":0.2597320083173313,"331":1.1947040815862078,"332":1.0285282435631962,"333":-0.8125561582267523,"334":-0.5964385287226365,"335":-3.6345459644927347,"336":1.6021895142013725,"337":1.337501125355723,"338":-1.6767139087662832,"339":-0.6407488085335249,"340":2.833688567839853,"341":-1.511233473302447,"342":3.3219398412302925,"343":4.878898817344414,"344":1.429764362211231,"345":1.083010442930687,"346":2.4758571199868413,"347":-1.4068333301229974,"348":1.8603641193174367,"349":0.34400829041168923,"350":-0.290459460829103,"351":-0.13033068084798174,"352":1.1030063218423793,"353":-1.397158460961844,"354":-1.0802585296626228,"355":0.16321289427229135,"356":-1.4174267465951174,"357":1.3496809102526972,"358":-0.7596947595490354,"359":0.9681992264931222,"360":-0.5966858311495608,"361":1.5886367524745666,"362":0.41351988584625243,"363":-3.0493732265262796,"364":0.8831234285498282,"365":-2.715989204757625,"366":2.5018316606140982,"367":1.9386249554476702,"368":1.423304222502053,"369":-2.852451219338839,"370":1.0157427519484497,"371":0.5902824254460812,"372":-0.141749863074776,"373":2.2986773967281207,"374":-0.5001488436158,"375":-0.19856663729177718,"376":0.008877072218374327,"377":-0.4933609144675579,"378":0.3779526575194808,"379":-1.9595305558907978,"380":1.0454971452818203,"381":-0.5716439701064233,"382":-0.461342603309909,"383":-0.037725087833653005,"384":0.3760417279702227,"385":-2.4495478165807354,"386":1.760428996678332,"387":0.7235557747058212,"388":0.4405192756890401,"389":1.9330024322664734,"390":-0.22322506728317934,"391":-0.26338978233173205,"392":2.3699654219675432,"393":-0.6967106379558219,"394":-0.06086642621215411,"395":2.0929136553523224,"396":-0.6393612734135099,"397":0.7743043439926387,"398":0.18015074690204103,"399":-0.9360458816041799,"400":-2.2695465748263897,"401":1.9258176158757376,"402":-2.070810208362429,"403":4.50297597651006,"404":0.2505223266275556,"405":2.122332791015442,"406":1.7586425365401475,"407":2.2969653952171694,"408":-0.37858370421523785,"409":-2.143302338165752,"410":0.043741637755758206,"411":-0.5134273172489057,"412":0.9222377960189547,"413":-0.005727814291730767,"414":0.8459538902000173,"415":-0.5560653331811098,"416":-1.3520067210530267,"417":3.423719953354008,"418":-3.7193369989022016,"419":0.2750204599974304,"420":-0.10984624423952319,"421":1.8357344847207273,"422":-1.4087864561460541,"423":-0.48506429070611895,"424":-0.7214926167881208,"425":2.1819861644104015,"426":-0.28687694618425086,"427":-0.361746382228795,"428":-1.3791785469817408,"429":0.8753997711665717,"430":-1.1128447974945908,"431":1.0339446980783813,"432":-1.279269357539432,"433":2.2965219860412796,"434":-0.12217768432285972,"435":0.8893073218712103,"436":-0.41623803443892315,"437":-4.910271381628558,"438":1.7296857036913862,"439":-0.30002398287464715,"440":2.2128550349189826,"441":2.9872115761590994,"442":-1.4114845961770248,"443":0.9120195782232253,"444":0.686068922424996,"445":-0.44728004213207423,"446":0.10516703343347875,"447":-1.5118372413081638,"448":-0.4104485396841204,"449":-0.7490854074377521,"450":0.23128614983611007,"451":-2.7565284463136317,"452":0.6370209669310913,"453":-1.4418721759202784,"454":-0.44856339865576866,"455":1.976655779424199,"456":-0.29499705800428605,"457":-0.4909137756928242,"458":1.9691513948057873,"459":-4.161533281018114,"460":-1.3246648075180394,"461":0.15820430675318867,"462":-0.7622361798632419,"463":0.23678407583610894,"464":1.6945067778862424,"465":-1.2831655956950236,"466":-0.2016276048152367,"467":-0.07118333079729461,"468":-2.820484392826106,"469":0.19854311442339934,"470":0.32484835717047467,"471":2.223664247273782,"472":-1.1546307957299078,"473":-0.3488746622972678,"474":0.900338417504342,"475":2.7496574243707017,"476":0.6893582429377892,"477":0.5466774996387518,"478":1.1897400320465044,"479":1.187035294660139,"480":-0.8022277222514244,"481":-1.0731852914688564,"482":0.8713207274308973,"483":0.5984223639378624,"484":1.040271984484761,"485":1.4213527621783453,"486":-0.7443329921044722,"487":-0.9395139524240828,"488":-1.2221859878697694,"489":-0.9708494917054068,"490":0.7704646423390639,"491":-0.48228021683364397,"492":2.8090248521753995,"493":0.5958700701522716,"494":1.1113946761482982,"495":0.7126101002482493,"496":-2.0761474298688105,"497":2.1787974510943124,"498":0.24853403394985152,"499":1.3563573037253929,"500":1.1974017816380293,"501":-2.5788164831228726,"502":1.0046611558526932,"503":-0.603329658333268,"504":1.8108397641656342,"505":0.5802534371395281,"506":-0.8244492153957189,"507":-3.2144912452329635,"508":0.5445461762924694,"509":-0.9775785952287036,"510":-2.728498511389779,"511":0.004145886629633574,"512":0.12156558576869211,"513":0.10912925791267922,"514":3.8476790203571474,"515":-4.032408388159348,"516":0.9825465093188436,"517":-1.3740417680654873,"518":1.4069811140275104,"519":-2.012147246149069,"520":-0.29706972267043824,"521":0.8605381133559854,"522":0.800344488694402,"523":2.0601791785823167,"524":-2.3634466659947777,"525":1.5688159639043022,"526":1.0600644055753057,"527":-0.6085680344222533,"528":3.107844725902404,"529":-2.83468293231803,"530":3.216700900737505,"531":-1.4947633788459782,"532":-0.6224162451856086,"533":2.3065941715248393,"534":-0.24106435664130124,"535":-0.23489965676863908,"536":-0.535004747543329,"537":-0.6724375460463138,"538":0.8251065595894854,"539":0.28037407052904184,"540":0.947116711453579,"541":-1.4708122323992052,"542":-0.06491339059549356,"543":-3.8156602965562927,"544":-2.7955270134681616,"545":-0.8347051902119014,"546":0.07762647625147978,"547":-1.8428886906581194,"548":0.370373877941097,"549":0.338854843495674,"550":-2.2376718834402,"551":0.5870431731647924,"552":-2.9449081783379487,"553":2.2015847192234324,"554":0.5182557690741417,"555":-0.06336520900942251,"556":1.0612923141457178,"557":-1.9586276485022696,"558":1.5419969205247057,"559":-2.162090473906502}},"forgetHidden":{"rows":20,"columns":20,"weights":{"0":-5.83302365682953,"1":-1.4896844336944528,"2":5.004098230826004,"3":6.939868485775473,"4":3.813989033929771,"5":-2.647629954165559,"6":-4.625508925662227,"7":-3.5326503149068906,"8":1.1920138765548176,"9":3.532990049568196,"10":-5.754337777138729,"11":-3.8576078522510193,"12":-0.013048536612772962,"13":-4.635663360129601,"14":2.726544346121259,"15":1.41739567357803,"16":-0.5827114293210397,"17":-0.30502241727844237,"18":1.0242971739197675,"19":5.113834433957109,"20":1.59239489649415,"21":1.0538294356762419,"22":1.7050383530939397,"23":3.0198291764771983,"24":1.5260939031360419,"25":3.971491862098973,"26":4.76755757393123,"27":-4.842150175570955,"28":-0.13354647052113183,"29":1.36496281165905,"30":0.10855044426734879,"31":-0.8889935017025615,"32":-2.025137293564287,"33":-0.4937719077010373,"34":2.0395156854196324,"35":-0.030019146346317915,"36":1.4678083275169498,"37":1.0229132990095322,"38":3.0186388971960043,"39":-5.163184344748544,"40":-4.295202858877672,"41":2.6670406158282014,"42":5.876341620234944,"43":1.0959935029603196,"44":1.8321271025046888,"45":-4.790737975858759,"46":-3.5311420249338252,"47":-0.004095618640461798,"48":2.3899514144932152,"49":3.5598131466310043,"50":-4.9993125200911575,"51":-0.8620339472532398,"52":-1.2984270317573527,"53":0.8811154901781869,"54":-1.0693325849390227,"55":1.6036485381645849,"56":6.189627031585873,"57":3.1754257720865673,"58":-2.577172820358659,"59":-2.696867706125312,"60":-4.064575336446332,"61":3.8605540076425573,"62":3.5972677407150093,"63":1.2986801152956453,"64":0.6278202295248567,"65":-2.8632057723214563,"66":1.353515398379553,"67":-1.8134274625744424,"68":-2.966289584873774,"69":2.916570788635498,"70":-0.7776252495156029,"71":1.5689109071219773,"72":-0.3658328666791664,"73":0.7758516922672557,"74":4.87232800910541,"75":-3.4195381831776666,"76":0.06661570534812168,"77":-2.0468309055382354,"78":2.0704568255362124,"79":0.7221254798900687,"80":4.194945916225456,"81":-1.4845519457942142,"82":1.7617446661781817,"83":3.0257165033201567,"84":-0.9334847036373182,"85":1.418541901431042,"86":-1.2177574570169623,"87":6.520008058303027,"88":5.959701371581928,"89":5.2732879428526855,"90":1.0280992848452777,"91":0.5650921628245539,"92":1.9491646002447696,"93":1.0438331896656725,"94":-2.8816828368731695,"95":-1.3447861382092137,"96":0.34058529527970227,"97":2.447417698098859,"98":-0.010807365541605045,"99":3.441804083627789,"100":1.4460143516665998,"101":-1.233363514729699,"102":0.0179724815353098,"103":-1.0499504411489682,"104":-0.5331786031327855,"105":0.11673777067407266,"106":-0.6199196676564247,"107":-2.8390909782744322,"108":0.8286553618209253,"109":0.6102657393783221,"110":0.9806986616170691,"111":1.484931566972782,"112":1.3976026597286406,"113":-1.4493648465213322,"114":0.7272021217002653,"115":3.36935683379836,"116":3.21754252577812,"117":0.04270796674163699,"118":0.47811640090878854,"119":1.693462911072691,"120":-1.0561111560313006,"121":-1.3361569286271573,"122":2.3824662741490106,"123":2.798603848243516,"124":5.265737221691412,"125":2.6221189638937408,"126":-1.5817211439850378,"127":3.032059443938177,"128":1.901287655158369,"129":-0.7182225622073739,"130":-2.0965107362297584,"131":-5.974494789695409,"132":-2.8602323899620568,"133":4.026209876459085,"134":3.1213808240440346,"135":3.2189726063416493,"136":8.82052714229433,"137":-1.5309783592038924,"138":0.7380456753587415,"139":-1.441086988777207,"140":2.1445151482527485,"141":4.005343766820167,"142":1.6947802594489092,"143":-1.3138397429255257,"144":2.3517841113383304,"145":-4.541848644808384,"146":-0.28149904327199066,"147":-4.886785648346913,"148":-5.485938046832499,"149":-1.5667260398206708,"150":-1.5376087498983617,"151":-0.8604205287082439,"152":-3.562615898139689,"153":1.586093997000205,"154":-0.7271483911498617,"155":0.3607775261464292,"156":0.7303509203776588,"157":-1.668858732615395,"158":-2.2770865565606306,"159":2.388053257504906,"160":-1.9800902838090084,"161":4.773915179083008,"162":-0.31723387047517515,"163":-3.989216599727564,"164":-1.0200233707271396,"165":-3.586061993877332,"166":-3.130720675620887,"167":0.5814919842280252,"168":0.9596226938507747,"169":7.664444905145405,"170":0.5355522755033497,"171":6.917683774808367,"172":5.854550637031513,"173":3.4052162521175213,"174":1.7255985563334288,"175":-3.831484793072202,"176":-5.659598478712304,"177":-2.894508409879395,"178":-1.1189006680229505,"179":0.6971705368477962,"180":2.1467831460380373,"181":-1.2541530031657684,"182":-2.138627427075901,"183":1.1759059140562804,"184":-1.1002858546209537,"185":-0.6645759611332414,"186":1.3834917594712532,"187":9.076830810528188,"188":0.27676461958869,"189":2.7237765242058893,"190":3.0182609537889933,"191":2.0464145404663636,"192":1.5847880767327005,"193":1.2769228627141034,"194":3.5449724169622194,"195":-2.0548010005118176,"196":-0.2975043942250621,"197":1.8475505472912608,"198":-0.3415602454889321,"199":-2.0408549072212367,"200":1.7857999428504072,"201":5.500613527146451,"202":1.4857467473388737,"203":2.0754654729616626,"204":-0.16276356824803487,"205":0.5781150658826932,"206":3.1255314117902473,"207":5.214588245102571,"208":0.5978182686680734,"209":0.2550424918941268,"210":-2.8762655481857973,"211":-4.583683596626712,"212":-3.45706849895363,"213":3.5684699449284456,"214":-4.385468646981561,"215":0.38428502954259935,"216":1.7041042110778557,"217":-2.165916405087356,"218":-2.332539939723063,"219":2.0257405213992765,"220":2.36325122610229,"221":5.322963675033131,"222":-2.727784624791391,"223":-3.9358767746116143,"224":4.216694950077337,"225":1.3879063771608018,"226":-2.244779164830465,"227":-3.1913211350671924,"228":11.337850668574786,"229":2.6648264064067972,"230":1.4586177434759826,"231":-2.9562808998442835,"232":1.357268140425034,"233":0.5747050902623656,"234":1.57402026002752,"235":-6.702180948781538,"236":9.241261295042158,"237":-1.512747112060616,"238":-5.596098516755521,"239":-4.5951575191441005,"240":-0.6308495914184191,"241":0.5093768281321182,"242":3.9539376270868787,"243":-1.8909296874417858,"244":0.7935497612574264,"245":5.984718086069783,"246":-4.236623530276821,"247":-2.0658346811413657,"248":-0.17565671286882342,"249":4.889079392953651,"250":-2.8116480912641735,"251":-0.4058064861252317,"252":3.275689178135315,"253":2.093985976118561,"254":3.284322406984805,"255":3.2238263121088933,"256":1.496247040591491,"257":-5.323076576541714,"258":3.209323473845262,"259":3.079841378671082,"260":9.94715643268234,"261":0.7317475192600259,"262":-1.604269096228058,"263":-1.0445268060188007,"264":-1.8269067493403095,"265":2.7809612742773426,"266":2.5838779701325647,"267":-2.170594334275357,"268":-4.341602810847556,"269":-0.9746329028134251,"270":-0.8725897331726459,"271":3.489920150610898,"272":5.504755577719514,"273":2.614852796813398,"274":-0.604174628442334,"275":-4.409095417211928,"276":4.271825898356238,"277":-3.1384681544829856,"278":-5.159192739942729,"279":-5.817733027921183,"280":-1.4815563794627833,"281":-2.8657582138078332,"282":-1.13914627811917,"283":-7.8087085283349955,"284":7.868238506204634,"285":2.881789665100389,"286":-3.8885923661831026,"287":3.2606697450456084,"288":-1.504801753518841,"289":-3.686198788766297,"290":0.9020798634598646,"291":5.1412860049183875,"292":4.789614131617025,"293":7.05456467777643,"294":-0.8746105240929158,"295":-2.1181503891923015,"296":-0.9945321437628893,"297":1.1609184769834167,"298":2.592164184116333,"299":-1.5828844298355416,"300":-0.9348293068614217,"301":-0.2100414188382387,"302":0.5669835531407346,"303":1.461970812156902,"304":1.1170696435717797,"305":0.5261901568666989,"306":0.3027942429583688,"307":-1.7366350032911329,"308":0.24634346298842022,"309":-2.1762266074450207,"310":-0.016063981250155446,"311":0.8347000370751221,"312":0.5416457696418476,"313":-1.5957480311862369,"314":1.7608953332109487,"315":0.0941350162592588,"316":1.107386861839788,"317":3.737148544980004,"318":0.09059128564889576,"319":-4.894392488090619,"320":-3.5097585894526824,"321":0.8195452203426761,"322":-1.2016031615026554,"323":-4.831970563835464,"324":4.39481082275875,"325":-1.6910907168226046,"326":-0.5805275639317976,"327":-7.314181847313367,"328":-2.793893559488148,"329":1.8726915773641482,"330":-6.508364385189298,"331":0.5479137724067322,"332":-1.394151108330522,"333":7.374947422805964,"334":0.8173689445538097,"335":-3.2149738237401366,"336":1.8979425003527834,"337":-1.2923484240209526,"338":-2.0796073295063566,"339":7.3845101489992455,"340":-0.6263916978479921,"341":-3.093625629898095,"342":-0.49092989867178044,"343":8.55834468569723,"344":1.8175873174428332,"345":-0.989135725390447,"346":5.1387425562991185,"347":-4.071493964870384,"348":3.0301234217000044,"349":-5.031604277593695,"350":-0.101850852459493,"351":-3.96801489418039,"352":1.474740366864589,"353":-2.867590223913239,"354":-0.5481681173487275,"355":-1.3154331375971509,"356":1.0203053467529004,"357":1.6738890652060003,"358":-6.148119720933716,"359":-4.677140774362705,"360":-2.039253860516979,"361":1.2603775281759404,"362":-1.0258991548152774,"363":-4.031889752908341,"364":-0.30272098998589625,"365":-2.2068944638543555,"366":0.3479598319637606,"367":-1.6002608117377883,"368":2.0062098422751062,"369":2.1785197510994667,"370":-0.7084146849470522,"371":1.0040915970727158,"372":-0.986081773100618,"373":-2.99419833075388,"374":0.06924279296367088,"375":-1.70940260269187,"376":-6.1940086453111824,"377":0.9466178916658659,"378":2.587340351176622,"379":-0.6146933472284135,"380":-0.26528980863691665,"381":8.179434619385349,"382":1.0551600326258341,"383":-5.3343858516476,"384":-1.9213306128900154,"385":-2.5220185541531404,"386":-0.813170218910237,"387":-0.8400273557545683,"388":2.878758559957974,"389":2.032887829284084,"390":-1.9400755477954208,"391":5.973499353491381,"392":-4.50268951515152,"393":1.9304750874822396,"394":-3.950854852865789,"395":1.6588275804337214,"396":2.3426792603956077,"397":-1.4137504641033156,"398":-0.8567711961079664,"399":2.729243105659784}},"forgetBias":{"rows":20,"columns":1,"weights":{"0":0,"1":0,"2":0,"3":0,"4":0,"5":0,"6":0,"7":0,"8":0,"9":0,"10":0,"11":0,"12":0,"13":0,"14":0,"15":0,"16":0,"17":0,"18":0,"19":0}},"outputMatrix":{"rows":20,"columns":28,"weights":{"0":-0.5683113756807537,"1":-3.4016934742908638,"2":2.6280974669437898,"3":3.0233293037135622,"4":0.5870661889133824,"5":1.7387739120204813,"6":-0.8702117358036846,"7":-2.5624735854960057,"8":-0.25526616987214973,"9":3.9319207356366417,"10":-2.2043134162118894,"11":3.0797266728403363,"12":2.2477097623612803,"13":0.9476629444008885,"14":1.1911104888787836,"15":0.9240770900765815,"16":1.8738357457384602,"17":0.7601705349840906,"18":1.8488980889004012,"19":-1.0187613376947462,"20":3.2298642782660565,"21":-0.7109541733132411,"22":-0.3544208256982522,"23":-1.1995603819476455,"24":-1.1195647449007124,"25":-0.2797680693102862,"26":-3.582040231243997,"27":0.6616345790068862,"28":0.016295752130136835,"29":1.037711246320728,"30":-0.6173675212025153,"31":-1.4494286615852054,"32":-1.2803121720839685,"33":0.2282160064299833,"34":-0.22120369518250532,"35":-0.02875784400209055,"36":1.5748386185084722,"37":-1.516338538255342,"38":-0.677931904038188,"39":-3.329637817100215,"40":-1.6398269847709244,"41":-0.11414388261843153,"42":0.5557008385757993,"43":0.5405341839029315,"44":1.9780111403652085,"45":-1.3011849617607434,"46":1.001202713242946,"47":0.8111051896613798,"48":-3.8885649492437,"49":1.5346428217898216,"50":0.36996297663399885,"51":-0.4813362119570507,"52":1.687060655889715,"53":-1.8263798252670524,"54":2.472487758705815,"55":0.7680720285164407,"56":-0.2857315251848444,"57":0.8997242846558289,"58":0.010890551225966771,"59":-0.09220452298200735,"60":-1.3528498775905011,"61":-0.5743954152044403,"62":-0.26003592625847205,"63":0.20561203118874133,"64":0.4738254752087377,"65":-0.2194059619183319,"66":0.6688393841031425,"67":-0.1778142925487353,"68":0.8530492428350794,"69":-0.4997369532271681,"70":-0.13088645798157283,"71":-0.8453096308646405,"72":0.7739417553602234,"73":-0.019668145222866744,"74":-0.7740825069423642,"75":0.8230900098242083,"76":-1.0890799572022467,"77":0.17964856837198262,"78":-0.46074993007957527,"79":0.613613848165431,"80":-0.625373746605954,"81":-0.2865286475416861,"82":-0.35404674787297924,"83":-0.20801214240864743,"84":-1.2289908367126177,"85":0.49760915622881413,"86":0.2711972196510373,"87":-0.4382194321939052,"88":0.4355847220863618,"89":-0.7162431714833107,"90":1.90022076897386,"91":-0.11285354046212004,"92":0.7977733010785061,"93":-0.6737474192950029,"94":-0.4423290793294148,"95":-2.8057693226293785,"96":-1.864468291486812,"97":-2.2711836431607826,"98":0.6794719750853443,"99":-0.25321883417527535,"100":-0.0007558465398796311,"101":0.07366842101702085,"102":-0.1526757610433595,"103":-0.8648858394679872,"104":-0.4689185180867463,"105":-0.5052447804361899,"106":-0.7234820483380721,"107":-0.6063207247661666,"108":0.7148663244422351,"109":0.313474958449422,"110":0.17670697728804663,"111":-1.2459403067342614,"112":-0.38515245062057085,"113":1.222743358306728,"114":2.214700949026883,"115":0.24938921370153594,"116":-2.5609445117139926,"117":-0.7662857389137175,"118":0.837071291854454,"119":1.7745743134228669,"120":1.0791579190972873,"121":-0.45477317902698533,"122":-0.5289692216093788,"123":-0.6575382993394999,"124":1.633240136311166,"125":-0.16459007582651192,"126":-0.8437313628835367,"127":0.5647679631624184,"128":0.8939339665202027,"129":-4.627642460226822,"130":-1.3640883949928437,"131":0.833079844245024,"132":-1.7453956841959553,"133":-0.5311152412726099,"134":1.1126060242051914,"135":-2.1225012968842267,"136":-0.2903039833689652,"137":0.48531810314539775,"138":0.677575524702345,"139":1.27944323464031,"140":-0.5484670009600977,"141":-0.49379497304843495,"142":0.8900851983795613,"143":1.9977595790926728,"144":1.0914812708259336,"145":1.1554874253190144,"146":1.8501765929021556,"147":0.5952938870475114,"148":-0.11309975266048146,"149":-0.42473978423284836,"150":-0.8756405626357201,"151":2.8343141070437117,"152":-0.9244328760488765,"153":1.6169911691037588,"154":0.2839731968277772,"155":1.825077993871555,"156":1.6671101114825417,"157":-3.2431966154257195,"158":1.2843562533652977,"159":-1.8959301154776962,"160":-0.21120125259093508,"161":0.7160958935023517,"162":-0.13421803204834004,"163":1.2793322000793061,"164":0.3628671495412108,"165":1.1397715464748426,"166":1.480132694855995,"167":-0.14293188752646713,"168":-0.9084712135371525,"169":0.43122066828035327,"170":-1.4938114404433511,"171":0.32437520835019606,"172":-2.001192950743008,"173":-1.2388358351441895,"174":-2.3881129439431126,"175":1.376078086110581,"176":0.08202224846376684,"177":-1.109742667649078,"178":0.7811917162980595,"179":-0.7919120356308643,"180":-1.9194683907329215,"181":-0.5316482514761309,"182":-0.4921095193872907,"183":-0.7006096964762464,"184":-1.2984586852975946,"185":0.30134897312197945,"186":-1.2329019906990866,"187":0.22188912648503067,"188":-0.21722085529397658,"189":-0.22973730737999357,"190":1.718989621785067,"191":0.5878486221540646,"192":-0.2018180458094422,"193":-0.9664119370757522,"194":0.19186151539201515,"195":0.19560299796426664,"196":-1.0713161891737826,"197":0.45508163266326057,"198":-0.5769727678208453,"199":-1.16966150798693,"200":0.5447300788602979,"201":0.53408404633208,"202":-1.308298652514046,"203":-0.14226562321753142,"204":-0.3913819746417019,"205":-0.3003382941373013,"206":2.0002077913399985,"207":1.4498468707716614,"208":-0.492453677026937,"209":2.15902282809164,"210":-0.03729257937558706,"211":0.4153088146686721,"212":0.9254088075005793,"213":0.36996882072595483,"214":-0.7238300147833575,"215":-0.5810481588316819,"216":0.40074031517116293,"217":0.5478250940791825,"218":0.1302977681302684,"219":-0.4764443460173523,"220":-0.14310944764142677,"221":-1.5828651687661814,"222":2.1496741540443356,"223":-0.16932373491069025,"224":0.5470830667525104,"225":0.642349710731626,"226":-0.6301989006248853,"227":-0.9823801231886419,"228":3.012335042386167,"229":1.992404823515764,"230":0.17177553294655143,"231":-1.1001935879586309,"232":-0.4171709079000051,"233":2.136343314104058,"234":0.7788421069149257,"235":-0.4113485413137871,"236":-0.12340030936545919,"237":2.1579072882756716,"238":0.7751188158569887,"239":1.6661779328720725,"240":3.334821091947215,"241":-1.386905940322717,"242":0.483192894698648,"243":-2.394903819452005,"244":2.8439635683653717,"245":-0.031278668411272345,"246":-0.029522487565831073,"247":0.44689755965529654,"248":2.065213790902841,"249":0.8132555101499502,"250":-1.0629007216925543,"251":-0.033697913416356265,"252":-0.01235637570823334,"253":-3.0853692396259578,"254":1.4592720601235722,"255":0.36703015402468675,"256":0.18801249768280642,"257":0.5674404512860481,"258":0.6499223550904759,"259":1.1062575935872647,"260":-2.2168614719560726,"261":0.7322516006479148,"262":1.735501454101867,"263":1.7885667358016328,"264":-0.7089808236934787,"265":0.499713543910441,"266":2.042160334710254,"267":2.3683449141290875,"268":3.5732294983151753,"269":2.8788326966504476,"270":-1.5831539959317096,"271":-0.2755828797946491,"272":1.4065791138675765,"273":-1.5331521612707568,"274":1.871281487793336,"275":-1.1003497817674026,"276":2.446226127889495,"277":2.2932835033002856,"278":-2.208294425518311,"279":1.4541884989356872,"280":0.3510398244575055,"281":-0.8282728730541364,"282":0.3140238285296214,"283":-1.3006447876573797,"284":0.5180848597073163,"285":-2.3209615330187447,"286":0.7785709014794787,"287":-0.8014651454338155,"288":0.5347038870395979,"289":0.5432781962911768,"290":0.6084477203262892,"291":1.3377693532702135,"292":2.125739229298719,"293":-2.2351376813516755,"294":-0.18087572479100789,"295":-1.4073556712374464,"296":-1.6004333712878038,"297":5.244385789237451,"298":0.26832853039025706,"299":0.040640428416820064,"300":0.6185050724072266,"301":-0.5701079429472474,"302":-0.023320016793165817,"303":0.8025410141970669,"304":0.12217639573822808,"305":0.19219796000800995,"306":-1.3452630901772884,"307":-1.0838860308786482,"308":-1.9809677689800123,"309":2.9272368436887226,"310":-0.47625648533710474,"311":-0.22579835542743487,"312":2.906122070808737,"313":-1.0556675443780215,"314":-0.2238705310239168,"315":3.349396841675363,"316":-0.3395544172551261,"317":-1.6479087192017445,"318":2.1349388026306078,"319":-1.2634021341233412,"320":-1.4690320050698136,"321":-0.1881217102868318,"322":-0.9213405064669018,"323":-0.8300210593755725,"324":0.9058127311074848,"325":-0.05108945490311464,"326":-1.5103943509856526,"327":-0.30434857984060065,"328":-3.058177465985186,"329":-1.5721738485140753,"330":0.654050606128686,"331":-0.11249241899255083,"332":-0.06839039685564774,"333":-1.5401058433926618,"334":1.9604729472301559,"335":-0.6928547377568476,"336":-0.004465549593368276,"337":3.154692084136499,"338":-3.889687474520382,"339":-2.0889025456886707,"340":0.7346509579978779,"341":0.1451751104293565,"342":-0.8108083451234429,"343":0.5731265337400941,"344":-1.0049910238478914,"345":-2.6149648046692966,"346":1.1757832360129756,"347":-3.473253830207438,"348":-3.0170562479926324,"349":-0.710948016466524,"350":-0.9836205416801055,"351":-1.0648822107201117,"352":-2.369691617292142,"353":-2.337275084286831,"354":0.23868334560219873,"355":1.7983930058403717,"356":-2.2443197508974757,"357":1.2739126253611806,"358":0.38968391597841484,"359":1.8217527047400601,"360":0.8424940026042972,"361":-0.6749519667491222,"362":2.1859680271980673,"363":0.009156594964286998,"364":-0.5344928395062808,"365":1.0966240736044564,"366":-0.6205628622263629,"367":-0.5061253191787742,"368":0.15542380920998833,"369":0.029708129398126754,"370":1.3656516174191633,"371":0.6420757169156321,"372":-0.3031665759240149,"373":-0.03578686220512757,"374":0.24951054029827344,"375":-1.638721160533708,"376":0.8805862765760328,"377":0.3846759070779346,"378":0.21220185246166937,"379":0.06502547384197419,"380":1.1304811285612197,"381":-0.6888991324788,"382":0.11778166052102765,"383":0.34658655326893095,"384":-1.142136928771773,"385":-0.7709167177986985,"386":-0.12974596007108177,"387":0.36404386794007765,"388":0.306235189191882,"389":-1.226019487983234,"390":1.7766337839781112,"391":0.9410292124860927,"392":1.2498842261272474,"393":-2.9776690819855305,"394":2.2248292285136553,"395":0.5165239249604197,"396":0.7546526307305758,"397":0.2365493019365928,"398":2.8848240399503573,"399":0.26355886858142114,"400":1.1860836041085459,"401":0.2944508209649015,"402":-1.185011030583153,"403":-0.8750314618061473,"404":0.021084458332001225,"405":-2.043066201282145,"406":0.14598219797307344,"407":1.2119899950584923,"408":0.2521807494422866,"409":-0.9589375316081485,"410":2.820220483814978,"411":-1.6139885161534253,"412":-1.3833812779706176,"413":-0.12691245372815785,"414":-1.583932075296471,"415":2.9466906616203934,"416":-0.25983259076474297,"417":3.504473150806178,"418":-2.1791296509148093,"419":0.7146128064789334,"420":-2.249048226519812,"421":3.377709723003249,"422":0.0635662263224581,"423":1.9046906132123538,"424":0.7339315384617959,"425":0.20725125135858807,"426":-0.5889442559041324,"427":0.5396638150523259,"428":-0.967816153369972,"429":-0.8709684426603526,"430":2.3889005021692347,"431":0.6258635979604664,"432":-0.4828706544790859,"433":4.265452410411483,"434":-1.684389806561769,"435":1.7806120189562442,"436":1.0551914635452877,"437":0.3253023738672246,"438":-2.7488859901621736,"439":1.2811610408139453,"440":0.8092315294216998,"441":-0.0202687657953818,"442":2.560487595379234,"443":-0.33965503714266904,"444":1.324200586790263,"445":-1.899100021702123,"446":3.746616011231507,"447":-3.417423316841077,"448":0.22558060801233823,"449":-0.6858955488158969,"450":0.5360196529562634,"451":-0.05618428931712867,"452":0.10282972527339773,"453":-0.21727574312247647,"454":1.4241318796838782,"455":0.5503515326376424,"456":0.16388000524235766,"457":-0.706261164389248,"458":0.012614386723718911,"459":0.8363842580778057,"460":1.146928498394387,"461":0.8102866770905515,"462":0.41451158286240153,"463":0.7508731641497217,"464":0.3701800421927608,"465":-2.3010130338817,"466":2.3629249088795445,"467":0.023922762877917177,"468":-1.543112822297349,"469":0.3143191240621121,"470":-0.24714123878587746,"471":0.4159339682271353,"472":-0.38267734748954674,"473":0.6680386803925025,"474":0.9904250237235966,"475":-0.25911154193490593,"476":0.8853762344808371,"477":2.337203823301568,"478":1.1304813982819153,"479":0.44002188726936653,"480":-2.053690083796932,"481":0.0710869937954807,"482":-1.3491935875007306,"483":0.7864125911599072,"484":0.9650324293592001,"485":-3.9782119804082625,"486":0.6863866653236688,"487":-3.292608390264594,"488":0.13868986465876326,"489":-0.19092615815708244,"490":-0.6916235712811836,"491":0.016148459082553582,"492":0.40442979618613983,"493":-1.4285693147677914,"494":1.0734588332559956,"495":1.4773171491216743,"496":-4.200291851603062,"497":1.563351225468423,"498":-0.8378711796988852,"499":-2.644790880624336,"500":0.358827859091683,"501":-0.9405161906513142,"502":2.8714694080322056,"503":-0.6694321345686112,"504":1.1337309615970408,"505":-2.6114759621080443,"506":2.7455805400925573,"507":2.8184527469866874,"508":0.29192824104612486,"509":0.5171513369400764,"510":0.20319611519758887,"511":0.3840079536904864,"512":0.206607282207885,"513":0.4695189638311806,"514":-1.3823766977183065,"515":-0.3912122832942003,"516":1.5525506430658291,"517":-1.1916336919381214,"518":0.470441750934262,"519":2.115613852011242,"520":3.012858731615745,"521":-1.9752339691972225,"522":0.33182488298913965,"523":-0.2661442396134184,"524":-0.5372084698271528,"525":-0.298497442704756,"526":-0.5703279851453205,"527":-0.47103781442840414,"528":0.7789126662830816,"529":1.7313782858241384,"530":-1.1869519682383634,"531":0.06854386929588689,"532":0.43479918999517736,"533":-1.366929469302877,"534":0.5440759713264431,"535":0.1001305708344181,"536":-0.5343708543169153,"537":-1.543200932287385,"538":-0.9640143925958308,"539":-0.8321838175005137,"540":0.29655676207458503,"541":1.6573693698413356,"542":0.1586204298016762,"543":-1.2335447538435882,"544":1.5481612114581194,"545":-1.9688822322894663,"546":0.5448105458556818,"547":-0.9627140289608048,"548":0.16132792555876913,"549":3.0512533857858952,"550":-2.0719050904394862,"551":1.2908557675872385,"552":-0.14158702560624592,"553":-1.7244493783282049,"554":0.15327957840479428,"555":-0.6292759544080949,"556":0.39019295631358236,"557":-0.08173750719406918,"558":-2.4611753196411326,"559":-0.7495659512787131}},"outputHidden":{"rows":20,"columns":20,"weights":{"0":-1.7504784577447796,"1":0.4436002588098255,"2":2.7673528950009887,"3":-4.798616039771222,"4":1.2394316022893805,"5":0.4655499505566224,"6":-0.02682347038782099,"7":-0.7410724497607919,"8":-3.4320627369019094,"9":-0.09073453166651718,"10":-1.7892632277502354,"11":1.6206565121577758,"12":4.236640018458685,"13":4.229762117937515,"14":1.219160101276108,"15":-0.7737574161672222,"16":4.415247780639624,"17":-2.6532706779569817,"18":-0.5403743635605192,"19":-0.11588439071261518,"20":3.8446129588665583,"21":5.669145779015035,"22":-5.23365131655953,"23":-1.9911264403369895,"24":2.850961269530104,"25":-3.555504226469592,"26":2.8828573039376995,"27":3.9237160245804112,"28":2.471290056957451,"29":-1.198963720864822,"30":3.3852680797475387,"31":0.7889079577381476,"32":-1.2665249526857503,"33":-4.679794921468389,"34":-0.9745350181302485,"35":1.1912255313142335,"36":-2.6180671122250736,"37":0.24321562292760043,"38":-6.976048626947234,"39":2.308521518816688,"40":0.6100399277162317,"41":0.5308856960255864,"42":-1.8154074536672735,"43":1.362478433482648,"44":1.498524127308767,"45":-0.44679225473625284,"46":-0.01045986810907431,"47":10.033931729194187,"48":-1.2386336251313141,"49":1.848910057038002,"50":2.4411750355611046,"51":-0.6512556113777802,"52":-2.9542919182420637,"53":3.29001900473707,"54":1.466288236413898,"55":-4.365274302814676,"56":-0.014190003002351036,"57":-2.914583170488931,"58":0.6737366474546702,"59":1.588870525601114,"60":3.4338190318934605,"61":-0.41106213736380487,"62":1.0952399109520232,"63":4.350663092489526,"64":0.81952442239751,"65":0.6592928662742851,"66":1.7904559668815008,"67":-5.248654923838025,"68":-1.351697221405513,"69":1.7362368988355357,"70":-1.2403546764728397,"71":-9.411392592869188,"72":-2.218550277843483,"73":-6.584141160147819,"74":-2.316791686752381,"75":6.695976152837144,"76":0.52728762850657,"77":-2.8169296580496566,"78":-2.4533222291252743,"79":7.719781924208472,"80":0.048404902365292116,"81":3.809761796623803,"82":5.2803942658888525,"83":0.40932503771383116,"84":1.745028815866072,"85":-5.035720274144481,"86":-2.3251415801493276,"87":-3.4013251923564436,"88":0.2620210163026321,"89":3.182397522679276,"90":-0.5425179964073904,"91":2.6455998261496045,"92":-0.17064606109647526,"93":3.6907289136573147,"94":3.668225387219142,"95":-2.587430298644459,"96":1.0236814428771441,"97":-2.291392359610825,"98":-7.2640405926741485,"99":3.0299896502214585,"100":-1.4379475248896574,"101":-1.9491943910324543,"102":4.71950971297503,"103":-1.1998730836500653,"104":2.406981047641943,"105":2.9087102153932256,"106":-0.170518014718138,"107":2.35539694248124,"108":-4.884799576803944,"109":0.6383023227176745,"110":0.08153580909257344,"111":-1.8871181555627388,"112":0.12967500580158073,"113":-0.668434153997249,"114":-0.9543242558615576,"115":0.39946703807884637,"116":3.7103449312808863,"117":0.7248805489142021,"118":4.986971127745572,"119":-3.5280339418270024,"120":-3.8186136532704347,"121":-8.817478441775878,"122":-2.859408102682714,"123":1.6518288412412154,"124":5.153431987294905,"125":4.694510081294587,"126":1.2610078786940866,"127":-1.8046953984267697,"128":-1.572741549607692,"129":2.2148550586138174,"130":-2.360584332486178,"131":-1.461682198426737,"132":0.5698643703239887,"133":-1.0119478822789796,"134":2.527056398476517,"135":-1.8694281122148846,"136":0.9618450802354772,"137":1.8882942968615333,"138":-0.32713465470351255,"139":7.26391763451881,"140":-1.2726375620840635,"141":-0.1958700754401912,"142":0.4174821311293366,"143":-0.20289505295361648,"144":4.725301128104503,"145":-6.82758452134223,"146":-3.7293373795842166,"147":1.924696167416179,"148":0.5784329633385702,"149":-0.22415493203112422,"150":1.6473969176688892,"151":-3.0024653428521533,"152":1.987335831800675,"153":1.3403464310529158,"154":1.3405204052088644,"155":0.7228291627437073,"156":4.993740624927236,"157":-0.48331888257763034,"158":0.5574762098327878,"159":-0.18017375779069314,"160":-1.9439875337421708,"161":-1.2911298109806277,"162":6.4350083216670155,"163":-4.137872350870209,"164":0.3504837557557999,"165":1.792387293198224,"166":1.6251635141260061,"167":-0.5871674206566705,"168":-3.3684787453076774,"169":-3.025057073470674,"170":-5.510530899103666,"171":2.27062138906104,"172":1.795144292620288,"173":-2.212348682773225,"174":0.16982127017751147,"175":-0.38533898113847803,"176":-1.0968819073644813,"177":0.2551393983116609,"178":3.802638678758699,"179":2.1640137683758938,"180":0.06021369960045749,"181":0.6889596884809442,"182":-0.8166105735814664,"183":0.9897141672393615,"184":-0.659035619370611,"185":2.0891758653303216,"186":0.8494409596519026,"187":-0.9561910934608109,"188":0.14501819166018473,"189":1.6861379330650887,"190":2.5609820889988204,"191":-1.9045848285374485,"192":4.1298554701485175,"193":-5.3463416033032845,"194":0.2230374819265001,"195":2.164434659219053,"196":2.9162106441944515,"197":-2.8863050908652275,"198":-1.2925051792214983,"199":0.2863726320263682,"200":-2.221706422348813,"201":0.40322326438053124,"202":2.0147852721484267,"203":-4.801617388958203,"204":0.8324939354854985,"205":-5.034810970409842,"206":-1.2733626038844745,"207":0.023761581751351752,"208":-0.7820358314269689,"209":2.8664658833540804,"210":-0.05966656884942718,"211":-0.665809871629557,"212":1.2769000222216396,"213":2.715090954404762,"214":5.658205038635406,"215":-3.0364655466282278,"216":1.4476698417597262,"217":-1.1322352947433532,"218":-0.34315103519267004,"219":-0.7776162403981763,"220":-2.9563573949326165,"221":1.772579080627355,"222":-1.7591864376090578,"223":0.2201783727799827,"224":2.1344386672684106,"225":0.1841272895445244,"226":-0.926053490317089,"227":-9.037948195956442,"228":-2.174792487739928,"229":-3.4268073630031233,"230":-0.5614110252857965,"231":2.572843925410956,"232":0.9037533749118843,"233":-0.25100633057261,"234":-0.05345691447689814,"235":-1.011106634890957,"236":-2.2079363487508976,"237":-1.1905359116596643,"238":-0.540626068556472,"239":-1.6305523452197548,"240":0.2427848901231387,"241":-1.8451655288256983,"242":0.6120835499281428,"243":0.08930648993413652,"244":-3.9675658767867747,"245":4.618093234254903,"246":-0.12273246952110281,"247":-2.733579827078934,"248":5.063302103133742,"249":3.926509123427496,"250":-1.6365906587051176,"251":0.859322780616048,"252":0.013598698345049344,"253":4.251552343979353,"254":-0.8771735213680866,"255":0.31694833689363705,"256":-1.3994185416864735,"257":-2.924579190610836,"258":-1.2187034344065293,"259":5.306368657397713,"260":2.7984881673934905,"261":6.814221849909454,"262":0.23490946499471108,"263":-1.0698761992256218,"264":0.913073975245981,"265":-10.745437686319555,"266":0.41557532556596843,"267":-3.3113008031843645,"268":3.902829289204127,"269":-2.3655024780122975,"270":-3.195236560341973,"271":1.4627635680142614,"272":-4.669468410466425,"273":-4.762865572577983,"274":2.1973347186277477,"275":-1.0558700915808146,"276":1.7559165682583833,"277":4.314897238152011,"278":-1.069358048118981,"279":8.724029662390981,"280":-2.0935850879850775,"281":-0.00661231813734321,"282":-0.23927532282475777,"283":1.3309939966265967,"284":-1.4980844007562701,"285":0.13016268390102353,"286":-0.11738779788042075,"287":-0.21004673336621313,"288":-2.9951789289035973,"289":-0.22539073328342688,"290":-0.20450922785026593,"291":-0.21230470474107138,"292":-0.051775017679582584,"293":-0.658808965271439,"294":3.956558294926358,"295":-3.0171175972102913,"296":-1.6848274545347797,"297":2.951675312368417,"298":-0.27130795935324753,"299":0.9379209287224757,"300":3.1497516152310134,"301":-1.3539776139363038,"302":1.018484253161269,"303":4.030897807284389,"304":1.2302759741536469,"305":1.517976724639854,"306":-0.1986041676839911,"307":-3.4524392409061666,"308":-2.0229692042847986,"309":2.1465896053953624,"310":-3.346511740003494,"311":-0.42555223886759425,"312":1.7047048849335154,"313":3.7005889255766085,"314":1.3829937369973413,"315":-0.6984153978345009,"316":-3.214442771457422,"317":-4.437524964728034,"318":2.98995081704319,"319":-0.28195347014736427,"320":-0.19448762449675022,"321":-4.122957135635437,"322":-1.0379093398231871,"323":2.4128877550177843,"324":0.10272580166241928,"325":-2.408390474790467,"326":3.2174660658787615,"327":0.17053723027931364,"328":1.7463763556334233,"329":4.568004869278148,"330":2.9569448131217064,"331":-0.84136399462771,"332":2.9316839631802005,"333":2.5453138075091295,"334":-2.618995969194987,"335":-0.2159453366475716,"336":1.4199287142144215,"337":3.2280194117812693,"338":-3.846060727584025,"339":-1.4316911419381901,"340":4.908519182495367,"341":2.6276730039848926,"342":4.016681262076147,"343":-0.6527595311103784,"344":3.281399992291597,"345":-2.6862898844464342,"346":1.0473049189201595,"347":0.8764051990677034,"348":0.4645477383605858,"349":0.9500384292641694,"350":-1.7946289544948513,"351":-4.142739264976583,"352":-1.4167546717970643,"353":1.4016765912260403,"354":-0.5148751818015389,"355":-1.7709240646198443,"356":0.2888786530831289,"357":1.0697266298312726,"358":-2.933582001143626,"359":-1.745237792662287,"360":0.7326395650772488,"361":-3.5268841968659514,"362":-3.16005989923081,"363":-3.409038795528641,"364":-2.7599361085161607,"365":-1.6423064279506874,"366":-3.623871221192373,"367":-1.3292828648587554,"368":2.1187664545223095,"369":1.980673717369672,"370":1.9032606077130383,"371":6.187253736082277,"372":7.006112600471993,"373":1.4704202873502326,"374":0.17050906923332365,"375":-5.309957105288212,"376":-0.7407077137243427,"377":0.1393069625452385,"378":-0.34505576745298366,"379":3.5253201276720447,"380":-4.420606161916933,"381":-0.4146271832361389,"382":2.062474032408736,"383":2.1401881088990007,"384":1.036684347914817,"385":-1.295131927603107,"386":2.1180160744005883,"387":-0.4078566861410215,"388":2.7289807416495777,"389":0.6338595118429675,"390":-1.6628261710755767,"391":-0.9662987235315125,"392":1.9898705015216152,"393":-4.573396232138368,"394":3.7448117855250898,"395":3.157848043559562,"396":0.6701715152633767,"397":0.9906051303936957,"398":1.8798710284567275,"399":1.7321246467316593}},"outputBias":{"rows":20,"columns":1,"weights":{"0":-0.5108267401413209,"1":-0.46485665917809343,"2":2.6131351285140325,"3":2.8458824035390933,"4":-0.5506749565576119,"5":-0.4648227688598981,"6":1.5405024047162084,"7":-0.8689939934092065,"8":-2.754759117825357,"9":6.516997888610835,"10":0.20146640187213025,"11":-1.0165276036041582,"12":-4.111381908209583,"13":4.295373909054243,"14":-2.1956678400546674,"15":-3.38915450618832,"16":-0.817561144482932,"17":2.3229329646750814,"18":-0.1812907628894722,"19":-0.07242136867596952}},"cellActivationMatrix":{"rows":20,"columns":28,"weights":{"0":0.41010378766818884,"1":0.3526131272222394,"2":-0.4167798466403796,"3":-0.15607527151036882,"4":0.7177629391938217,"5":-0.48309980017918525,"6":1.009747159644176,"7":0.9779002661980082,"8":-0.294918539687176,"9":-0.16174438962459142,"10":1.457513100855162,"11":-1.8905713493299163,"12":-0.022198894595899864,"13":-1.274417862970734,"14":-0.9309819137913482,"15":-0.3759261898419868,"16":0.4050635511181951,"17":-0.7363621929423796,"18":-0.9871891815423453,"19":-1.6789429726322396,"20":-2.3456685499502803,"21":-0.016169058527015646,"22":-0.9136536345317813,"23":2.60683500450016,"24":-0.9779329387914493,"25":-0.345741837016249,"26":1.7802981366694326,"27":0.38131013097001504,"28":2.0563573475337105,"29":0.7605806671999618,"30":0.04939224186305828,"31":0.37730174049647636,"32":1.6382091955283238,"33":-0.13165810974620662,"34":2.1479836802411723,"35":0.5643436716317382,"36":-0.47158498203282767,"37":0.5557826029948674,"38":-0.2189938482557157,"39":2.959366636644772,"40":1.582579544290304,"41":1.2374511794846592,"42":-0.07920948138853258,"43":1.482998381525695,"44":-0.09980463329764451,"45":-0.4108973731521857,"46":1.9450824426180175,"47":-1.0542594924406419,"48":2.4871278998814503,"49":-1.773217568023148,"50":-0.9092346862203182,"51":-1.0986694898254254,"52":-1.7697805193513445,"53":1.5596941800514825,"54":0.8322234287634537,"55":1.3609332164167998,"56":2.0242575328362684,"57":0.13797514471569824,"58":0.4299895560159506,"59":-1.6549759077776838,"60":0.840849551157889,"61":-0.5676243573923732,"62":-1.6339513514238604,"63":0.01859770355334145,"64":-0.28321136074538933,"65":1.3126111559793359,"66":0.9602148597614908,"67":3.7951620242887274,"68":2.747087976063979,"69":2.8867299161737847,"70":-0.6855237146070721,"71":0.970297433966627,"72":-0.8893547842085389,"73":1.2518523362757723,"74":1.0927190375800409,"75":0.12215463690739448,"76":1.9938473741186842,"77":-1.0899267171455502,"78":-1.1035021569629655,"79":0.9851779450942889,"80":-1.2988914694560696,"81":1.2565197328886957,"82":-0.9812391480129535,"83":0.5473199142064561,"84":1.5962901207259803,"85":0.5498187648243801,"86":-0.3189545393593829,"87":-0.4029232906511327,"88":0.5487670837931731,"89":1.798877221732953,"90":1.6756953633387093,"91":-0.8505295175566332,"92":-0.6701729969554165,"93":1.453974565124357,"94":-0.4360380374267773,"95":-0.4136256059157698,"96":1.8247999468780105,"97":1.783367543057933,"98":-1.638973214209405,"99":1.2810230203124182,"100":0.8900298085893122,"101":-0.13213626087835026,"102":2.043690714311727,"103":-0.7760335668213821,"104":0.15741860532698046,"105":0.5795685178701262,"106":-1.1923602037684495,"107":0.3458767049233455,"108":1.4397892706032076,"109":-1.4200212320654226,"110":1.3588024136446668,"111":-0.8546481693288172,"112":-0.23291049870924638,"113":-2.155981510764815,"114":-0.12744886645680475,"115":-1.6163614004664433,"116":1.4169590521792506,"117":2.3596682126495114,"118":1.0399607345674835,"119":0.05288525441974469,"120":-1.0744875011104162,"121":1.854320924213207,"122":0.47690178105369546,"123":1.8703975710045646,"124":0.3336730035450746,"125":2.0266863027438666,"126":1.3973964949890594,"127":1.820328791727627,"128":-1.3042835277664049,"129":-2.913976379677451,